svm_type c_svc
kernel_type rbf
gamma 1
nr_class 2
total_sv 5039
rho -1.6817
label 0 1
nr_sv 3662 1377
SV
5.585991996490793 1:-0.999864 2:-0.46194 3:-0.33092 4:-0.96835 5:-0.900878 6:-0.841746 7:-0.603508 8:-0.905048 9:-0.98761 10:-1 11:-0.23913 12:-0.891304 13:-1 14:-0.956522 15:-0.913044 16:-1 17:-0.173914 18:-0.956522 19:-1 20:-0.869566 21:-1 22:-1 23:-0.514286 24:-0.971428 25:-1 26:-0.714286 27:-0.914286 28:-1 29:-0.428572 30:-0.885714 31:-1 32:-0.571428 33:-1 34:0.151054 35:-0.151054 36:-0.215424 37:0.215424 38:-0.475556 39:-0.902222 40:-0.884444 41:-0.973334 42:-0.493334 43:-0.973334 44:-0.884444 45:-0.973334 46:-0.786666 47:-0.982222 48:-0.715556 49:-0.955556 
8 1:-0.999648 2:-0.399884 3:-0.13227 4:-0.959992 5:-0.909342 6:-1 7:-0.650318 8:-1 9:-0.948196 10:-1 11:-0.520834 12:-0.958334 13:-1 14:-0.708334 15:-0.875 16:-1 17:-0.229166 18:-0.916666 19:-1 20:-0.833334 21:-0.958334 22:-1 23:-0.267326 24:-0.960396 25:-1 26:-0.881188 27:-0.940594 28:-1 29:-0.465346 30:-0.940594 31:-1 32:-0.60396 33:-0.940594 34:0.170564 35:-0.170564 36:-0.282028 37:0.282028 38:-0.791946 39:-0.973154 40:-0.67114 41:-0.90604 42:-0.442954 43:-0.966442 44:-1 45:-1 46:-0.302014 47:-0.95302 48:-0.993288 49:-1 
8 1:-0.999158 2:-0.719208 3:-0.092148 4:-0.92342 5:-0.88726 6:-0.744734 7:-0.827924 8:-0.84684 9:-0.958464 10:-1 11:-0.330678 12:-0.904382 13:-1 14:-0.729084 15:-0.968128 16:-1 17:-0.458168 18:-0.864542 19:-0.992032 20:-0.840638 21:-0.91235 22:-0.98844 23:-0.248554 24:-0.884394 25:-1 26:-0.98844 27:-0.976878 28:-1 29:-0.213872 30:-0.965318 31:-0.976878 32:-0.768786 33:-0.98844 34:0.265888 35:-0.265888 36:-0.276524 37:0.276524 38:-0.804348 39:-0.95031 40:-0.76708 41:-0.937888 42:-0.357142 43:-0.9441 44:-0.996894 45:-0.993788 46:-0.322982 47:-0.931678 48:-0.996894 49:-0.996894 
0.2754867633981159 1:-0.999524 2:-1 3:-0.176898 4:-0.939232 5:-0.713704 6:-1 7:-0.964212 8:-0.635398 9:-0.570556 10:-1 11:-0.818182 12:-0.90909 13:-0.954546 14:-1 15:-0.681818 16:-0.90909 17:-0.863636 18:-0.727272 19:-0.863636 20:-1 21:-0.272728 22:-0.980952 23:-0.485714 24:-0.771428 25:-1 26:-1 27:-0.92381 28:-1 29:-0.161904 30:-0.828572 31:-0.92381 32:-1 33:-0.92381 34:-0.372258 35:0.372258 36:-0.348182 37:0.348182 38:-0.652968 39:-0.835616 40:-1 41:-0.799086 42:-0.96347 43:-0.96347 44:-1 45:-0.844748 46:-0.09589 47:-0.863014 48:-0.990868 49:-0.990868 
8 1:-0.999258 2:-0.900412 3:0.277264 4:-0.966804 5:-0.909936 6:-1 7:-0.66431 8:-0.966804 9:-0.868998 10:-1 11:-0.23585 12:-0.90566 13:-1 14:-0.73585 15:-0.971698 16:-1 17:-0.415094 18:-0.943396 19:-0.990566 20:-0.85849 21:-0.943396 22:-1 23:-0.356436 24:-0.930694 25:-0.970298 26:-0.821782 27:-0.960396 28:-1 29:-0.39604 30:-0.940594 31:-0.9901 32:-0.732674 33:-0.90099 34:0.202954 35:-0.202954 36:-0.145982 37:0.145982 38:-0.757296 39:-0.966206 40:-0.732718 41:-0.923196 42:-0.296466 43:-0.966206 44:-0.996928 45:-0.987712 46:-0.4255 47:-0.960062 48:-0.996928 49:-0.990784 
8 1:-0.999064 2:-0.783086 3:0.100198 4:-0.945772 5:-0.778764 6:-0.891544 7:-0.802682 8:-1 9:-0.898352 10:-1 11:-0.476924 12:-0.864616 13:-0.993846 14:-0.796924 15:-0.846154 16:-0.993846 17:-0.513846 18:-0.815384 19:-0.975384 20:-0.796924 21:-0.926154 22:-1 23:-0.343284 24:-0.860696 25:-0.97015 26:-0.940298 27:-0.9602 28:-1 29:-0.104478 30:-0.890548 31:-0.99005 32:-0.9602 33:-0.9801 34:0.224644 35:-0.224644 36:-0.146014 37:0.146014 38:-0.721394 39:-0.910448 40:-0.848258 41:-0.902986 42:-0.42786 43:-0.925374 44:-0.9602 45:-0.965174 46:-0.43781 47:-0.90796 48:-1 49:-0.992538 
8 1:-0.99942 2:-0.692282 3:-0.115624 4:-0.938456 5:-0.764166 6:-0.876912 7:-0.738898 8:-1 9:-0.87366 10:-1 11:-0.545064 12:-0.888412 13:-0.991416 14:-0.76824 15:-0.819742 16:-0.991416 17:-0.519314 18:-0.802576 19:-0.982832 20:-0.74249 21:-0.948498 22:-0.985074 23:-0.522388 24:-0.83582 25:-0.940298 26:-0.820896 27:-0.910448 28:-1 29:-0.268656 30:-0.910448 31:-0.985074 32:-0.910448 33:-0.910448 34:0.276158 35:-0.276158 36:-0.042606 37:0.042606 38:-0.762846 39:-0.89328 40:-0.794466 41:-0.87747 42:-0.442688 43:-0.87747 44:-0.932806 45:-0.944664 46:-0.592886 47:-0.936758 48:-0.972332 49:-0.972332 
0.6158793950059119 1:-0.99976 2:-0.498032 3:-0.545594 4:-0.954366 5:-0.983772 6:-0.817466 7:-0.480678 8:-0.817466 9:-0.902628 10:-1 11:-0.859154 12:-0.859154 13:-1 14:-0.661972 15:-0.802816 16:-1 17:-0.71831 18:-0.943662 19:-0.915492 20:-0.380282 21:-0.859154 22:-1 23:-0.076924 24:-0.938462 25:-1 26:-1 27:-1 28:-1 29:-0.353846 30:-1 31:-1 32:-0.661538 33:-0.96923 34:0.09865 35:-0.09865 36:-0.281114 37:0.281114 38:-0.767676 39:-0.939394 40:-0.636364 41:-0.888888 42:-0.868686 43:-0.969696 44:-0.80808 45:-0.929292 46:-0.222222 47:-0.969696 48:-1 49:-1 
8 1:-0.999002 2:-0.909572 3:0.600954 4:-1 5:-0.807114 6:-1 7:-0.935704 8:-1 9:-0.948564 10:-1 11:-0.233898 12:-0.905084 13:-1 14:-0.959322 15:-0.938984 16:-1 17:-0.166102 18:-0.871186 19:-0.99322 20:-0.979662 21:-0.952542 22:-0.975904 23:-0.164658 24:-0.919678 25:-1 26:-0.951808 27:-0.991968 28:-1 29:-0.140562 30:-0.92771 31:-1 32:-0.92771 33:-1 34:-0.04957 35:0.04957 36:0.025044 37:-0.025044 38:-0.427084 39:-0.895834 40:-0.942708 41:-0.95573 42:-0.447916 43:-0.979166 44:-0.994792 45:-0.994792 46:-0.414062 47:-0.95573 48:-1 49:-0.992188 
4.297306176499183 1:-0.999406 2:-0.436246 3:-0.28667 4:-0.95302 5:-0.87262 6:-0.906042 7:-0.770716 8:-0.95302 9:-0.821668 10:-1 11:-0.383648 12:-0.949686 13:-1 14:-0.761006 15:-0.81132 16:-1 17:-0.471698 18:-0.949686 19:-0.974842 20:-0.8239 21:-0.874214 22:-1 23:-0.58209 24:-0.910448 25:-0.910448 26:-0.671642 27:-0.791044 28:-1 29:-0.641792 30:-0.820896 31:-1 32:-0.791044 33:-0.880598 34:0.197712 35:-0.197712 36:0.392894 37:-0.392894 38:-0.793104 39:-0.905956 40:-0.68652 41:-0.736678 42:-0.021944 43:-0.956112 44:-0.99373 45:-1 46:-1 47:-1 48:-0.949844 49:-0.956112 
0.6291052475961166 1:-0.999988 2:-0.838472 3:0.006166 4:-0.946158 5:-0.880218 6:-1 7:-1 8:-0.892314 9:-0.449004 10:-1 11:-0.806452 12:-0.935484 13:-0.935484 14:-1 15:-0.32258 16:-1 17:-0.806452 18:-0.935484 19:-0.903226 20:-1 21:-0.354838 22:-1 23:-0.257142 24:-1 25:-1 26:-1 27:-0.885714 28:-1 29:-0.028572 30:-0.942858 31:-1 32:-1 33:-0.885714 34:0.213416 35:-0.213416 36:-0.374624 37:0.374624 38:-0.954888 39:-0.954888 40:-1 41:-0.263158 42:-0.62406 43:-0.954888 44:-1 45:-0.984962 46:-0.278196 47:-0.984962 48:-1 49:-1 
8 1:-0.99932 2:-0.260396 3:-0.266354 4:-1 5:-0.81865 6:-1 7:-0.851622 8:-0.967844 9:-0.835136 10:-1 11:-0.155556 12:-0.977778 13:-1 14:-0.966666 15:-1 16:-1 17:-0.033334 18:-0.9 19:-1 20:-1 21:-0.966666 22:-0.965812 23:-0.555556 24:-0.880342 25:-0.965812 26:-0.811966 27:-0.897436 28:-1 29:-0.521368 30:-0.91453 31:-1 32:-0.692308 33:-0.794872 34:0.123 35:-0.123 36:-0.219296 37:0.219296 38:-0.588594 39:-0.971486 40:-0.918534 41:-0.942974 42:-0.674134 43:-0.84114 44:-1 45:-0.8778 46:-0.547862 47:-0.861508 48:-0.898168 49:-0.8778 
8 1:-0.999574 2:-0.25004 3:-0.45432 4:-0.714302 5:-0.87995 6:-1 7:-0.96726 8:-0.821438 9:-0.912692 10:-1 11:-0.149426 12:-1 13:-0.977012 14:-0.885058 15:-0.931034 16:-1 17:-0.333334 18:-0.954022 19:-0.931034 20:-0.977012 21:-0.862068 22:-0.974358 23:-0.23077 24:-0.820512 25:-1 26:-1 27:-1 28:-1 29:-0.102564 30:-1 31:-1 32:-0.974358 33:-0.897436 34:0.7122 35:-0.7122 36:-0.704146 37:0.704146 38:-0.827814 39:-0.980132 40:-0.953642 41:-0.900662 42:-0.463576 43:-0.695364 44:-0.993378 45:-0.986754 46:-0.284768 47:-0.92053 48:-1 49:-0.993378 
8 1:-0.999098 2:-0.599348 3:-0.09976 4:-0.691806 5:-0.903052 6:-1 7:-0.9446 8:-0.96918 9:-0.792252 10:-1 11:-0.38372 12:-0.860466 13:-0.94186 14:-0.94186 15:-0.825582 16:-1 17:-0.418604 18:-0.813954 19:-0.976744 20:-0.976744 21:-0.860466 22:-1 23:-0.21466 24:-0.937172 25:-0.979058 26:-0.979058 27:-0.958116 28:-1 29:-0.256544 30:-0.937172 31:-0.989528 32:-0.937172 33:-0.811518 34:0.341732 35:-0.341732 36:-0.370144 37:0.370144 38:-0.713298 39:-0.93437 40:-0.979274 41:-0.854922 42:-0.426598 43:-0.913644 44:-0.979274 45:-0.93437 46:-0.409326 47:-0.982728 48:-0.986184 49:-0.88601 
8 1:-0.999876 2:-0.536996 3:0.214934 4:-0.942124 5:-0.908306 6:-1 7:-1 8:-0.942124 9:-0.885384 10:-1 11:-0.36508 12:-0.968254 13:-0.904762 14:-1 15:-0.904762 16:-1 17:-0.111112 18:-0.936508 19:-0.904762 20:-1 21:-0.904762 22:-1 23:-0.02439 24:-1 25:-1 26:-1 27:-1 28:-1 29:-0.07317 30:-0.90244 31:-1 32:-1 33:-1 34:0.364116 35:-0.364116 36:-0.284672 37:0.284672 38:-0.454546 39:-0.958042 40:-1 41:-0.86014 42:-0.412588 43:-0.972028 44:-1 45:-0.972028 46:-0.384616 47:-0.986014 48:-1 49:-1 
8 1:-0.999278 2:-0.48525 3:0.09963 4:-0.971402 5:-0.735804 6:-1 7:-0.99286 8:-1 9:-0.914314 10:-1 11:-0.274194 12:-0.862904 13:-0.991936 14:-0.92742 15:-0.903226 16:-0.959678 17:-0.314516 18:-0.862904 19:-0.98387 20:-0.991936 21:-0.92742 22:-0.98718 23:-0.25641 24:-0.75641 25:-1 26:-1 27:-0.961538 28:-1 29:-0.217948 30:-0.833334 31:-1 32:-1 33:-0.98718 34:0.145824 35:-0.145824 36:-0.01595 37:0.01595 38:-0.613312 39:-0.806656 40:-0.977812 41:-0.914422 42:-0.305864 43:-0.965134 44:-0.987322 45:-0.99683 46:-0.464342 47:-0.971474 48:-0.99683 49:-1 
8 1:-0.999936 2:-0.30126 3:0.014484 4:-1 5:-0.985298 6:-0.930126 7:-0.926486 8:-0.930126 9:-0.94119 10:-1 11:-0.333334 12:-1 13:-0.9 14:-0.866666 15:-1 16:-1 17:-0.3 18:-0.966666 19:-0.9 20:-0.766666 21:-0.966666 22:-1 23:-0.09091 24:-1 25:-0.787878 26:-1 27:-0.969696 28:-1 29:-0.212122 30:-1 31:-0.939394 32:-1 33:-1 34:0.314742 35:-0.314742 36:-0.385402 37:0.385402 38:-0.234568 39:-0.987654 40:-1 41:-0.80247 42:-0.62963 43:-1 44:-0.864198 45:-1 46:-0.493828 47:-1 48:-1 49:-0.987654 
8 1:-1 2:-0.615038 3:0.323524 4:-0.95188 5:-0.913212 6:-1 7:-1 8:-0.95188 9:-0.891514 10:-1 11:-0.122808 12:-1 13:-0.824562 14:-1 15:-0.964912 16:-1 17:-0.22807 18:-0.964912 19:-0.929824 20:-1 21:-0.964912 22:-1 23:-0.052632 24:-0.947368 25:-0.578948 26:-1 27:-1 28:-1 29:-0.631578 30:-0.947368 31:-0.842106 32:-1 33:-1 34:0.15799 35:-0.15799 36:-0.31889 37:0.31889 38:-0.275862 39:-0.982758 40:-1 41:-0.655172 42:-0.586206 43:-0.982758 44:-1 45:-1 46:-0.586206 47:-0.931034 48:-1 49:-1 
1.038878523543931 1:-0.998978 2:-1 3:-0.403814 4:-1 5:-0.984714 6:-0.951616 7:0.319762 8:-1 9:-0.979618 10:-1 11:-0.731958 12:-0.984536 13:-1 14:-0.43299 15:-0.984536 16:-1 17:-0.65464 18:-0.98969 19:-1 20:-0.237114 21:-0.984536 22:-1 23:-0.665754 24:-0.989042 25:-1 26:-0.315068 27:-0.989042 28:-1 29:-0.676712 30:-0.99452 31:-1 32:-0.369864 33:-1 34:-0.252764 35:0.252764 36:0.180546 37:-0.180546 38:-0.601214 39:-0.987854 40:-0.469636 41:-0.991902 42:-0.890688 43:-0.997976 44:-0.617408 45:-0.987854 46:-0.852226 47:-0.995952 48:-0.609312 49:-0.997976 
1.319554856514809 1:-0.986251 2:-1 3:-0.096616 4:-1 5:-0.901958 6:-0.93654 7:-0.171022 8:-0.96827 9:-0.925594 10:-1 11:-0.956306 12:-0.998014 13:-1 14:-0.09434 15:-0.976166 16:-1 17:-0.950348 18:-1 19:-1 20:-0.042702 21:-0.982126 22:-0.998156 23:-0.196314 24:-0.902304 25:-0.992626 26:-0.959448 27:-0.957604 28:-1 29:-0.16129 30:-0.90046 31:-0.99447 32:-0.976036 33:-0.96129 34:-0.047732 35:0.047732 36:-0.026524 37:0.026524 38:-0.692264 39:-0.966788 40:-0.683816 41:-0.97274 42:-0.607794 43:-0.972548 44:-0.824342 45:-0.982722 46:-0.391822 47:-0.959494 48:-0.961412 49:-0.984258 
0.5910690759367101 1:-0.999746 2:-0.444528 3:-0.549676 4:-0.829086 5:-0.714796 6:-1 7:-0.849892 8:-0.957272 9:-0.654752 10:-1 11:-0.686746 12:-0.686746 13:-0.951808 14:-0.92771 15:-0.73494 16:-0.951808 17:-0.686746 18:-0.783132 19:-0.879518 20:-0.879518 21:-0.831326 22:-0.918918 23:-0.72973 24:-0.864864 25:-0.945946 26:-0.972972 27:-0.594594 28:-1 29:-0.756756 30:-0.81081 31:-1 32:-0.783784 33:-0.621622 34:0.214556 35:-0.214556 36:-0.18534 37:0.18534 38:-0.845454 39:-0.818182 40:-0.89091 41:-0.618182 42:-0.5 43:-0.854546 44:-0.99091 45:-0.936364 46:-0.872728 47:-0.90909 48:-0.881818 49:-0.881818 
8 1:-0.999268 2:-0.652824 3:0.519444 4:-0.968438 5:-0.906014 6:-1 7:-0.992168 8:-1 9:-1 10:-1 11:-0.073684 12:-0.905264 13:-1 14:-1 15:-0.978948 16:-1 17:-0.147368 18:-0.894736 19:-1 20:-1 21:-1 22:-1 23:-0.067264 24:-0.982062 25:-1 26:-0.991032 27:-1 28:-1 29:0.013452 30:-0.982062 31:-1 32:-0.991032 33:-1 34:0.11545 35:-0.11545 36:-0.116366 37:0.116366 38:-0.426752 39:-0.95223 40:-0.996816 41:-0.99363 42:-0.356688 43:-0.955414 44:-1 45:-0.996816 46:-0.350318 47:-0.977708 48:-0.99363 49:-1 
8 1:-0.999424 2:-0.208358 3:-0.399918 4:-0.811514 5:-0.91723 6:-0.886908 7:-0.875846 8:-0.962302 9:-0.937922 10:-1 11:-0.36508 12:-0.873016 13:-0.904762 14:-0.904762 15:-0.968254 16:-0.968254 17:-0.36508 18:-0.873016 19:-0.968254 20:-0.809524 21:-1 22:-0.981652 23:-0.449542 24:-0.944954 25:-0.981652 26:-1 27:-0.981652 28:-1 29:0.009174 30:-0.963302 31:-0.963302 32:-0.816514 33:-0.926606 34:0.434504 35:-0.434504 36:-0.601254 37:0.601254 38:-0.913846 39:-0.987692 40:-0.944616 41:-0.95077 42:-0.556924 43:-0.84 44:-0.926154 45:-0.895384 46:-0.255384 47:-0.79077 48:-0.993846 49:-0.944616 
8 1:-0.999208 2:-0.90112 3:0.735462 4:-1 5:-0.865896 6:-1 7:-0.992112 8:-1 9:-0.976334 10:-1 11:-0.068182 12:-0.954546 13:-1 14:-0.984848 15:-0.992424 16:-1 17:-0.098484 18:-0.931818 19:-0.984848 20:-0.992424 21:-0.992424 22:-0.989072 23:-0.06011 24:-0.956284 25:-1 26:-0.989072 27:-1 28:-1 29:-0.125684 30:-0.879782 31:-1 32:-1 33:-1 34:0.04035 35:-0.04035 36:0.082352 37:-0.082352 38:-0.31603 39:-0.932824 40:-0.993894 41:-0.99084 42:-0.346564 43:-0.966412 44:-0.993894 45:-0.99084 46:-0.517558 47:-0.957252 48:-0.993894 49:-1 
8 1:-0.999172 2:-0.893672 3:0.737942 4:-1 5:-0.894104 6:-1 7:-0.987542 8:-1 9:-0.962624 10:-1 11:-0.184668 12:-0.972126 13:-1 14:-0.986062 15:-0.94425 16:-1 17:-0.010452 18:-0.923344 19:-1 20:-0.993032 21:-0.986062 22:-0.963236 23:-0.088236 24:-0.970588 25:-0.970588 26:-1 27:-0.992648 28:-1 29:-0.088236 30:-0.955882 31:-1 32:-1 33:-0.970588 34:-0.052232 35:0.052232 36:-0.073296 37:0.073296 38:-0.339806 39:-0.94903 40:-0.992718 41:-0.958738 42:-0.502428 43:-0.970874 44:-0.997572 45:-0.992718 46:-0.332524 47:-0.970874 48:-0.997572 49:-0.995146 
8 1:-0.999346 2:-0.91909 3:0.412956 4:-1 5:-0.831288 6:-1 7:-0.894556 8:-1 9:-0.768022 10:-1 11:-0.29843 12:-0.958116 13:-0.979058 14:-0.947644 15:-0.717278 16:-0.989528 17:-0.3089 18:-0.937172 19:-0.989528 20:-0.947644 21:-0.926702 22:-1 23:-0.19697 24:-0.89394 25:-1 26:-0.984848 27:-0.969696 28:-1 29:-0.318182 30:-0.90909 31:-0.954546 32:-0.939394 33:-0.833334 34:0.178712 35:-0.178712 36:-0.062426 37:0.062426 38:-0.508572 39:-0.958096 40:-0.965714 41:-0.939048 42:-0.401904 43:-0.950476 44:-0.973334 45:-0.900952 46:-0.6 47:-0.935238 48:-0.939048 49:-0.92762 
1.394330750979607 1:-0.999024 2:-0.810744 3:0.660982 4:-1 5:-0.945542 6:-1 7:-0.918312 8:-1 9:-0.986386 10:-1 11:0.212122 12:-0.89394 13:-1 14:-0.969696 15:-0.924242 16:-1 17:-0.454546 18:-1 19:-1 20:-0.969696 21:-1 22:-1 23:-0.56 24:-0.98 25:-1 26:-0.86 27:-1 28:-1 29:0.22 30:-0.92 31:-1 32:-0.92 33:-0.98 34:0.781822 35:-0.781822 36:-0.746968 37:0.746968 38:-0.917322 39:-1 40:-0.940944 41:-0.980314 42:-0.070866 43:-0.944882 44:-1 45:-0.992126 46:-0.212598 47:-0.956692 48:-0.996062 49:-0.988188 
8 1:-0.999276 2:-0.888248 3:0.7418 4:-0.944124 5:-0.937296 6:-1 7:-0.993032 8:-1 9:-0.979098 10:-1 11:-0.075758 12:-0.962122 13:-1 14:-1 15:-0.992424 16:-0.992424 17:-0.037878 18:-0.954546 19:-1 20:-1 21:-0.984848 22:-1 23:-0.042254 24:-0.98122 25:-1 26:-0.98122 27:-1 28:-1 29:-0.032864 30:-0.962442 31:-1 32:-1 33:-1 34:0.025524 35:-0.025524 36:-0.008962 37:0.008962 38:-0.285302 39:-0.979828 40:-0.997118 41:-0.994236 42:-0.409222 43:-0.974064 44:-1 45:-0.994236 46:-0.389048 47:-0.979828 48:-0.997118 49:-1 
8 1:-0.999372 2:-0.290884 3:0.142346 4:-0.972726 5:-0.95662 6:-1 7:-1 8:-0.972726 9:-0.94939 10:-1 11:-0.12676 12:-0.962442 13:-0.943662 14:-1 15:-1 16:-1 17:-0.023474 18:-0.99061 19:-0.962442 20:-1 21:-0.99061 22:-1 23:-0.06767 24:-0.954888 25:-0.969924 26:-1 27:-1 28:-1 29:-0.082706 30:-0.969924 31:-1 32:-1 33:-0.954888 34:0.139818 35:-0.139818 36:-0.153034 37:0.153034 38:-0.474308 39:-0.980238 40:-1 41:-0.940712 42:-0.343874 43:-0.98419 44:-1 45:-0.996048 46:-0.312252 47:-0.972332 48:-1 49:-0.996048 
8 1:-0.999056 2:-0.686006 3:0.16512 4:-0.9686 5:-0.986212 6:-1 7:-0.675972 8:-1 9:-0.848328 10:-1 11:-0.52809 12:-0.865168 13:-1 14:-0.77528 15:-0.94382 16:-1 17:-0.449438 18:-0.966292 19:-0.988764 20:-0.550562 21:-0.932584 22:-1 23:-0.12 24:-0.952 25:-1 26:-0.936 27:-0.984 28:-1 29:-0.112 30:-1 31:-1 32:-0.936 33:-0.96 34:-0.14199 35:0.14199 36:-0.201212 37:0.201212 38:-0.571428 39:-0.964286 40:-0.782468 41:-0.948052 42:-0.818182 43:-0.964286 44:-0.88961 45:-0.938312 46:-0.285714 47:-0.84091 48:-1 49:-0.996754 
8 1:-0.998892 2:-0.947636 3:0.82624 4:-1 5:-0.91555 6:-1 7:-0.989444 8:-1 9:-0.97361 10:-1 11:-0.124324 12:-0.956756 13:-1 14:-1 15:-0.994594 16:-0.994594 17:0.032432 18:-0.967568 19:-1 20:-0.994594 21:-1 22:-1 23:-0.003154 24:-0.949526 25:-1 26:-1 27:-0.99369 28:-1 29:-0.135646 30:-0.955836 31:-0.987382 32:-0.99369 33:-0.981072 34:-0.120752 35:0.120752 36:0.10658 37:-0.10658 38:-0.236814 39:-0.960704 40:-1 41:-0.993796 42:-0.447776 43:-0.97725 44:-0.997932 45:-1 46:-0.40848 47:-0.98759 48:-0.997932 49:-0.991726 
8 1:-0.999274 2:-0.84503 3:0.706074 4:-1 5:-0.861044 6:-1 7:-1 8:-1 9:-1 10:-1 11:-0.081968 12:-0.934426 13:-1 14:-0.991804 15:-1 16:-0.983606 17:-0.065574 18:-0.942622 19:-1 20:-1 21:-1 22:-0.99 23:-0.01 24:-0.97 25:-0.99 26:-1 27:-1 28:-1 29:-0.12 30:-0.92 31:-1 32:-1 33:-1 34:0.026676 35:-0.026676 36:-0.012906 37:0.012906 38:-0.31077 39:-0.944616 40:-0.996924 41:-1 42:-0.406154 43:-0.95077 44:-1 45:-0.996924 46:-0.427692 47:-0.96923 48:-1 49:-0.996924 
8 1:-0.99903 2:-0.938996 3:0.333966 4:-0.969498 5:-0.683018 6:-1 7:-0.834906 8:-1 9:-0.907546 10:-1 11:-0.305732 12:-0.968152 13:-1 14:-0.821656 15:-0.968152 16:-0.968152 17:-0.299364 18:-0.910828 19:-0.968152 20:-0.828026 21:-0.961784 22:-0.972602 23:-0.296804 24:-0.844748 25:-0.945206 26:-0.954338 27:-0.990868 28:-1 29:-0.342466 30:-0.753424 31:-0.990868 32:-0.945206 33:-0.96347 34:0.01158 35:-0.01158 36:-0.004384 37:0.004384 38:-0.487242 39:-0.910086 40:-0.929526 41:-0.970838 42:-0.516404 43:-0.941676 44:-0.927096 45:-0.968408 46:-0.586878 47:-0.907654 48:-0.893074 49:-0.961118 
8 1:-0.99935 2:-0.889932 3:0.725788 4:-1 5:-0.920902 6:-1 7:-0.985618 8:-0.972482 9:-0.956856 10:-1 11:0.007752 12:-0.953488 13:-1 14:-0.992248 15:-0.992248 16:-1 17:-0.108528 18:-0.976744 19:-1 20:-0.992248 21:-0.992248 22:-0.959798 23:-0.115578 24:-0.959798 25:-0.9799 26:-0.98995 27:-0.98995 28:-1 29:-0.105528 30:-0.939698 31:-1 32:-1 33:-0.959798 34:0.057762 35:-0.057762 36:-0.035742 37:0.035742 38:-0.299712 39:-0.959654 40:-0.991354 41:-0.997118 42:-0.429394 43:-0.971182 44:-0.997118 45:-0.98559 46:-0.544668 47:-0.971182 48:-1 49:-0.853026 
8 1:-0.999822 2:-0.210736 3:-0.097446 4:-0.905288 5:-0.964372 6:-1 7:-1 8:-0.905288 9:-0.91687 10:-1 11:0.04065 12:-0.93496 13:-0.95122 14:-1 15:-0.98374 16:-1 17:-0.284552 18:-0.95122 19:-0.93496 20:-1 21:-1 22:-1 23:-0.046154 24:-1 25:-0.907692 26:-1 27:-0.96923 28:-1 29:-0.292308 30:-0.96923 31:-0.876924 32:-1 33:-0.938462 34:0.40383 35:-0.40383 36:-0.268752 37:0.268752 38:-0.421052 39:-0.977444 40:-1 41:-0.864662 42:-0.383458 43:-0.962406 44:-1 45:-1 46:-0.413534 47:-0.984962 48:-1 49:-0.992482 
0.848143234129442 1:-0.999862 2:-0.724194 3:0.616432 4:-1 5:-0.892238 6:-1 7:-1 8:-1 9:-1 10:-1 11:0.354838 12:-0.935484 13:-1 14:-1 15:-0.935484 16:-1 17:-0.548388 18:-0.935484 19:-1 20:-1 21:-1 22:-1 23:-0.066666 24:-1 25:-1 26:-1 27:-1 28:-1 29:0.066666 30:-1 31:-1 32:-1 33:-1 34:0.590936 35:-0.590936 36:-0.360766 37:0.360766 38:-0.605634 39:-0.943662 40:-1 41:-0.97183 42:-0.014084 43:-1 44:-1 45:-0.97183 46:-0.492958 47:-1 48:-1 49:-1 
8 1:-0.999922 2:-0.703604 3:0.44016 4:-1 5:-0.982438 6:-1 7:-1 8:-1 9:-0.75412 10:-1 11:0.096774 12:-0.978494 13:-1 14:-1 15:-1 16:-1 17:-0.333334 18:-0.978494 19:-0.95699 20:-1 21:-0.849462 22:-1 23:0.103448 24:-1 25:-1 26:-1 27:-1 28:-1 29:-0.275862 30:-1 31:-0.827586 32:-1 33:-1 34:0.19297 35:-0.19297 36:-0.23399 37:0.23399 38:-0.226804 39:-0.98969 40:-1 41:-0.85567 42:-0.371134 43:-0.98969 44:-1 45:-1 46:-0.56701 47:-1 48:-1 49:-1 
8 1:-0.999224 2:-0.893158 3:0.81571 4:-1 5:-0.948368 6:-1 7:-0.991394 8:-1 9:-0.98279 10:-1 11:-0.134616 12:-0.923076 13:-1 14:-1 15:-0.98077 16:-1 17:-0.009616 18:-0.971154 19:-0.990384 20:-0.990384 21:-1 22:-1 23:0.040816 24:-1 25:-1 26:-1 27:-1 28:-1 29:-0.071428 30:-0.979592 31:-0.989796 32:-1 33:-1 34:0.002534 35:-0.002534 36:-0.075596 37:0.075596 38:-0.300654 39:-0.980392 40:-0.996732 41:-0.986928 42:-0.529412 43:-0.882352 44:-1 45:-0.993464 46:-0.349674 47:-0.98366 48:-1 49:-0.996732 
8 1:-0.999762 2:-0.103756 3:-0.080424 4:-0.96415 5:-0.974456 6:-1 7:-1 8:-0.9283 9:-0.948912 10:-1 11:-0.151516 12:-0.959596 13:-0.89899 14:-0.979798 15:-1 16:-1 17:-0.212122 18:-0.89899 19:-0.919192 20:-1 21:-0.979798 22:-1 23:0.014084 24:-1 25:-0.746478 26:-1 27:-1 28:-1 29:-0.295774 30:-1 31:-0.97183 32:-1 33:-1 34:0.331158 35:-0.331158 36:-0.250252 37:0.250252 38:-0.42735 39:-0.965812 40:-1 41:-0.82906 42:-0.324786 43:-0.974358 44:-0.991452 45:-1 46:-0.48718 47:-1 48:-1 49:-1 
8 1:-0.999048 2:-0.870828 3:0.81435 4:-1 5:-0.950582 6:-1 7:-1 8:-1 9:-0.99294 10:-1 11:-0.032028 12:-0.985766 13:-1 14:-1 15:-1 16:-1 17:-0.010676 18:-0.978648 19:-1 20:-1 21:-0.992882 22:-1 23:0.022832 24:-0.972602 25:-1 26:-1 27:-1 28:-1 29:-0.09589 30:-0.954338 31:-1 32:-1 33:-1 34:0.049066 35:-0.049066 36:0.018528 37:-0.018528 38:-0.312584 39:-0.983762 40:-1 41:-0.997294 42:-0.339648 43:-0.986468 44:-1 45:-0.997294 46:-0.447902 47:-0.935048 48:-1 49:-1 
6.929399569947137 1:-0.999262 2:-0.842044 3:0.692338 4:-1 5:-0.87633 6:-1 7:-0.993492 8:-1 9:-0.980474 10:-1 11:-0.119692 12:-0.96139 13:-0.992278 14:-1 15:-1 16:-1 17:0.03475 18:-0.969112 19:-1 20:-1 21:-0.992278 22:-0.992032 23:0.01992 24:-0.976096 25:-1 26:-1 27:-0.992032 28:-0.992032 29:-0.19522 30:-0.888446 31:-1 32:-1 33:-0.984064 34:-0.06472 35:0.06472 36:0.018132 37:-0.018132 38:-0.256984 39:-0.93296 40:-1 41:-0.988826 42:-0.438548 43:-0.994414 44:-0.997206 45:-1 46:-0.407822 47:-0.986034 48:-1 49:-0.997206 
8 1:-0.999906 2:-0.380504 3:0.300138 4:-0.95575 5:-0.981942 6:-1 7:-0.981942 8:-1 9:-1 10:-1 11:-0.013698 12:-0.945206 13:-1 14:-1 15:-1 16:-1 17:-0.041096 18:-1 19:-1 20:-1 21:-1 22:-1 23:0.09804 24:-1 25:-1 26:-1 27:-1 28:-1 29:-0.17647 30:-0.960784 31:-1 32:-0.960784 33:-1 34:0.218482 35:-0.218482 36:-0.238586 37:0.238586 38:-0.181286 39:-0.976608 40:-0.988304 41:-1 42:-0.403508 43:-0.988304 44:-1 45:-0.988304 46:-0.48538 47:-0.988304 48:-1 49:-1 
8 1:-0.999842 2:-0.37031 3:-0.021854 4:-0.933716 5:-0.974594 6:-1 7:-1 8:-0.80115 9:-0.898374 10:-1 11:-0.050506 12:-1 13:-0.858586 14:-1 15:-0.979798 16:-1 17:-0.272728 18:-0.979798 19:-0.858586 20:-1 21:-1 22:-1 23:-0.272728 24:-0.939394 25:-0.757576 26:-1 27:-1 28:-0.969696 29:-0.333334 30:-0.939394 31:-0.818182 32:-1 33:-0.969696 34:0.345432 35:-0.345432 36:-0.268768 37:0.268768 38:-0.383334 39:-0.983334 40:-1 41:-0.75 42:-0.291666 43:-0.991666 44:-1 45:-1 46:-0.625 47:-0.975 48:-1 49:-1 
8 1:-0.999284 2:-0.90187 3:0.877278 4:-1 5:-0.983604 6:-1 7:-1 8:-1 9:-0.991802 10:-1 12:-0.95614 13:-1 14:-1 15:-1 16:-1 17:-0.052632 18:-0.991228 19:-1 20:-1 21:-1 22:-0.989584 23:-0.041666 24:-0.979166 25:-1 26:-1 27:-1 28:-1 29:-0.010416 30:-0.989584 31:-0.989584 32:-1 33:-1 34:0.056202 35:-0.056202 36:-0.0875 37:0.0875 38:-0.329032 39:-0.98387 40:-1 41:-0.996774 42:-0.380646 43:-0.987096 44:-1 45:-0.996774 46:-0.345162 47:-0.98387 48:-1 49:-0.996774 
1.445718300669423 1:-0.999908 2:-0.687292 3:-0.376642 4:-0.882734 5:-0.792214 6:-1 7:-1 8:-0.804558 9:-0.45656 10:-1 11:-0.288136 12:-0.898306 13:-0.898306 14:-1 15:-0.932204 16:-0.898306 17:-0.559322 18:-0.728814 19:-0.830508 20:-1 21:-0.966102 22:-0.846154 23:-0.507692 24:-1 25:-0.876924 26:-1 27:-0.907692 28:-1 29:-0.538462 30:-1 31:-0.846154 32:-1 33:-0.476924 34:0.316978 35:-0.316978 36:-0.40808 37:0.40808 38:-0.855072 39:-0.84541 40:-1 41:-0.642512 42:-0.516908 43:-0.826086 44:-1 45:-0.855072 46:-0.47826 47:-1 48:-1 49:-0.980676 
8 1:-0.998736 2:-0.945816 3:0.839404 4:-1 5:-0.913858 6:-1 7:-0.994932 8:-1 9:-0.984798 10:-1 11:-0.072886 12:-0.953352 13:-1 14:-1 15:-1 16:-0.99417 17:-0.0379 18:-0.947522 19:-1 20:-0.99417 21:-1 22:-0.98895 23:-0.093922 24:-0.961326 25:-0.98895 26:-1 27:-1 28:-1 29:-0.027624 30:-0.955802 31:-0.994476 32:-1 33:-0.98895 34:-0.042142 35:0.042142 36:-0.066956 37:0.066956 38:-0.33208 39:-0.966134 40:-1 41:-1 42:-0.444968 43:-0.979304 44:-0.998118 45:-0.998118 46:-0.33208 47:-0.96237 48:-0.998118 49:-0.988712 
0.4198978229927578 1:-0.999918 2:-0.5503 3:-0.509048 4:-0.486058 5:-0.721352 6:-0.967878 7:-1 8:-0.871514 9:-0.893848 10:-1 11:-1 12:-0.526316 13:-1 14:-1 15:-0.736842 16:-1 17:-1 19:-1 20:-1 21:-0.736842 22:-1 23:-0.114286 24:-0.914286 25:-0.971428 26:-1 27:-0.971428 28:-1 29:-0.428572 30:-0.657142 31:-1 32:-1 33:-0.942858 34:0.42255 35:-0.42255 36:-0.659446 37:0.659446 38:-0.780646 39:-0.729032 40:-1 41:-0.832258 42:-0.71613 43:-0.71613 44:-0.987096 45:-0.96129 46:-0.303226 47:-0.974194 48:-1 49:-1 
8 1:-0.999066 2:-0.91575 3:0.692556 4:-1 5:-0.838804 6:-1 7:-0.9814 8:-1 9:-0.956602 10:-1 11:-0.152778 12:-0.909722 13:-1 14:-0.993056 15:-0.986112 16:-0.986112 17:-0.104166 18:-0.895834 19:-0.993056 20:-0.993056 21:-0.986112 22:-0.992064 23:-0.071428 24:-0.95238 25:-1 26:-1 27:-1 28:-1 29:-0.02381 30:-0.968254 31:-0.992064 32:-1 33:-1 34:-0.079072 35:0.079072 36:0.004028 37:-0.004028 38:-0.34303 39:-0.912728 40:-0.997576 41:-0.985454 42:-0.522424 43:-0.932122 44:-0.992728 45:-0.973334 46:-0.355152 47:-0.985454 48:-1 49:-1 
8 1:-0.999296 2:-0.83133 3:0.760348 4:-1 5:-0.950312 6:-1 7:-1 8:-1 9:-0.978706 10:-1 11:-0.066666 12:-0.984314 13:-1 14:-1 15:-1 16:-1 17:0.011764 18:-0.97647 19:-0.992156 20:-1 21:-0.992156 22:-1 23:0.056604 24:-0.971698 25:-1 26:-0.990566 27:-1 28:-1 29:-0.132076 30:-0.962264 31:-1 32:-1 33:-1 34:-0.036768 35:0.036768 36:0.002164 37:-0.002164 38:-0.254336 39:-0.976878 40:-0.99711 41:-0.99711 42:-0.433526 43:-0.98555 44:-1 45:-0.99422 46:-0.372832 47:-0.99422 48:-1 49:-0.99422 
8 1:-0.999218 2:-0.881166 3:0.78818 4:-1 5:-0.907014 6:-1 7:-1 8:-1 9:-1 10:-1 11:-0.006944 12:-0.958334 13:-0.993056 14:-1 15:-1 16:-0.993056 17:-0.076388 18:-0.972222 19:-1 20:-1 21:-1 22:-1 23:-0.024876 24:-0.920398 25:-1 26:-1 27:-1 28:-1 29:-0.124378 30:-0.930348 31:-1 32:-1 33:-1 34:0.087686 35:-0.087686 36:0.025296 37:-0.025296 38:-0.326896 39:-0.964138 40:-1 41:-1 42:-0.31862 43:-0.972414 44:-1 45:-0.997242 46:-0.533794 47:-0.911724 48:-0.997242 49:-0.977932 
8 1:-0.99999 2:-0.373516 3:0.163996 4:-1 5:-0.95344 6:-1 7:-1 8:-1 9:-0.83704 10:-1 11:-0.111112 12:-0.968254 13:-0.84127 14:-1 15:-0.968254 16:-0.968254 17:-0.36508 18:-0.968254 19:-0.873016 20:-1 21:-0.936508 22:-1 23:-0.363636 24:-0.90909 25:-0.90909 26:-1 27:-1 28:-1 29:0.09091 30:-1 31:-0.90909 32:-1 33:-1 34:0.332162 35:-0.332162 36:-0.204186 37:0.204186 38:-0.315316 39:-0.981982 40:-1 41:-0.747748 42:-0.405406 43:-0.945946 44:-1 45:-1 46:-0.603604 47:-1 48:-1 49:-1 
8 1:-0.999094 2:-0.931968 3:0.850622 4:-1 5:-0.944074 6:-1 7:-1 8:-1 9:-0.97458 10:-1 11:-0.037434 12:-0.973262 13:-0.994652 14:-1 15:-1 16:-1 17:-0.04278 18:-0.967914 19:-1 20:-1 21:-0.983958 22:-1 23:-0.0375 24:-0.975 25:-1 26:-1 27:-1 28:-1 29:-0.01875 30:-0.975 31:-1 32:-1 33:-0.99375 34:-0.047042 35:0.047042 36:-0.039322 37:0.039322 38:-0.270404 39:-0.986234 40:-1 41:-0.9941 42:-0.463126 43:-0.980334 44:-1 45:-0.9941 46:-0.337266 47:-0.976402 48:-1 49:-0.998034 
3.305721945883572 1:-0.999406 2:-0.868136 3:0.72512 4:-1 5:-0.901678 6:-1 7:-0.973184 8:-1 9:-0.982124 10:-1 11:-0.085106 12:-0.893618 13:-1 14:-1 15:-0.989362 16:-1 17:-0.117022 18:-0.93617 19:-0.989362 20:-0.989362 21:-1 22:-0.988304 23:-0.146198 24:-0.964912 25:-1 26:-1 27:-1 28:-1 29:0.017544 30:-0.953216 31:-1 32:-0.976608 33:-0.988304 34:0.088132 35:-0.088132 36:-0.151986 37:0.151986 38:-0.36862 39:-0.958412 40:-0.992438 41:-0.992438 42:-0.432892 43:-0.95085 44:-0.99622 45:-1 46:-0.353498 47:-0.962192 48:-0.99622 49:-0.99622 
7.663185083862171 1:-0.99923 2:-0.91175 3:0.662082 4:-1 5:-0.800264 6:-1 7:-0.985734 8:-1 9:-0.964334 10:-1 11:-0.15695 12:-0.87444 13:-0.991032 14:-1 15:-0.991032 16:-1 17:-0.09417 18:-0.892376 19:-1 20:-1 21:-1 22:-0.984126 23:-0.087302 24:-0.95238 25:-1 26:-1 27:-0.992064 28:-1 29:-0.111112 30:-0.912698 31:-1 32:-0.992064 33:-0.968254 34:-0.011114 35:0.011114 36:-0.08191 37:0.08191 38:-0.386364 39:-0.90341 40:-0.99716 41:-0.980114 42:-0.46875 43:-0.94034 44:-0.99716 45:-0.99716 46:-0.352272 47:-0.982954 48:-1 49:-0.994318 
8 1:-0.999396 2:-0.733028 3:0.016934 4:-0.961862 5:-0.917824 6:-1 7:-0.445308 8:-1 9:-0.958912 10:-1 11:-0.472868 12:-0.875968 13:-1 14:-0.627906 15:-0.906976 16:-0.984496 17:-0.488372 18:-0.953488 19:-0.984496 20:-0.736434 21:-0.968992 22:-1 23:-0.359478 24:-0.986928 25:-0.986928 26:-0.803922 27:-0.947712 28:-1 29:-0.424836 30:-0.973856 31:-1 32:-0.529412 33:-0.986928 34:0.13481 35:-0.13481 36:-0.234118 37:0.234118 38:-0.879194 39:-0.977628 40:-0.606264 41:-0.93736 42:-0.472036 43:-0.923938 44:-0.982102 45:-0.995526 46:-0.275168 47:-0.96868 48:-0.986578 49:-0.995526 
7.724626955393927 1:-0.99995 2:-0.478678 3:0.113184 4:-1 5:-0.845866 6:-1 7:-0.948622 8:-0.959898 9:-0.880118 10:-1 11:-0.435898 12:-1 13:-0.974358 14:-0.871794 15:-0.820512 16:-1 17:-0.435898 18:-0.948718 19:-0.897436 20:-0.692308 21:-0.923076 22:-1 23:-0.35849 24:-1 25:-0.962264 26:-1 27:-1 28:-1 29:-0.132076 30:-0.698114 31:-1 32:-1 33:-0.849056 34:-0.026304 35:0.026304 36:-0.076288 37:0.076288 38:-0.514124 39:-0.909604 40:-0.80791 41:-0.78531 42:-0.559322 43:-1 44:-1 45:-0.9887 46:-0.514124 47:-0.920904 48:-1 49:-1 
8 1:-0.999786 2:0.048752 3:-0.563762 4:-0.970036 5:-1 6:-1 7:-1 8:-0.700356 9:-0.814598 10:-1 11:-0.489362 12:-0.957446 13:-0.765958 14:-1 15:-0.914894 16:-1 17:-0.234042 18:-0.957446 19:-0.787234 20:-0.957446 21:-0.93617 22:-1 23:-0.30303 24:-1 25:-0.818182 26:-1 27:-0.969696 28:-1 29:-0.333334 30:-1 31:-0.666666 32:-1 33:-0.90909 34:0.47756 35:-0.47756 36:-0.492712 37:0.492712 38:-0.764228 39:-0.96748 40:-0.98374 41:-0.626016 42:-0.373984 43:-0.97561 44:-1 45:-0.97561 46:-0.341464 47:-1 48:-0.99187 49:-1 
2.955114011282777 1:-0.888084 2:-1 3:0.494376 4:-1 5:-0.88906 6:-1 7:-0.904908 8:-1 9:-0.700408 10:-1 11:-0.296284 12:-0.950016 13:-0.984708 14:-0.935876 15:-0.793654 16:-0.997204 17:-0.320782 18:-0.94755 19:-0.989642 20:-0.942454 21:-0.841828 22:-1 23:-0.157618 24:-0.957968 25:-0.996498 26:-0.994746 27:-0.936952 28:-0.998248 29:-0.140106 30:-0.956218 31:-0.989492 32:-0.975482 33:-0.896672 34:-0.350196 35:0.350196 36:0.405054 37:-0.405054 38:-0.836604 39:-0.987006 40:-0.98796 41:-0.962066 42:-0.245774 43:-0.952218 44:-0.93095 45:-0.930402 46:-0.41029 47:-0.959228 48:-0.838368 49:-0.959134 
8 1:-0.999298 2:-0.978626 3:0.423608 4:-0.992876 5:-0.870908 6:-0.99525 7:-0.876312 8:-0.978626 9:-0.73101 10:-1 11:-0.350198 12:-0.909784 13:-0.99939 14:-0.917708 15:-0.81652 16:-0.996952 17:-0.343492 18:-0.910394 19:-0.990246 20:-0.925022 21:-0.840292 22:-0.99771 23:-0.196946 24:-0.964886 25:-0.99084 26:-0.967938 27:-0.848092 28:-1 29:-0.244274 30:-0.967938 31:-0.996184 32:-0.939694 33:-0.885496 34:0.029822 35:-0.029822 36:0.06933 37:-0.06933 38:-0.476066 39:-0.959678 40:-0.91713 41:-0.849104 42:-0.438218 43:-0.94063 44:-0.990352 45:-0.94731 46:-0.665058 47:-0.983178 48:-0.964874 49:-0.868398 
5.142644478242177 1:-0.999728 2:-0.92818 3:0.279346 4:-0.820452 5:-0.764004 6:-0.96409 7:-0.85095 8:-0.96409 9:-0.98758 10:-1 11:-0.309942 12:-0.777778 13:-0.929824 14:-0.964912 15:-0.964912 16:-0.976608 17:-0.4269 18:-0.730994 19:-0.988304 20:-0.94152 21:-0.988304 22:-1 23:-0.435898 24:-1 25:-0.974358 26:-0.641026 27:-1 28:-1 29:-0.205128 30:-1 31:-1 32:-0.74359 33:-1 34:0.17977 35:-0.17977 36:0.059672 37:-0.059672 38:-0.413408 39:-0.98324 40:-0.837988 41:-0.96648 42:-0.608938 43:-0.765364 44:-0.93296 45:-0.94972 46:-0.648044 47:-1 48:-0.893854 49:-1 
8 1:-0.998442 2:-0.962914 3:0.553846 4:-1 5:-0.963368 6:-1 7:-0.767992 8:-1 9:-0.859574 10:-1 11:-0.300342 12:-0.962458 13:-0.993174 14:-0.887372 15:-0.921502 16:-1 17:-0.215018 18:-0.972696 19:-0.993174 20:-0.853242 21:-0.901024 22:-0.99377 23:-0.155764 24:-0.953272 25:-0.99377 26:-0.928348 27:-0.950156 28:-0.990654 29:-0.218068 30:-0.99377 31:-0.981308 32:-0.884736 33:-0.956386 34:-0.20207 35:0.20207 36:0.106196 37:-0.106196 38:-0.341076 39:-0.968216 40:-0.90709 41:-0.909536 42:-0.535452 43:-0.977996 44:-0.982886 45:-1 46:-0.531784 47:-0.98044 48:-0.908312 49:-0.957212 
4.929872551353481 1:-0.998654 2:-0.881688 3:-0.121476 4:-0.988838 5:-0.896218 6:-0.995536 7:-0.901448 8:-1 9:-0.214798 10:-1 11:-0.392328 12:-0.948656 13:-0.98792 14:-0.966174 15:-0.847176 16:-0.999396 17:-0.380852 18:-0.942012 19:-0.95228 20:-0.94624 21:-0.636968 22:-0.997464 23:-0.543436 24:-0.891354 25:-0.980976 26:-0.958572 27:-0.828366 28:-0.994082 29:-0.49313 30:-0.925598 31:-0.912914 32:-0.91376 33:-0.560346 34:-0.132132 35:0.132132 36:-0.380238 37:0.380238 38:-0.685076 39:-0.939678 40:-0.975952 41:-0.829902 42:-0.835338 43:-0.9875 44:-0.992392 45:-0.93533 46:-0.51131 47:-0.956932 48:-0.882888 49:-0.4677 
0.4990370149163769 1:-0.999468 2:-0.913782 3:-0.426342 4:-0.984418 5:-0.933876 6:-0.996884 7:-0.866284 8:-0.851456 9:-0.026958 10:-1 11:-0.653246 12:-0.893506 13:-0.985714 14:-0.945454 15:-0.801298 16:-0.994806 17:-0.596754 18:-0.911688 19:-0.914936 20:-0.877922 21:-0.424676 22:-0.998262 23:-0.584014 24:-0.973588 25:-0.99027 26:-0.984362 27:-0.904084 28:-0.99861 29:-0.572546 30:-0.96629 31:-0.914856 32:-0.855778 33:-0.257342 34:-0.13072 35:0.13072 36:-0.393876 37:0.393876 38:-0.669884 39:-0.973214 40:-0.931106 41:-0.710666 42:-0.882964 43:-0.962476 44:-0.988056 45:-0.916144 46:-0.33651 47:-0.958012 48:-0.911318 49:-0.759652 
1.66107003156275 1:-0.961956 2:-0.823706 3:-0.084588 4:-0.9828 5:-0.911934 6:-0.9871 7:-0.827704 8:-0.9914 9:-0.390766 10:-1 11:-0.501298 12:-0.95225 13:-0.950842 14:-0.944334 15:-0.687904 16:-0.998592 17:-0.48327 18:-0.954536 19:-0.958316 20:-0.914524 21:-0.654136 22:-0.995536 23:-0.517954 24:-0.948468 25:-0.965916 26:-0.903834 27:-0.718402 28:-0.993102 29:-0.50213 30:-0.957396 31:-0.961858 32:-0.8028 33:-0.732602 34:0.034664 35:-0.034664 36:-0.755062 37:0.755062 38:-0.973906 39:-0.997408 40:-0.986174 41:-0.981356 42:-0.997272 43:-0.99959 44:-0.999814 45:-0.998604 46:-0.266278 47:-0.945198 48:-0.164682 49:-0.689716 
5.325481039351187 1:-0.952624 2:-0.866614 3:-0.053862 4:-0.982216 5:-0.914298 6:-1 7:-0.83325 8:-0.995554 9:-0.354208 10:-1 11:-0.49888 12:-0.952144 13:-0.950916 14:-0.944768 15:-0.690126 16:-0.998596 17:-0.479212 18:-0.955218 19:-0.958466 20:-0.914914 21:-0.65676 22:-0.991278 23:-0.489144 24:-0.96233 25:-0.965856 26:-0.926516 27:-0.671368 28:-0.989608 29:-0.532196 30:-0.966042 31:-0.944702 32:-0.902022 33:-0.658934 34:0.082172 35:-0.082172 36:-0.779702 37:0.779702 38:-0.97699 39:-0.997738 40:-0.988844 41:-0.98361 42:-0.99793 43:-0.99969 44:-0.999854 45:-0.998862 46:-0.245518 47:-0.928462 48:-0.23717 49:-0.645332 
3.660041228311014 1:-0.998646 2:-0.946138 3:0.017794 4:-0.991382 5:-0.917796 6:-0.995692 7:-0.89381 8:-0.996768 9:-0.27621 10:-1 11:-0.589286 12:-0.933404 13:-0.986554 14:-0.971638 15:-0.868908 16:-0.9979 17:-0.564076 18:-0.945378 19:-0.921218 20:-0.871008 21:-0.35063 22:-0.999636 23:-0.428676 24:-0.970562 25:-0.917682 26:-0.91968 27:-0.510812 28:-0.998546 29:-0.405416 30:-0.965474 31:-0.99146 32:-0.944576 33:-0.947484 34:-0.405652 35:0.405652 36:0.427732 37:-0.427732 38:-0.341342 39:-0.956986 40:-0.898122 41:-0.611476 42:-0.80772 43:-0.960536 44:-0.97325 45:-0.851394 46:-0.825552 47:-0.986378 48:-0.962766 49:-0.824478 
7.331939900815939 1:-0.995864 2:-0.92739 3:0.039538 4:-0.994192 5:-0.915588 6:-0.994192 7:-0.898564 8:-0.995644 9:-0.31397 10:-1 11:-0.491816 12:-0.952342 13:-0.948568 14:-0.943652 15:-0.683854 16:-0.998508 17:-0.469874 18:-0.955676 19:-0.960768 20:-0.917234 21:-0.67771 22:-0.998372 23:-0.505038 24:-0.965198 25:-0.966216 26:-0.943218 27:-0.689834 28:-0.996744 29:-0.397986 30:-0.954818 31:-0.968862 32:-0.88847 33:-0.725246 34:0.061444 35:-0.061444 36:0.057038 37:-0.057038 38:-0.534108 39:-0.970578 40:-0.932462 41:-0.745962 42:-0.695722 43:-0.963708 44:-0.953448 45:-0.758892 46:-0.798322 47:-0.964812 48:-0.849366 49:-0.83262 
8 1:-0.9999 2:-0.612218 3:0.169662 4:-0.971122 5:-0.941434 6:-0.933994 7:-0.936414 8:-0.913368 9:-0.861114 10:-1 11:-0.175572 12:-0.93675 13:-0.991276 14:-0.984732 15:-0.943294 16:-1 17:-0.077426 18:-0.95856 19:-0.993456 20:-0.98037 21:-0.95856 22:-1 23:-0.086274 24:-0.933334 25:-0.964706 26:-0.97647 27:-0.937254 28:-1 29:-0.203922 30:-0.941176 31:-0.996078 32:-0.988236 33:-0.97255 34:0.081286 35:-0.081286 36:-0.066446 37:0.066446 38:-0.254118 39:-0.957064 40:-0.981028 41:-0.954068 42:-0.572642 43:-0.975038 44:-0.994008 45:-0.872192 46:-0.575636 47:-0.97304 48:-0.981028 49:-0.910134 
8 1:-0.951196 2:-0.97205 3:-0.104774 4:-0.996506 5:-0.891736 6:-1 7:-0.539194 8:-1 9:-0.49574 10:-1 11:-0.508672 12:-0.964968 13:-0.957822 14:-0.915992 15:-0.61255 16:-0.998082 17:-0.42414 18:-0.96427 19:-0.971416 20:-0.930284 21:-0.751808 22:-0.999424 23:-0.68119 24:-0.928172 25:-0.990714 26:-0.777152 27:-0.83551 28:-0.999424 29:-0.610782 30:-0.924872 31:-0.984154 32:-0.399406 33:-0.8692 34:0.292326 35:-0.292326 36:-0.780198 37:0.780198 38:-0.97865 39:-0.997822 40:-0.988816 41:-0.984876 42:-0.992268 43:-0.9993 44:-0.998912 45:-0.994974 46:-0.249002 47:-0.928774 48:-0.238552 49:-0.648058 
1.4119018306571 1:-0.99994 2:-0.501728 3:-0.581434 4:-0.963542 5:-0.983736 6:-0.961516 7:-0.96405 8:-0.270822 9:-0.77317 10:-1 11:-0.538272 12:-0.980246 13:-0.985186 14:-0.985186 15:-0.646914 16:-1 17:-0.106172 18:-0.962962 19:-0.995062 20:-0.928396 21:-0.871604 22:-1 23:-0.509174 24:-0.977064 25:-0.995412 26:-1 27:-0.811926 28:-0.995412 29:-0.123854 30:-0.977064 31:-0.986238 32:-0.844036 33:-0.779816 34:-0.172856 35:0.172856 36:-0.009234 37:0.009234 38:-0.068582 39:-0.96081 40:-0.866754 41:-0.76486 42:-0.8145 43:-0.98955 44:-0.97518 45:-0.861528 46:-0.84324 47:-0.994774 48:-0.998694 49:-0.861528 
8 1:-0.986573 2:-0.337606 3:-0.382522 4:-0.938272 5:-0.929746 6:-0.921652 7:-0.901954 8:-0.98338 9:-0.604868 10:-1 11:-0.483118 12:-0.95859 13:-0.966238 14:-0.946092 15:-0.732512 16:-0.997948 17:-0.382578 18:-0.951874 19:-0.966984 20:-0.901698 21:-0.712368 22:-0.995348 23:-0.518424 24:-0.933162 25:-0.97111 26:-0.917248 27:-0.73681 28:-0.993634 29:-0.548538 30:-0.919942 31:-0.952748 32:-0.788468 33:-0.724568 34:0.22009 35:-0.22009 36:0.142662 37:-0.142662 38:-0.676866 39:-0.962372 40:-0.835748 41:-0.778966 42:-0.61734 43:-0.966006 44:-0.946008 45:-0.744972 46:-0.794908 47:-0.975806 48:-0.849112 49:-0.851902 
2.681207667674585 1:-0.96283 2:-0.553338 3:-0.258028 4:-0.969346 5:-0.927912 6:-0.934314 7:-0.839652 8:-0.99562 9:-0.52179 10:-1 11:-0.497354 12:-0.960128 13:-0.963718 14:-0.94539 15:-0.718632 16:-0.997922 17:-0.391534 18:-0.951436 19:-0.966176 20:-0.900226 21:-0.707482 22:-0.996648 23:-0.425604 24:-0.961796 25:-0.978552 26:-0.935656 27:-0.821046 28:-0.994638 29:-0.40248 30:-0.967158 31:-0.954424 32:-0.867292 33:-0.694706 34:0.331038 35:-0.331038 36:-0.81138 37:0.81138 38:-0.982508 39:-0.998028 40:-0.988108 41:-0.98773 42:-0.989486 43:-0.999068 44:-0.998522 45:-0.992964 46:-0.265238 47:-0.94621 48:-0.156066 49:-0.696068 
8 1:-0.99598 2:-0.332632 3:-0.37179 4:-0.950566 5:-0.927958 6:-0.935734 7:-0.912112 8:-0.988466 9:-0.580742 10:-1 11:-0.512376 12:-0.960206 13:-0.963062 14:-0.94345 15:-0.69364 16:-0.998096 17:-0.409748 18:-0.952208 19:-0.965728 20:-0.899848 21:-0.701638 22:-0.994062 23:-0.605278 24:-0.937548 25:-0.961518 26:-0.943486 27:-0.73392 28:-0.994502 29:-0.603518 30:-0.930732 31:-0.95448 32:-0.634084 33:-0.706872 34:0.204644 35:-0.204644 36:0.245416 37:-0.245416 38:-0.755498 39:-0.973018 40:-0.811022 41:-0.792514 42:-0.43374 43:-0.962152 44:-0.92129 45:-0.65178 46:-0.854536 47:-0.972342 48:-0.959136 49:-0.912972 
2.237762015190194 1:-0.984291 2:-0.349056 3:-0.391072 4:-0.940352 5:-0.932356 6:-0.914418 7:-0.888564 8:-0.981846 9:-0.602336 10:-1 11:-0.518736 12:-0.960068 13:-0.962528 14:-0.942658 15:-0.681492 16:-0.998108 17:-0.418054 18:-0.95212 19:-0.965368 20:-0.900264 21:-0.700606 22:-0.997084 23:-0.606026 24:-0.97894 25:-0.964036 26:-0.842216 27:-0.695448 28:-0.998704 29:-0.59177 30:-0.971812 31:-0.963064 32:-0.659808 33:-0.731086 34:0.248446 35:-0.248446 36:0.162986 37:-0.162986 38:-0.676656 39:-0.956546 40:-0.830852 41:-0.765012 42:-0.621556 43:-0.967134 44:-0.946044 45:-0.761102 46:-0.827568 47:-0.98561 48:-0.797532 49:-0.864388 
8 1:-0.997376 2:-0.447124 3:-0.329032 4:-0.963142 5:-0.941512 6:-0.942308 7:-0.892218 8:-0.99359 9:-0.491072 10:-1 11:-0.504128 12:-0.967238 13:-0.96488 14:-0.94863 15:-0.721138 16:-0.997642 17:-0.392478 18:-0.957542 19:-0.965928 20:-0.889922 21:-0.690474 22:-0.994366 23:-0.604606 24:-0.963744 25:-0.960314 26:-0.941206 27:-0.764332 28:-0.993876 29:-0.585988 30:-0.955904 31:-0.95321 32:-0.596276 33:-0.686184 34:0.15739 35:-0.15739 36:-0.227546 37:0.227546 38:-0.766948 39:-0.977696 40:-0.932912 41:-0.8062 42:-0.575606 43:-0.969442 44:-0.957938 45:-0.828416 46:-0.742976 47:-0.944678 48:-0.737268 49:-0.759922 
5.153986640648764 1:-0.990166 2:-0.283846 3:-0.409208 4:-0.942108 5:-0.939694 6:-0.920666 7:-0.909178 8:-0.98499 9:-0.61031 10:-1 11:-0.509712 12:-0.963116 13:-0.962526 14:-0.946242 15:-0.693938 16:-0.998038 17:-0.402394 18:-0.953698 19:-0.96645 20:-0.894252 21:-0.709634 22:-0.997322 23:-0.475904 24:-0.960508 25:-0.971218 26:-0.952254 27:-0.749666 28:-0.99643 29:-0.481036 30:-0.958946 31:-0.95984 32:-0.780902 33:-0.715976 34:0.226648 35:-0.226648 36:0.032194 37:-0.032194 38:-0.761218 39:-0.967938 40:-0.857148 41:-0.81463 42:-0.536422 43:-0.960366 44:-0.931806 45:-0.709636 46:-0.788388 47:-0.973836 48:-0.845612 49:-0.853002 
8 1:-0.99737 2:-0.394202 3:-0.367822 4:-0.952932 5:-0.921544 6:-0.931676 7:-0.894926 8:-0.989372 9:-0.547524 10:-1 11:-0.495466 12:-0.96373 13:-0.969414 14:-0.939098 15:-0.691704 16:-0.998106 17:-0.358236 18:-0.950738 19:-0.978076 20:-0.869536 21:-0.785898 22:-0.994226 23:-0.626608 24:-0.936966 25:-0.96271 26:-0.93841 27:-0.752196 28:-0.993986 29:-0.623482 30:-0.92614 31:-0.952604 32:-0.603754 33:-0.68892 34:0.182182 35:-0.182182 36:-0.254664 37:0.254664 38:-0.782602 39:-0.975834 40:-0.938496 41:-0.791234 42:-0.603452 43:-0.972474 44:-0.945492 45:-0.803406 46:-0.73291 47:-0.943584 48:-0.732364 49:-0.778152 
8 1:-0.999322 2:-0.508838 3:-0.178274 4:-0.970976 5:-0.92436 6:-0.937488 7:-0.914046 8:-0.857116 9:-0.7089 10:-1 11:-0.574754 12:-0.969994 13:-0.925504 14:-0.918262 15:-0.472322 16:-0.996896 17:-0.563372 18:-0.977238 19:-0.96689 20:-0.93999 21:-0.694774 22:-0.998018 23:-0.49678 24:-0.945518 25:-0.978208 26:-0.934622 27:-0.822684 28:-0.997028 29:-0.372956 30:-0.9158 31:-0.985142 32:-0.793958 33:-0.759286 34:0.188498 35:-0.188498 36:-0.154612 37:0.154612 38:-0.766264 39:-0.969928 40:-0.918714 41:-0.726366 42:-0.48221 43:-0.972904 44:-0.888344 45:-0.856782 46:-0.718326 47:-0.96695 48:-0.92854 49:-0.804674 
8 1:-0.996988 2:-0.362246 3:-0.37468 4:-0.949566 5:-0.923812 6:-0.92028 7:-0.898582 8:-0.988612 9:-0.582222 10:-1 11:-0.490342 12:-0.962916 13:-0.961112 14:-0.932012 15:-0.676796 16:-0.99794 17:-0.382436 18:-0.951842 19:-0.97811 20:-0.8684 21:-0.798094 22:-0.994034 23:-0.619094 24:-0.934606 25:-0.96086 26:-0.943436 27:-0.730788 28:-0.994034 29:-0.625776 30:-0.928878 31:-0.953222 32:-0.615514 33:-0.699762 34:-0.078156 35:0.078156 36:0.32387 37:-0.32387 38:-0.658044 39:-0.959256 40:-0.7141 41:-0.735122 42:-0.631402 43:-0.9718 44:-0.944636 45:-0.751644 46:-0.833564 47:-0.962198 48:-0.945934 49:-0.892302 
0.01512973741744889 1:-0.971419 2:-0.525006 3:-0.309298 4:-0.963462 5:-0.927052 6:-0.910686 7:-0.830176 8:-0.99594 9:-0.538382 10:-1 11:-0.523758 12:-0.964146 13:-0.96501 14:-0.934558 15:-0.69028 16:-0.998272 17:-0.41987 18:-0.955508 19:-0.968034 20:-0.877754 21:-0.702808 22:-0.997094 23:-0.643346 24:-0.97675 25:-0.984222 26:-0.836828 27:-0.816484 28:-0.993356 29:-0.637948 30:-0.96969 31:-0.96637 32:-0.520864 33:-0.657048 34:0.282572 35:-0.282572 36:-0.70066 37:0.70066 38:-0.977642 39:-0.997286 40:-0.982724 41:-0.983518 42:-0.980064 43:-0.998278 44:-0.997008 45:-0.986898 46:-0.207294 47:-0.95758 48:-0.220306 49:-0.7114 
8 1:-0.999012 2:-0.67252 3:-0.29839 4:-0.96199 5:-0.928522 6:-0.926902 7:-0.89341 8:-0.967836 9:-0.35043 10:-1 11:-0.551182 12:-0.950608 13:-0.967788 14:-0.924838 15:-0.657122 16:-0.999284 17:-0.456692 18:-0.928418 19:-0.973514 20:-0.819614 21:-0.770938 22:-0.997482 23:-0.59723 24:-0.967276 25:-0.969792 26:-0.937068 27:-0.802392 28:-0.998742 29:-0.553178 30:-0.97105 31:-0.904342 32:-0.903084 33:-0.398364 34:0.309976 35:-0.309976 36:-0.35178 37:0.35178 38:-0.72536 39:-0.975636 40:-0.95659 41:-0.819048 42:-0.798228 43:-0.97165 44:-0.907198 45:-0.767442 46:-0.705426 47:-0.955924 48:-0.710742 49:-0.706756 
8 1:-0.991034 2:-0.426522 3:-0.463048 4:-0.957744 5:-0.941392 6:-0.676036 7:-0.915096 8:-0.965792 9:-0.65437 10:-1 11:-0.598902 12:-0.960274 13:-0.96302 14:-0.933546 15:-0.707644 16:-0.996704 17:-0.582792 18:-0.956248 19:-0.966132 20:-0.664074 21:-0.670664 22:-0.996718 23:-0.489272 24:-0.96717 25:-0.965294 26:-0.951226 27:-0.695626 28:-0.994842 29:-0.517412 30:-0.96084 31:-0.958026 32:-0.748622 33:-0.754954 34:0.223344 35:-0.223344 36:0.050038 37:-0.050038 38:-0.77337 39:-0.970822 40:-0.860774 41:-0.835076 42:-0.50773 43:-0.956244 44:-0.917946 45:-0.677082 46:-0.813804 47:-0.975196 48:-0.848676 49:-0.863278 
4.367416408854687 1:-0.957884 2:-0.945588 3:-0.051334 4:-0.989118 5:-0.91163 6:-0.961912 7:-0.800514 8:-1 9:-0.339906 10:-1 11:-0.59266 12:-0.932836 13:-0.960648 14:-0.942484 15:-0.701826 16:-0.996784 17:-0.579794 18:-0.928484 19:-0.971242 20:-0.675906 21:-0.71734 22:-0.998936 23:-0.481654 24:-0.968096 25:-0.96682 26:-0.91322 27:-0.697544 28:-0.997874 29:-0.522492 30:-0.971712 31:-0.935766 32:-0.862598 33:-0.683292 34:0.227306 35:-0.227306 36:-0.81076 37:0.81076 38:-0.982136 39:-0.998088 40:-0.989822 41:-0.987584 42:-0.989614 43:-0.999084 44:-0.998298 45:-0.992952 46:-0.248842 47:-0.928716 48:-0.237646 49:-0.647218 
8 1:-0.980473 2:-0.70349 3:-0.357062 4:-0.931836 5:-0.927318 6:-0.70349 7:-0.853088 8:-0.948878 9:-0.574836 10:-1 11:-0.616184 12:-0.933754 13:-0.957602 14:-0.940074 15:-0.68141 16:-0.996534 17:-0.616388 18:-0.930494 19:-0.970036 20:-0.659192 21:-0.698328 22:-0.997546 23:-0.480608 24:-0.968582 25:-0.959744 26:-0.89887 27:-0.680412 28:-0.993618 29:-0.549828 30:-0.973 31:-0.94698 32:-0.80216 33:-0.74865 34:0.204064 35:-0.204064 36:0.135916 37:-0.135916 38:-0.705692 39:-0.963126 40:-0.803448 41:-0.793768 42:-0.641016 43:-0.968262 44:-0.936942 45:-0.754718 46:-0.753586 47:-0.976584 48:-0.86647 49:-0.836386 
8 1:-0.961874 2:-0.837202 3:-0.19227 4:-0.961694 5:-0.92172 6:-0.827626 7:-0.823016 8:-0.990424 9:-0.446046 10:-1 11:-0.615894 12:-0.933774 13:-0.957616 14:-0.940296 15:-0.681508 16:-0.996536 17:-0.616302 18:-0.930514 19:-0.969842 20:-0.659296 21:-0.69842 22:-0.992166 23:-0.499376 24:-0.964216 25:-0.964216 26:-0.926118 27:-0.653908 28:-0.989852 29:-0.532668 30:-0.967064 31:-0.950508 32:-0.882678 33:-0.67723 34:0.276678 35:-0.276678 36:-0.82601 37:0.82601 38:-0.984378 39:-0.998262 40:-0.989768 41:-0.989198 42:-0.98855 43:-0.99899 44:-0.997974 45:-0.992186 46:-0.254164 47:-0.931264 48:-0.202882 49:-0.672384 
8 1:-0.993624 2:-0.70894 3:-0.364022 4:-0.934276 5:-0.92906 6:-0.650258 7:-0.897634 8:-0.941318 9:-0.574494 10:-1 11:-0.61474 12:-0.93334 13:-0.958804 14:-0.939758 15:-0.690302 16:-0.996274 17:-0.613498 18:-0.931064 19:-0.969982 20:-0.654488 21:-0.697754 22:-0.997344 23:-0.477588 24:-0.959712 25:-0.970558 26:-0.953292 27:-0.745878 28:-0.996236 29:-0.483342 30:-0.958606 31:-0.959048 32:-0.780852 33:-0.717542 34:0.118014 35:-0.118014 36:-0.00022 37:0.00022 38:-0.73036 39:-0.962134 40:-0.831996 41:-0.818238 42:-0.626082 43:-0.965988 44:-0.888058 45:-0.759938 46:-0.72924 47:-0.965494 48:-0.898364 49:-0.82411 
8 1:-0.96786 2:-0.76356 3:-0.297974 4:-0.952712 5:-0.92661 6:-0.744646 7:-0.820604 8:-0.985814 9:-0.508078 10:-1 11:-0.605348 12:-0.932068 13:-0.962692 14:-0.94436 15:-0.736036 16:-0.996334 17:-0.60125 18:-0.92948 19:-0.970456 20:-0.633814 21:-0.68816 22:-0.995366 23:-0.51685 24:-0.961668 25:-0.973884 26:-0.936816 27:-0.7738 28:-0.993682 29:-0.477254 30:-0.970092 31:-0.94524 32:-0.833614 33:-0.621736 34:0.33402 35:-0.33402 36:-0.813624 37:0.813624 38:-0.983658 39:-0.998108 40:-0.988742 41:-0.988656 42:-0.983376 43:-0.998472 44:-0.995466 45:-0.988596 46:-0.27401 47:-0.944218 48:-0.15576 49:-0.70094 
8 1:-0.984231 2:-0.749132 3:-0.348758 4:-0.926026 5:-0.923586 6:-0.697672 7:-0.846546 8:-0.958188 9:-0.550088 10:-1 11:-0.609632 12:-0.933092 13:-0.96335 14:-0.945664 15:-0.738334 16:-0.996378 17:-0.600894 18:-0.930108 19:-0.970594 20:-0.628808 21:-0.683146 22:-0.998914 23:-0.607934 24:-0.964678 25:-0.968754 26:-0.884526 27:-0.692704 28:-0.997282 29:-0.554136 30:-0.957072 31:-0.964136 32:-0.707648 33:-0.702214 34:0.252602 35:-0.252602 36:0.18713 37:-0.18713 38:-0.734124 39:-0.964694 40:-0.834194 41:-0.81648 42:-0.544794 43:-0.95807 44:-0.877484 45:-0.692256 46:-0.840308 47:-0.985922 48:-0.86627 49:-0.885406 
8 1:-0.962954 2:-0.834492 3:-0.20571 4:-0.96217 5:-0.923108 6:-0.820304 7:-0.822702 8:-0.985814 9:-0.4457 10:-1 11:-0.613422 12:-0.933104 13:-0.963336 14:-0.944898 15:-0.736706 16:-0.99614 17:-0.605704 18:-0.929888 19:-0.970626 20:-0.625428 21:-0.680746 22:-0.992354 23:-0.458066 24:-0.95578 25:-0.969912 26:-0.94165 27:-0.71324 28:-0.99069 29:-0.489486 30:-0.96243 31:-0.953952 32:-0.88513 33:-0.687308 34:0.323178 35:-0.323178 36:-0.836126 37:0.836126 38:-0.985496 39:-0.998408 40:-0.991094 41:-0.989884 42:-0.987514 43:-0.998848 44:-0.996638 45:-0.991562 46:-0.253886 47:-0.93119 48:-0.201712 49:-0.673768 
8 1:-0.964642 2:-0.931902 3:-0.18413 4:-0.963332 5:-0.917806 6:-0.774754 7:-0.804906 8:-0.984286 9:-0.438884 10:-1 11:-0.616934 12:-0.932872 13:-0.963838 14:-0.944348 15:-0.737982 16:-0.996102 17:-0.608922 18:-0.92984 19:-0.970334 20:-0.621482 21:-0.67735 22:-0.994546 23:-0.479318 24:-0.959546 25:-0.965454 26:-0.93091 27:-0.708864 28:-0.995 29:-0.482954 30:-0.956818 31:-0.963864 32:-0.869318 33:-0.69341 34:0.329762 35:-0.329762 36:-0.839202 37:0.839202 38:-0.985646 39:-0.998404 40:-0.991006 41:-0.99015 42:-0.987016 43:-0.998802 44:-0.996522 45:-0.991234 46:-0.235252 47:-0.947994 48:-0.192986 49:-0.68499 
8 1:-0.995492 2:-0.828734 3:-0.268994 4:-0.95433 5:-0.916008 6:-0.623216 7:-0.885108 8:-0.95433 9:-0.569282 10:-1 11:-0.553516 12:-0.927956 13:-0.962142 14:-0.939888 15:-0.727888 16:-0.995412 17:-0.57233 18:-0.92291 19:-0.97958 20:-0.626018 21:-0.79236 22:-0.997768 23:-0.476058 24:-0.960264 25:-0.971202 26:-0.952004 27:-0.750418 28:-0.996428 29:-0.480522 30:-0.959148 31:-0.959816 32:-0.780556 33:-0.715816 34:0.188566 35:-0.188566 36:-0.112156 37:0.112156 38:-0.757978 39:-0.977616 40:-0.882472 41:-0.848496 42:-0.704146 43:-0.948698 44:-0.780978 45:-0.75952 46:-0.690212 47:-0.954864 48:-0.881054 49:-0.813966 
8 1:-0.992278 2:-0.736622 3:-0.381032 4:-0.950306 5:-0.916252 6:-0.60245 7:-0.879328 8:-0.95776 9:-0.57625 10:-1 11:-0.562322 12:-0.925386 13:-0.952544 14:-0.935106 15:-0.666666 16:-0.997712 17:-0.543454 18:-0.919382 19:-0.981704 20:-0.68725 21:-0.828474 22:-0.996862 23:-0.560408 24:-0.933578 25:-0.967834 26:-0.910826 27:-0.721758 28:-0.995816 29:-0.587866 30:-0.923118 31:-0.952928 32:-0.760984 33:-0.688024 34:0.10762 35:-0.10762 36:-0.00503 37:0.00503 38:-0.710648 39:-0.96288 40:-0.87973 41:-0.827688 42:-0.663022 43:-0.957348 44:-0.845024 45:-0.751628 46:-0.791644 47:-0.982294 48:-0.804896 49:-0.823196 
4.389582315798698 1:-0.959338 2:-0.978298 3:-0.226636 4:-0.982638 5:-0.92552 6:-0.930552 7:-0.522528 8:-1 9:-0.433828 10:-1 11:-0.536546 12:-0.919974 13:-0.95148 14:-0.936988 15:-0.67927 16:-0.99748 17:-0.50252 18:-0.912098 19:-0.97763 20:-0.763706 21:-0.822306 22:-0.999356 23:-0.754096 24:-0.968986 25:-0.980398 26:-0.959966 27:-0.859562 28:-0.99862 29:-0.704122 30:-0.968986 31:-0.951592 32:-0.084852 33:-0.769464 34:0.238492 35:-0.238492 36:-0.8201 37:0.8201 38:-0.98304 39:-0.998372 40:-0.991012 41:-0.988214 42:-0.98817 43:-0.998772 44:-0.996826 45:-0.991886 46:-0.249414 47:-0.928742 48:-0.237908 49:-0.647644 
8 1:-0.99233 2:-0.632522 3:-0.282646 4:-0.931284 5:-0.91771 6:-0.832692 7:-0.878538 8:-0.973112 9:-0.551496 10:-1 11:-0.52454 12:-0.955522 13:-0.97776 14:-0.945552 15:-0.807516 16:-0.996166 17:-0.475076 18:-0.958972 19:-0.935966 20:-0.79793 21:-0.625 22:-0.997154 23:-0.540174 24:-0.936084 25:-0.965066 26:-0.898822 27:-0.711994 28:-0.99793 29:-0.515332 30:-0.925476 31:-0.963256 32:-0.817828 33:-0.730884 34:0.047188 35:-0.047188 36:0.058224 37:-0.058224 38:-0.688156 39:-0.96056 40:-0.863604 41:-0.805778 42:-0.67147 43:-0.959364 44:-0.83475 45:-0.78353 46:-0.802612 47:-0.983428 48:-0.81335 49:-0.833398 
8 1:-0.995176 2:-0.698094 3:-0.245592 4:-0.934934 5:-0.91011 6:-0.838636 7:-0.86967 8:-0.968768 9:-0.534194 10:-1 11:-0.518412 12:-0.945656 13:-0.979622 14:-0.947086 15:-0.835896 16:-0.996068 17:-0.467286 18:-0.952092 19:-0.939936 20:-0.774402 21:-0.643546 22:-0.997074 23:-0.488744 24:-0.93539 25:-0.974786 26:-0.934488 27:-0.73818 28:-0.994822 29:-0.493472 30:-0.924134 31:-0.96218 32:-0.806618 33:-0.750112 34:0.023198 35:-0.023198 36:0.038866 37:-0.038866 38:-0.671864 39:-0.970852 40:-0.876756 41:-0.807924 42:-0.736628 43:-0.955632 44:-0.789684 45:-0.798374 46:-0.743222 47:-0.960932 48:-0.877928 49:-0.810204 
8 1:-0.991536 2:-0.636322 3:-0.35284 4:-0.961562 5:-0.931212 6:-0.733894 7:-0.841496 8:-0.97339 9:-0.569284 10:-1 11:-0.510494 12:-0.95562 13:-0.96979 14:-0.947066 15:-0.798156 16:-0.99706 17:-0.502206 18:-0.958294 19:-0.951344 20:-0.72116 21:-0.688812 22:-0.997708 23:-0.693416 24:-0.983622 25:-0.969538 26:-0.824108 27:-0.748116 28:-0.999018 29:-0.640026 30:-0.979038 31:-0.966918 32:-0.499182 33:-0.699312 34:-0.003282 35:0.003282 36:0.130932 37:-0.130932 38:-0.669696 39:-0.961012 40:-0.85883 41:-0.781224 42:-0.686862 43:-0.959596 44:-0.835666 45:-0.787294 46:-0.812952 47:-0.983206 48:-0.815074 49:-0.848588 
8 1:-0.969854 2:-0.737274 3:-0.227984 4:-0.989896 5:-0.929704 6:-0.823166 7:-0.812652 8:-0.994948 9:-0.48438 10:-1 11:-0.514266 12:-0.955142 13:-0.968944 14:-0.94718 15:-0.794294 16:-0.99708 17:-0.505774 18:-0.958594 19:-0.950896 20:-0.722894 21:-0.684936 22:-0.996762 23:-0.466368 24:-0.956402 25:-0.968858 26:-0.930244 27:-0.779024 28:-0.996264 29:-0.45989 30:-0.961136 31:-0.950672 32:-0.872198 33:-0.662182 34:0.257886 35:-0.257886 36:-0.82223 37:0.82223 38:-0.984832 39:-0.998426 40:-0.989086 41:-0.989066 42:-0.981196 43:-0.99807 44:-0.9949 45:-0.987394 46:-0.27514 47:-0.94431 48:-0.155906 49:-0.70167 
8 1:-0.973325 2:-0.706744 3:-0.275542 4:-0.979776 5:-0.931688 6:-0.787642 7:-0.80929 8:-0.984832 9:-0.524486 10:-1 11:-0.51651 12:-0.95545 13:-0.96934 14:-0.947064 15:-0.787998 16:-0.997118 17:-0.507862 18:-0.958596 19:-0.948376 20:-0.729298 21:-0.68239 22:-0.993906 23:-0.487696 24:-0.947036 25:-0.96344 26:-0.91657 27:-0.703304 28:-0.994844 29:-0.46051 30:-0.95969 31:-0.965316 32:-0.837356 33:-0.77033 34:0.240518 35:-0.240518 36:-0.77301 37:0.77301 38:-0.983698 39:-0.998256 40:-0.987372 41:-0.98821 42:-0.977252 43:-0.997662 44:-0.993794 45:-0.984708 46:-0.278374 47:-0.94418 48:-0.141022 49:-0.725468 
8 1:-0.973265 2:-0.657396 3:-0.29359 4:-0.980422 5:-0.933732 6:-0.789542 7:-0.820302 8:-0.985316 9:-0.5397 10:-1 11:-0.511138 12:-0.956384 13:-0.969212 14:-0.946588 15:-0.766998 16:-0.997434 17:-0.483848 18:-0.959184 19:-0.951954 20:-0.755102 21:-0.702158 22:-0.994656 23:-0.473402 24:-0.955308 25:-0.96988 26:-0.924702 27:-0.738644 28:-0.995628 29:-0.429682 30:-0.967938 31:-0.955794 32:-0.852806 33:-0.74156 34:0.228184 35:-0.228184 36:-0.776544 37:0.776544 38:-0.983474 39:-0.998254 40:-0.987368 41:-0.988344 42:-0.977148 43:-0.99766 44:-0.993752 45:-0.984528 46:-0.280252 47:-0.9444 48:-0.140644 49:-0.724174 
8 1:-0.96813 2:-0.834478 3:-0.153976 4:-0.994984 5:-0.925968 6:-0.864572 7:-0.81328 8:-0.994984 9:-0.41776 10:-1 11:-0.50041 12:-0.957292 13:-0.969728 14:-0.946968 15:-0.759944 16:-0.997654 17:-0.491728 18:-0.961516 19:-0.950956 20:-0.770034 21:-0.69377 22:-0.99275 23:-0.452912 24:-0.955014 25:-0.97248 26:-0.94661 27:-0.757766 28:-0.990936 29:-0.491142 30:-0.960946 31:-0.94974 32:-0.879378 33:-0.650326 34:0.240802 35:-0.240802 36:-0.831668 37:0.831668 38:-0.984416 39:-0.998426 40:-0.989876 41:-0.989192 42:-0.982538 43:-0.998208 44:-0.995086 45:-0.988072 46:-0.276852 47:-0.945774 48:-0.159372 49:-0.692188 
8 1:-0.976507 2:-0.63543 3:-0.316554 4:-0.971956 5:-0.932562 6:-0.808368 7:-0.81557 8:-0.985978 9:-0.533582 10:-1 11:-0.496992 12:-0.958584 13:-0.969922 14:-0.943776 15:-0.76423 16:-0.997686 17:-0.488894 18:-0.961824 19:-0.951642 20:-0.771864 21:-0.694586 22:-0.996444 23:-0.509584 24:-0.949022 25:-0.96641 26:-0.908714 27:-0.725746 28:-0.992886 29:-0.485082 30:-0.953764 31:-0.960086 32:-0.819798 33:-0.732464 34:0.252826 35:-0.252826 36:-0.700566 37:0.700566 38:-0.980144 39:-0.99795 40:-0.983798 41:-0.985524 42:-0.966654 43:-0.996528 44:-0.990292 45:-0.977456 46:-0.2148 47:-0.956208 48:-0.23477 49:-0.715878 
8 1:-0.961384 2:-0.97687 3:-0.147804 4:-1 5:-0.89269 6:-0.990086 7:-0.477472 8:-1 9:-0.515078 10:-1 11:-0.497342 12:-0.958632 13:-0.969956 14:-0.944072 15:-0.764734 16:-0.997688 17:-0.488098 18:-0.961868 19:-0.951698 20:-0.772128 21:-0.693784 22:-0.999392 23:-0.685762 24:-0.928874 25:-0.991114 26:-0.762204 27:-0.832988 28:-0.999392 29:-0.616762 30:-0.925684 31:-0.984316 32:-0.402548 33:-0.870962 34:0.203858 35:-0.203858 36:-0.828276 37:0.828276 38:-0.98385 39:-0.998474 40:-0.991416 41:-0.988616 42:-0.98683 43:-0.998628 44:-0.99612 45:-0.991132 46:-0.249998 47:-0.92878 48:-0.238166 49:-0.647986 
8 1:-0.988577 2:-0.612252 3:-0.34584 4:-0.971628 5:-0.932072 6:-0.76672 7:-0.844912 8:-0.981086 9:-0.54549 10:-1 11:-0.50124 12:-0.958324 13:-0.972292 14:-0.948186 15:-0.765938 16:-0.997748 17:-0.480288 18:-0.960352 19:-0.952466 20:-0.770894 21:-0.692274 22:-0.99916 23:-0.564608 24:-0.96136 25:-0.96808 26:-0.920482 27:-0.709926 28:-0.99636 29:-0.52289 30:-0.9552 31:-0.95856 32:-0.741006 33:-0.702366 34:0.047522 35:-0.047522 36:0.262216 37:-0.262216 38:-0.694638 39:-0.965536 40:-0.806834 41:-0.781884 42:-0.642094 43:-0.956852 44:-0.823426 45:-0.752326 46:-0.863956 47:-0.988046 48:-0.834578 49:-0.889828 
8 1:-0.96424 2:-0.936378 3:-0.083842 4:-0.994698 5:-0.923916 6:-0.904568 7:-0.807104 8:-1 9:-0.349492 10:-1 11:-0.490334 12:-0.95621 13:-0.9733 14:-0.95087 15:-0.776354 16:-0.99701 17:-0.458294 18:-0.956852 19:-0.954928 20:-0.779344 21:-0.706504 22:-0.99891 23:-0.496514 24:-0.968846 25:-0.963834 26:-0.902614 27:-0.659478 28:-0.99804 29:-0.538562 30:-0.975164 31:-0.938998 32:-0.866884 33:-0.692156 34:0.21898 35:-0.21898 36:-0.832532 37:0.832532 38:-0.98444 39:-0.998478 40:-0.991542 41:-0.9888 42:-0.985292 43:-0.998492 44:-0.995578 45:-0.990278 46:-0.255744 47:-0.931934 48:-0.205984 49:-0.67344 
2.350003322345986 1:-0.99943 2:-0.687536 3:-0.197496 4:-0.974388 5:-0.93083 6:-0.813034 7:-0.90754 8:-0.915482 9:-0.573692 10:-1 11:-0.458334 12:-0.968496 13:-0.9187 14:-0.957318 15:-0.54065 16:-0.998984 17:-0.571138 18:-0.978658 19:-0.977642 20:-0.83435 21:-0.795732 22:-1 23:-0.423776 24:-0.95944 25:-0.97063 26:-0.95944 27:-0.763636 28:-1 29:-0.324476 30:-0.952448 31:-0.963636 32:-0.854546 33:-0.827972 34:0.512038 35:-0.512038 36:-0.23033 37:0.23033 38:-0.799442 39:-0.981794 40:-0.930114 41:-0.756864 42:-0.50257 43:-0.947732 44:-0.661724 45:-0.814124 46:-0.777712 47:-0.99031 48:-0.95977 49:-0.877844 
0.772048791927555 1:-0.984601 2:-0.62984 3:-0.34326 4:-0.973288 5:-0.932444 6:-0.763402 7:-0.826566 8:-0.98092 9:-0.550282 10:-1 11:-0.489302 12:-0.956572 13:-0.973178 14:-0.9504 15:-0.777116 16:-0.997232 17:-0.458648 18:-0.957424 19:-0.955082 20:-0.778392 21:-0.706652 22:-0.99706 23:-0.57672 24:-0.957084 25:-0.96943 26:-0.815402 27:-0.787184 28:-0.995296 29:-0.634332 30:-0.96649 31:-0.96649 32:-0.524986 33:-0.809524 34:0.233556 35:-0.233556 36:0.10414 37:-0.10414 38:-0.774822 39:-0.97537 40:-0.857094 41:-0.830416 42:-0.532588 43:-0.951438 44:-0.847434 45:-0.682198 46:-0.815446 47:-0.98333 48:-0.875232 49:-0.874632 
3.668204942062531 1:-0.99953 2:-0.649612 3:-0.100158 4:-0.9708 5:-0.923142 6:-0.786848 7:-0.936096 8:-0.903644 9:-0.729702 10:-1 11:-0.431566 12:-0.964242 13:-0.909988 14:-0.96794 15:-0.528976 16:-0.998766 17:-0.553638 18:-0.977806 19:-0.972872 20:-0.91492 21:-0.779284 22:-1 23:-0.430894 24:-0.95861 25:-0.970436 26:-0.961566 27:-0.763488 28:-1 29:-0.32003 30:-0.95122 31:-0.961566 32:-0.847746 33:-0.834442 34:0.384358 35:-0.384358 36:-0.273556 37:0.273556 38:-0.76671 39:-0.979404 40:-0.949074 41:-0.741622 42:-0.527054 43:-0.967422 44:-0.649878 45:-0.86744 46:-0.756974 47:-0.98914 48:-0.952818 49:-0.852462 
8 1:-0.989985 2:-0.631122 3:-0.342152 4:-0.97049 5:-0.929734 6:-0.76687 7:-0.841658 8:-0.976392 9:-0.541582 10:-1 11:-0.487834 12:-0.956646 13:-0.973222 14:-0.94942 15:-0.77707 16:-0.997238 17:-0.459994 18:-0.957284 19:-0.955158 20:-0.776432 21:-0.709702 22:-0.999 23:-0.62333 24:-0.96628 25:-0.971026 26:-0.868614 27:-0.714 28:-0.997752 29:-0.578868 30:-0.960284 31:-0.967028 32:-0.64681 33:-0.707006 34:0.0838 35:-0.0838 36:0.16051 37:-0.16051 38:-0.74503 39:-0.9705 40:-0.803322 41:-0.793296 42:-0.64232 43:-0.955952 44:-0.80241 45:-0.766226 46:-0.829952 47:-0.982584 48:-0.832112 49:-0.876296 
8 1:-0.967408 2:-0.899334 3:-0.119154 4:-0.994702 5:-0.92323 6:-0.883438 7:-0.805996 8:-0.994702 9:-0.379444 10:-1 11:-0.488278 12:-0.95672 13:-0.973268 14:-0.949506 15:-0.775962 16:-0.997242 17:-0.459212 18:-0.957144 19:-0.955234 20:-0.776812 21:-0.710618 22:-0.991248 23:-0.48906 24:-0.9622 25:-0.967228 26:-0.92645 27:-0.67396 28:-0.989572 29:-0.5317 30:-0.966112 31:-0.943766 32:-0.901686 33:-0.657016 34:0.25663 35:-0.25663 36:-0.8472 37:0.8472 38:-0.986892 39:-0.998636 40:-0.99178 41:-0.99023 42:-0.984382 43:-0.998404 44:-0.995278 45:-0.989616 46:-0.234418 47:-0.948004 48:-0.19648 49:-0.685878 
8 1:-0.990956 2:-0.673126 3:-0.278734 4:-0.944432 5:-0.923476 6:-0.836562 7:-0.8245 8:-0.977118 9:-0.542052 10:-1 11:-0.522876 12:-0.934968 13:-0.964632 14:-0.953224 15:-0.691956 16:-0.996578 17:-0.511694 18:-0.923104 19:-0.966458 20:-0.813804 21:-0.720708 22:-0.999162 23:-0.573204 24:-0.962316 25:-0.967342 26:-0.909282 27:-0.705512 28:-0.99665 29:-0.534404 30:-0.955618 31:-0.958408 32:-0.730636 33:-0.707466 34:0.033796 35:-0.033796 36:0.263652 37:-0.263652 38:-0.713054 39:-0.961928 40:-0.768648 41:-0.786094 42:-0.669996 43:-0.958246 44:-0.798746 45:-0.765428 46:-0.869716 47:-0.98865 48:-0.829304 49:-0.89019 
2.343140722406 1:-0.99969 2:-0.192374 3:-0.48758 4:-0.925564 5:-0.966338 6:-0.985112 7:-0.951376 8:-0.933008 9:-0.558646 10:-1 11:-0.386582 12:-0.945686 13:-0.988818 14:-0.95687 15:-0.832268 16:-0.99361 17:-0.316294 18:-0.932908 19:-0.971246 20:-0.891374 21:-0.784346 22:-0.99117 23:-0.426048 24:-0.977924 25:-0.933774 26:-0.951434 27:-0.377484 28:-0.986754 29:-0.633554 30:-0.97351 31:-0.960264 32:-0.96468 33:-0.8234 34:0.199326 35:-0.199326 36:-0.0016 37:0.0016 38:-0.391 39:-0.927852 40:-0.89682 41:-0.832428 42:-0.74554 43:-0.989138 44:-0.971296 45:-0.822342 46:-0.805276 47:-0.961986 48:-0.96664 49:-0.689682 
3.340382359859981 1:-0.979271 2:-0.703042 3:-0.223068 4:-0.950508 5:-0.923046 6:-0.945008 7:-0.775406 8:-1 9:-0.479922 10:-1 11:-0.501684 12:-0.934398 13:-0.976322 14:-0.921582 15:-0.723472 16:-0.996742 17:-0.511242 18:-0.924406 19:-0.97024 20:-0.806234 21:-0.73368 22:-0.99553 23:-0.51605 24:-0.948394 25:-0.965868 26:-0.903698 27:-0.719626 28:-0.993092 29:-0.50061 30:-0.957334 31:-0.961804 32:-0.803332 33:-0.73466 34:0.245324 35:-0.245324 36:-0.685106 37:0.685106 38:-0.981746 39:-0.997946 40:-0.982448 41:-0.985648 42:-0.955492 43:-0.99554 44:-0.986998 45:-0.970642 46:-0.169536 47:-0.95454 48:-0.31596 49:-0.703504 
8 1:-0.991456 2:-0.701792 3:-0.231802 4:-0.953292 5:-0.918198 6:-0.910178 7:-0.800724 8:-0.992814 9:-0.4912 10:-1 11:-0.50301 12:-0.930556 13:-0.976158 14:-0.915972 15:-0.743056 16:-0.996296 17:-0.538194 18:-0.920834 19:-0.969444 20:-0.794908 21:-0.711574 22:-0.998614 23:-0.486896 24:-0.957564 25:-0.966994 26:-0.935932 27:-0.718208 28:-0.995284 29:-0.445846 30:-0.949522 31:-0.959784 32:-0.833864 33:-0.75149 34:-0.070056 35:0.070056 36:0.318394 37:-0.318394 38:-0.692678 39:-0.96096 40:-0.748138 41:-0.758846 42:-0.663678 43:-0.956944 44:-0.861508 45:-0.781422 46:-0.875384 47:-0.988934 48:-0.8131 49:-0.898408 
8 1:-0.996632 2:-0.760812 3:-0.233306 4:-0.953404 5:-0.900226 6:-0.903704 7:-0.752186 8:-0.987574 9:-0.508786 10:-1 11:-0.525472 12:-0.92469 13:-0.971074 14:-0.917134 15:-0.736808 16:-0.99583 17:-0.551792 18:-0.914268 19:-0.96873 20:-0.774072 21:-0.72013 22:-0.9989 23:-0.684828 24:-0.985324 25:-0.97395 26:-0.817648 27:-0.755274 28:-0.999634 29:-0.629058 30:-0.980188 31:-0.977986 32:-0.468722 33:-0.72849 34:0.014856 35:-0.014856 36:-0.063356 37:0.063356 38:-0.702732 39:-0.952558 40:-0.886694 41:-0.80701 42:-0.690572 43:-0.971812 44:-0.8913 45:-0.804154 46:-0.81871 47:-0.979182 48:-0.664594 49:-0.830684 
8 1:-0.999208 2:-0.751934 3:-0.288254 4:-0.95275 5:-0.843798 6:-0.932078 7:-0.827542 8:-0.937984 9:-0.46566 10:-1 11:-0.513776 12:-0.883742 13:-0.977596 14:-0.867394 15:-0.755374 16:-0.998788 17:-0.523464 18:-0.87587 19:-0.978202 20:-0.811686 21:-0.814108 22:-0.990292 23:-0.480582 24:-0.961166 25:-0.972492 26:-0.935276 27:-0.779936 28:-0.995146 29:-0.582524 30:-0.949838 31:-0.912622 32:-0.830098 33:-0.610032 34:0.19857 35:-0.19857 36:0.136164 37:-0.136164 38:-0.75625 39:-0.901482 40:-0.86465 41:-0.774816 42:-0.651444 43:-0.96257 44:-0.755952 45:-0.80536 46:-0.833508 47:-0.981134 48:-0.905674 49:-0.807156 
8 1:-0.984495 2:-0.538688 3:-0.355846 4:-0.934098 5:-0.931004 6:-0.910562 7:-0.779678 8:-0.995292 9:-0.554832 10:-1 11:-0.538064 12:-0.93374 13:-0.97204 14:-0.919642 15:-0.74577 16:-0.996006 17:-0.52655 18:-0.923402 19:-0.96687 20:-0.780076 21:-0.697838 22:-0.997918 23:-0.670206 24:-0.98376 25:-0.98959 26:-0.809286 27:-0.86092 28:-0.997918 29:-0.691442 30:-0.97793 31:-0.96752 32:-0.388298 33:-0.66521 34:0.1757 35:-0.1757 36:-0.064678 37:0.064678 38:-0.820454 39:-0.981354 40:-0.797178 41:-0.848488 42:-0.638656 43:-0.956996 44:-0.840572 45:-0.757914 46:-0.694728 47:-0.971856 48:-0.907868 49:-0.783938 
8 1:-0.968458 2:-0.948946 3:-0.041782 4:-1 5:-0.919384 6:-0.97731 7:-0.790156 8:-1 9:-0.322422 10:-1 11:-0.540938 12:-0.934454 13:-0.972078 14:-0.919782 15:-0.736868 16:-0.996688 17:-0.529816 18:-0.924514 19:-0.967108 20:-0.78159 21:-0.696166 22:-0.998924 23:-0.491718 24:-0.96795 25:-0.964508 26:-0.90428 27:-0.66853 28:-0.998064 29:-0.531728 30:-0.974404 31:-0.939772 32:-0.866854 33:-0.693268 34:0.210602 35:-0.210602 36:-0.848616 37:0.848616 38:-0.986466 39:-0.99882 40:-0.992262 41:-0.990226 42:-0.982602 43:-0.998092 44:-0.994682 45:-0.98849 46:-0.257752 47:-0.931522 48:-0.20261 49:-0.676474 
8 1:-0.969478 2:-0.911408 3:-0.07327 4:-1 5:-0.9226 6:-0.972314 7:-0.791868 8:-1 9:-0.32854 10:-1 11:-0.552498 12:-0.93652 13:-0.970794 14:-0.89959 15:-0.72532 16:-0.997828 17:-0.532464 18:-0.928312 19:-0.97007 20:-0.767318 21:-0.719286 22:-0.998906 23:-0.498906 24:-0.968736 25:-0.962614 26:-0.901618 27:-0.65457 28:-0.998032 29:-0.542414 30:-0.975296 31:-0.938784 32:-0.86795 33:-0.692174 34:0.208796 35:-0.208796 36:-0.852612 37:0.852612 38:-0.987268 39:-0.998864 40:-0.992488 41:-0.990626 42:-0.98213 43:-0.99806 44:-0.994412 45:-0.988112 46:-0.254482 47:-0.931218 48:-0.204406 49:-0.677934 
2.012701143000847 1:-0.974457 2:-0.623982 3:-0.29183 4:-0.946284 5:-0.934258 6:-0.9414 7:-0.806354 8:-0.995116 9:-0.460776 10:-1 11:-0.557052 12:-0.936582 13:-0.970372 14:-0.897404 15:-0.720862 16:-0.997796 17:-0.53379 18:-0.928746 19:-0.969882 20:-0.768364 21:-0.719148 22:-0.994842 23:-0.503972 24:-0.961002 25:-0.964716 26:-0.931084 27:-0.715672 28:-0.994842 29:-0.520272 30:-0.960796 31:-0.955226 32:-0.871248 33:-0.626328 34:0.266246 35:-0.266246 36:-0.834404 37:0.834404 38:-0.986612 39:-0.998826 40:-0.989992 41:-0.99026 42:-0.972918 43:-0.997054 44:-0.991558 45:-0.982032 46:-0.29123 47:-0.945974 48:-0.125176 49:-0.728368 
8 1:-0.972409 2:-0.866304 3:-0.115934 4:-1 5:-0.921942 6:-0.955434 7:-0.788424 8:-0.99443 9:-0.35753 10:-1 11:-0.544066 12:-0.933804 13:-0.969468 14:-0.891982 15:-0.708788 16:-0.99769 17:-0.519948 18:-0.926364 19:-0.969724 20:-0.810648 21:-0.727518 22:-0.99113 23:-0.494432 24:-0.962258 25:-0.967164 26:-0.926212 27:-0.680506 28:-0.98962 29:-0.53161 30:-0.966032 31:-0.942254 32:-0.899982 33:-0.648802 34:0.255074 35:-0.255074 36:-0.850336 37:0.850336 38:-0.987464 39:-0.998816 40:-0.991164 41:-0.99014 42:-0.97708 43:-0.997508 44:-0.992864 45:-0.984808 46:-0.271704 47:-0.94539 48:-0.17273 49:-0.690332 
8 1:-0.993536 2:-0.574876 3:-0.348422 4:-0.942714 5:-0.927676 6:-0.870352 7:-0.804708 8:-0.98191 9:-0.54934 10:-1 11:-0.552002 12:-0.935778 13:-0.968798 14:-0.879616 15:-0.711908 16:-0.99818 17:-0.528082 18:-0.929018 19:-0.973738 20:-0.77249 21:-0.75039 22:-0.99861 23:-0.48569 24:-0.958322 25:-0.965824 26:-0.934704 27:-0.708252 28:-0.994998 29:-0.450126 30:-0.949708 31:-0.960266 32:-0.83412 33:-0.759378 34:0.081286 35:-0.081286 36:0.300758 37:-0.300758 38:-0.752032 39:-0.979162 40:-0.748048 41:-0.783372 42:-0.608852 43:-0.94836 44:-0.82268 45:-0.747456 46:-0.881374 47:-0.989016 48:-0.833934 49:-0.905714 
8 1:-0.976017 2:-0.61373 3:-0.294754 4:-0.936436 5:-0.935526 6:-0.877762 7:-0.815232 8:-0.99511 9:-0.53145 10:-1 11:-0.580806 12:-0.937458 13:-0.968728 14:-0.861706 15:-0.708586 16:-0.998112 17:-0.575954 18:-0.928022 19:-0.972772 20:-0.7129 21:-0.754954 22:-0.997538 23:-0.488586 24:-0.959938 25:-0.963742 26:-0.92726 27:-0.706356 28:-0.997538 29:-0.491048 30:-0.962176 31:-0.957028 32:-0.861684 33:-0.687108 34:0.266356 35:-0.266356 36:-0.826354 37:0.826354 38:-0.987396 39:-0.998916 40:-0.990028 41:-0.990674 42:-0.97142 43:-0.996882 44:-0.990956 45:-0.980754 46:-0.28008 47:-0.945038 48:-0.138838 49:-0.729018 
8 1:-0.986945 2:-0.487224 3:-0.467664 4:-0.9297 5:-0.942156 6:-0.772558 7:-0.806946 8:-0.975188 9:-0.618562 10:-1 11:-0.628748 12:-0.962936 13:-0.96836 14:-0.8427 15:-0.69655 16:-0.998494 17:-0.616092 18:-0.956004 19:-0.971976 20:-0.633268 21:-0.724876 22:-0.99799 23:-0.728186 24:-0.985122 25:-0.991154 26:-0.792522 27:-0.889426 28:-0.99799 29:-0.736228 30:-0.979494 31:-0.975472 32:-0.262968 33:-0.66345 34:0.17739 35:-0.17739 36:-0.00902 37:0.00902 38:-0.805926 39:-0.983234 40:-0.781364 41:-0.844434 42:-0.66003 43:-0.95107 44:-0.804334 45:-0.754454 46:-0.729052 47:-0.97471 48:-0.885904 49:-0.825488 
8 1:-0.974189 2:-0.64578 3:-0.277226 4:-0.949398 5:-0.938272 6:-0.875794 7:-0.832772 8:-0.9862 9:-0.49456 10:-1 11:-0.62158 12:-0.977252 13:-0.968644 14:-0.837996 15:-0.704272 16:-0.998462 17:-0.608054 18:-0.973256 19:-0.971412 20:-0.620658 21:-0.718414 22:-0.992342 23:-0.466412 24:-0.959544 25:-0.967868 26:-0.932406 27:-0.68684 28:-0.990676 29:-0.498376 30:-0.964372 31:-0.954382 32:-0.887456 33:-0.699326 34:0.261334 35:-0.261334 36:-0.846316 37:0.846316 38:-0.987338 39:-0.998904 40:-0.99088 41:-0.991016 42:-0.97491 43:-0.997272 44:-0.992024 45:-0.983058 46:-0.272508 47:-0.943896 48:-0.162484 49:-0.705712 
8 1:-0.996006 2:-0.58003 3:-0.387314 4:-0.94684 5:-0.937414 6:-0.800648 7:-0.815096 8:-0.970762 9:-0.561896 10:-1 11:-0.617278 12:-0.977706 13:-0.968416 14:-0.846726 15:-0.705218 16:-0.998452 17:-0.605202 18:-0.9743 19:-0.971512 20:-0.621304 21:-0.713888 22:-0.99895 23:-0.628608 24:-0.966142 25:-0.969554 26:-0.874804 27:-0.697376 28:-0.997376 29:-0.574804 30:-0.95853 31:-0.965354 32:-0.668766 33:-0.699738 34:0.109742 35:-0.109742 36:-0.014028 37:0.014028 38:-0.849064 39:-0.986908 40:-0.686896 41:-0.818236 42:-0.66899 43:-0.947548 44:-0.849402 45:-0.77423 46:-0.725834 47:-0.976858 48:-0.902614 49:-0.813422 
8 1:-0.978493 2:-0.646754 3:-0.358898 4:-0.972474 5:-0.952262 6:-0.720156 7:-0.826922 8:-0.967886 9:-0.554646 10:-1 11:-0.717278 12:-0.985834 13:-0.981214 14:-0.806282 15:-0.760086 16:-0.999384 17:-0.670466 18:-0.98337 19:-0.982446 20:-0.40345 21:-0.710194 22:-0.99798 23:-0.484508 24:-0.96026 25:-0.962954 26:-0.928154 27:-0.70925 28:-0.997082 29:-0.490794 30:-0.963628 31:-0.954422 32:-0.870454 33:-0.680512 34:0.24253 35:-0.24253 36:-0.81861 37:0.81861 38:-0.98771 39:-0.998902 40:-0.989788 41:-0.991516 42:-0.973432 43:-0.99726 44:-0.990162 45:-0.98231 46:-0.249606 47:-0.941078 48:-0.18223 49:-0.716006 
0.5085735201976952 1:-1 2:-0.904276 3:-0.899292 4:-0.992024 5:-0.985614 6:-0.465546 7:-0.554004 8:-0.537338 9:-0.661906 10:-1 11:-0.932632 12:-0.99579 13:-1 14:-0.76421 15:-0.949474 16:-1 17:-0.91579 18:-0.991578 19:-0.974736 20:0.288422 21:-0.76421 22:-1 23:-0.88601 24:-0.95855 25:-1 26:-0.875648 27:-0.906736 28:-1 29:-0.865284 30:-0.979274 31:-0.95855 32:0.015544 33:-0.585492 34:0.405232 35:-0.405232 36:-0.183632 37:0.183632 38:-0.917242 39:-0.984482 40:-0.55 41:-0.868966 42:-0.994828 43:-1 44:-0.356896 45:-0.925862 46:-0.981034 47:-1 48:-0.52069 49:-0.9 
8 1:-0.984697 2:-0.656388 3:-0.404374 4:-0.966594 5:-0.952746 6:-0.685022 7:-0.798244 8:-0.957048 9:-0.579586 10:-1 11:-0.709214 12:-0.9858 13:-0.982096 14:-0.806452 15:-0.77836 16:-0.999382 17:-0.658898 18:-0.98333 19:-0.982096 20:-0.40423 21:-0.71014 22:-0.99553 23:-0.515952 24:-0.948384 25:-0.96586 26:-0.903678 27:-0.71957 28:-0.99309 29:-0.500508 30:-0.957732 31:-0.961796 32:-0.803292 33:-0.734606 34:0.161884 35:-0.161884 36:-0.17806 37:0.17806 38:-0.826878 39:-0.98412 40:-0.810452 41:-0.863354 42:-0.69958 43:-0.960116 44:-0.817704 45:-0.78922 46:-0.634752 47:-0.962802 48:-0.902036 49:-0.748988 
8 1:-0.985357 2:-0.580914 3:-0.443104 4:-0.954938 5:-0.955008 6:-0.666534 7:-0.811712 8:-0.959444 9:-0.628346 10:-1 11:-0.712992 12:-0.972846 13:-0.982482 14:-0.814014 15:-0.784234 16:-0.999708 17:-0.69489 18:-0.96584 19:-0.976642 20:-0.419562 21:-0.676788 22:-0.996484 23:-0.509376 24:-0.94961 25:-0.966796 26:-0.907032 27:-0.728126 28:-0.992968 29:-0.486328 30:-0.954688 31:-0.960938 32:-0.8125 33:-0.735156 34:0.18285 35:-0.18285 36:-0.175694 37:0.175694 38:-0.824912 39:-0.983984 40:-0.813634 41:-0.863802 42:-0.699466 43:-0.95931 44:-0.803244 45:-0.79044 46:-0.635924 47:-0.968674 48:-0.906794 49:-0.749818 
1.752821648908239 1:-0.9902 2:-0.565184 3:-0.539368 4:-0.942572 5:-0.960956 6:-0.606204 7:-0.789438 8:-0.950776 9:-0.6455 10:-1 11:-0.680612 12:-0.968398 13:-0.988862 14:-0.83085 15:-0.819972 16:-0.998704 17:-0.645642 18:-0.963476 19:-0.97306 20:-0.457584 21:-0.67284 22:-0.9976 23:-0.77831 24:-0.984644 25:-0.990404 26:-0.757198 27:-0.87284 28:-0.99856 29:-0.80998 30:-0.984166 31:-0.976968 32:-0.21785 33:-0.631478 34:0.204936 35:-0.204936 36:0.064138 37:-0.064138 38:-0.793246 39:-0.980232 40:-0.797582 41:-0.836084 42:-0.64365 43:-0.958276 44:-0.759596 45:-0.748776 46:-0.774352 47:-0.979516 48:-0.873752 49:-0.854938 
4.11615326541301 1:-0.994864 2:-0.691612 3:-0.435594 4:-0.954954 5:-0.952192 6:-0.598056 7:-0.807146 8:-0.95149 9:-0.608954 10:-1 11:-0.633052 12:-0.966094 13:-0.96961 14:-0.867638 15:-0.71016 16:-0.99774 17:-0.58257 18:-0.959814 19:-0.97413 20:-0.643602 21:-0.695592 22:-0.99713 23:-0.601148 24:-0.959254 25:-0.970158 26:-0.800286 27:-0.797992 28:-0.996556 29:-0.652798 30:-0.966714 31:-0.96901 32:-0.477188 33:-0.811764 34:0.130984 35:-0.130984 36:0.110104 37:-0.110104 38:-0.657484 39:-0.966388 40:-0.874062 41:-0.790246 42:-0.797658 43:-0.988544 44:-0.664056 45:-0.76986 46:-0.908516 47:-0.989302 48:-0.705838 49:-0.888046 
8 1:-0.971959 2:-0.988892 3:-0.199288 4:-1 5:-0.895666 6:-0.977784 7:-0.426994 8:-0.997224 9:-0.514152 10:-1 11:-0.61037 12:-0.965434 13:-0.969246 14:-0.876224 15:-0.706698 16:-0.997712 17:-0.572754 18:-0.959334 19:-0.974076 20:-0.66959 21:-0.698564 22:-0.999444 23:-0.70377 24:-0.93087 25:-0.991294 26:-0.7699 27:-0.821654 28:-0.999444 29:-0.634342 30:-0.926868 31:-0.98344 32:-0.40991 33:-0.829064 34:0.172462 35:-0.172462 36:-0.860506 37:0.860506 38:-0.987002 39:-0.998706 40:-0.994078 41:-0.990968 42:-0.980604 43:-0.99795 44:-0.992176 45:-0.986584 46:-0.259214 47:-0.931774 48:-0.2032 49:-0.67774 
8 1:-0.988053 2:-0.68392 3:-0.410588 4:-0.954192 5:-0.950858 6:-0.633532 7:-0.812512 8:-0.958772 9:-0.595626 10:-1 11:-0.600204 12:-0.965024 13:-0.96911 14:-0.880776 15:-0.706152 16:-0.997702 17:-0.564462 18:-0.958642 19:-0.97396 20:-0.685474 21:-0.698494 22:-0.99709 23:-0.518646 24:-0.958158 25:-0.972712 26:-0.903948 27:-0.763508 28:-0.993088 29:-0.501182 30:-0.957432 31:-0.961798 32:-0.74568 33:-0.72676 34:0.250876 35:-0.250876 36:-0.210022 37:0.210022 38:-0.830422 39:-0.984866 40:-0.825574 41:-0.869322 42:-0.69049 43:-0.964086 44:-0.782182 45:-0.779552 46:-0.641512 47:-0.96648 48:-0.913334 49:-0.75218 
8 1:-0.994956 2:-0.702386 3:-0.402868 4:-0.9876 5:-0.9553 6:-0.76439 7:-0.709868 8:-0.975198 9:-0.50239 10:-1 11:-0.456924 12:-0.964102 13:-0.954872 14:-0.89641 15:-0.741538 16:-0.997948 17:-0.52 18:-0.966154 19:-0.966666 20:-0.791282 21:-0.744102 22:-0.997644 23:-0.768724 24:-0.984926 25:-0.99058 26:-0.765426 27:-0.876118 28:-0.998116 29:-0.802638 30:-0.983514 31:-0.97268 32:-0.236928 33:-0.622704 34:0.224736 35:-0.224736 36:-0.107018 37:0.107018 38:-0.853624 39:-0.985222 40:-0.72704 41:-0.869458 42:-0.679012 43:-0.97018 44:-0.803836 45:-0.759236 46:-0.746746 47:-0.974842 48:-0.790904 49:-0.839902 
3.642915469316827 1:-0.978479 2:-0.972042 3:-0.034556 4:-1 5:-0.934696 6:-0.955266 7:-0.8185 8:-0.994408 9:-0.29053 10:-1 11:-0.457036 12:-0.958646 13:-0.968314 14:-0.888292 15:-0.762084 16:-0.997314 17:-0.524704 18:-0.960794 19:-0.969388 20:-0.774436 21:-0.73899 22:-0.99891 23:-0.496566 24:-0.968822 25:-0.963806 26:-0.90254 27:-0.659218 28:-0.998038 29:-0.539082 30:-0.975144 31:-0.938952 32:-0.867 33:-0.691922 34:0.083428 35:-0.083428 36:-0.84777 37:0.84777 38:-0.986174 39:-0.998742 40:-0.993162 41:-0.99012 42:-0.984992 43:-0.998178 44:-0.990264 45:-0.98936 46:-0.302276 47:-0.944244 48:-0.126018 49:-0.696468 
4.215709259833851 1:-0.998632 2:-0.698398 3:-0.436692 4:-0.989946 5:-0.930034 6:-0.718506 7:-0.651968 8:-0.979894 9:-0.594562 10:-1 11:-0.55338 12:-0.951958 13:-0.951958 14:-0.790036 15:-0.653024 16:-0.994662 17:-0.672598 18:-0.966192 19:-0.976868 20:-0.663702 21:-0.825622 22:-0.994082 23:-0.695266 24:-0.914202 25:-0.994082 26:-0.704142 27:-0.926036 28:-0.994082 29:-0.766272 30:-0.955622 31:-0.976332 32:-0.33432 33:-0.745562 34:0.501914 35:-0.501914 36:-0.455628 37:0.455628 38:-0.913538 39:-0.974832 40:-0.869698 41:-0.923686 42:-0.540492 43:-0.965902 44:-0.808808 45:-0.778364 46:-0.913538 47:-0.989852 48:-0.43495 49:-0.88634 
1.804954431069838 1:-1 2:-0.97715 3:-0.721826 4:-0.988576 5:-0.974244 6:-0.554434 7:-0.510622 8:-0.680106 9:-0.593044 10:-1 11:-0.912442 12:-0.986176 13:-1 14:-0.75576 15:-0.967742 16:-1 17:-0.884792 18:-0.990784 19:-0.97235 20:0.267282 21:-0.797236 22:-1 23:-0.563106 24:-0.902912 25:-1 26:-0.805826 27:-0.961166 28:-1 29:-0.68932 30:-0.961166 31:-0.970874 32:-0.349514 33:-0.796116 34:0.45367 35:-0.45367 36:-0.291382 37:0.291382 38:-0.856092 39:-0.985282 40:-0.632052 41:-0.921504 42:-0.99673 43:-1 44:-0.429272 45:-0.928046 46:-0.932952 47:-0.983646 48:-0.432542 49:-0.90188 
8 1:-0.986237 2:-0.953662 3:-0.137612 4:-1 5:-0.940932 6:-0.764452 7:-0.8692 8:-0.980692 9:-0.353448 10:-1 11:-0.64219 12:-0.974442 13:-0.986206 14:-0.838134 15:-0.808924 16:-1 17:-0.637322 18:-0.963488 19:-0.97566 20:-0.521704 21:-0.651926 22:-0.995814 23:-0.469402 24:-0.96204 25:-0.966506 26:-0.929104 27:-0.692416 28:-0.994278 29:-0.515874 30:-0.970832 31:-0.937478 32:-0.9051 33:-0.661154 34:-0.126162 35:0.126162 36:-0.806826 37:0.806826 38:-0.98455 39:-0.998554 40:-0.995382 41:-0.98954 42:-0.992884 43:-0.999332 44:-0.990154 45:-0.993624 46:-0.183982 47:-0.957008 48:-0.194434 49:-0.720556 
8 1:-0.992518 2:-0.887204 3:-0.095622 4:-0.995662 5:-0.935148 6:-0.839482 7:-0.867366 8:-0.982646 9:-0.396872 10:-1 11:-0.522838 12:-0.957052 13:-0.979618 14:-0.89991 15:-0.767424 16:-0.999272 17:-0.521748 18:-0.952684 19:-0.969426 20:-0.731392 21:-0.698636 22:-0.997702 23:-0.491444 24:-0.959114 25:-0.962788 26:-0.927186 27:-0.699322 28:-0.997474 29:-0.503158 30:-0.9621 31:-0.95406 32:-0.865396 33:-0.680258 34:-0.104446 35:0.104446 36:-0.295934 37:0.295934 38:-0.721442 39:-0.97563 40:-0.919816 41:-0.826418 42:-0.895212 43:-0.989268 44:-0.78888 45:-0.905008 46:-0.502402 47:-0.957072 48:-0.872766 49:-0.646086 
1.746629455851856 1:-0.985471 2:-0.994618 3:-0.171568 4:-1 5:-0.886726 6:-0.989238 7:-0.383174 8:-1 9:-0.574674 10:-1 11:-0.513438 12:-0.944654 13:-0.973322 14:-0.905634 15:-0.71531 16:-0.998408 17:-0.503484 18:-0.952618 19:-0.970536 20:-0.804102 21:-0.718494 22:-0.999424 23:-0.681318 24:-0.927972 25:-0.990732 26:-0.777842 27:-0.836256 28:-0.999424 29:-0.610176 30:-0.924704 31:-0.984194 32:-0.398554 33:-0.869404 34:-0.186316 35:0.186316 36:-0.82989 37:0.82989 38:-0.984632 39:-0.99867 40:-0.996094 41:-0.989564 42:-0.992854 43:-0.99934 44:-0.992942 45:-0.99471 46:-0.268976 47:-0.943626 48:-0.114246 49:-0.724346 
8 1:-0.992608 2:-0.886526 3:-0.145674 4:-0.99268 5:-0.935944 6:-0.92679 7:-0.859932 8:-0.989018 9:-0.263438 10:-1 11:-0.5139 12:-0.944798 13:-0.973392 14:-0.90548 15:-0.71525 16:-0.998412 17:-0.504368 18:-0.95274 19:-0.971008 20:-0.803812 21:-0.716838 22:-0.992224 23:-0.552646 24:-0.963778 25:-0.964188 26:-0.934104 27:-0.71145 28:-0.989154 29:-0.562672 30:-0.964392 31:-0.937788 32:-0.870254 33:-0.557352 34:-0.080642 35:0.080642 36:-0.23849 37:0.23849 38:-0.697002 39:-0.973264 40:-0.922386 41:-0.8129 42:-0.87087 43:-0.987724 44:-0.789256 45:-0.89306 46:-0.549276 47:-0.959306 48:-0.874372 49:-0.670584 
8 1:-0.998986 2:-0.7382 3:-0.070204 4:-0.951292 5:-0.94076 6:-0.975646 7:-0.885386 8:-0.933028 9:-0.505482 10:-1 11:-0.55102 12:-0.928572 13:-0.971088 14:-0.92687 15:-0.67347 16:-0.996598 17:-0.5 18:-0.954082 19:-0.95068 20:-0.918368 21:-0.629252 22:-0.996884 23:-0.423676 24:-0.96729 25:-0.987538 26:-0.937694 27:-0.82866 28:-0.996884 29:-0.366044 30:-0.975078 31:-0.978194 32:-0.74299 33:-0.799066 34:0.087156 35:-0.087156 36:-0.206198 37:0.206198 38:-0.730022 39:-0.973444 40:-0.87706 41:-0.833292 42:-0.628228 43:-0.94984 44:-0.9105 45:-0.798868 46:-0.62626 47:-0.970494 48:-0.901648 49:-0.800344 
6.217144085064754 1:-0.999562 2:-0.467182 3:-0.259196 4:-0.975782 5:-0.96516 6:-0.957616 7:-0.866142 8:-0.963672 9:-0.54525 10:-1 11:-0.384146 12:-0.95935 13:-0.971544 14:-0.945122 15:-0.835366 16:-0.997968 17:-0.3313 18:-0.969512 19:-0.96748 20:-0.821138 21:-0.817074 22:-1 23:-0.643706 24:-0.952494 25:-0.938242 26:-0.857482 27:-0.368172 28:-0.99525 29:-0.60095 30:-0.976248 31:-0.961996 32:-0.83373 33:-0.871734 34:-0.09255 35:0.09255 36:0.103776 37:-0.103776 38:-0.405354 39:-0.96806 40:-0.814936 41:-0.836542 42:-0.79521 43:-0.987788 44:-0.855332 45:-0.87318 46:-0.783936 47:-0.971818 48:-0.934242 49:-0.773602 
1.121561751374101 1:-0.998402 2:-0.920492 3:-0.029914 4:-0.99432 5:-0.922264 6:-0.985802 7:-0.852348 8:-1 9:-0.294858 10:-1 11:-0.4316 12:-0.947206 13:-0.973796 14:-0.922928 15:-0.748748 16:-0.998844 17:-0.44894 18:-0.95761 19:-0.977264 20:-0.88131 21:-0.711754 22:-0.988028 23:-0.55493 24:-0.973944 25:-0.95986 26:-0.930282 27:-0.564084 28:-0.987324 29:-0.559154 30:-0.95493 31:-0.96338 32:-0.846478 33:-0.717606 34:0.045076 35:-0.045076 36:0.008938 37:-0.008938 38:-0.691948 39:-0.970116 40:-0.89963 41:-0.771488 42:-0.670818 43:-0.975248 44:-0.934042 45:-0.773452 46:-0.718964 47:-0.961362 48:-0.93525 49:-0.697684 
1.551767580583892 1:-0.99241 2:-0.986982 3:-0.202512 4:-1 5:-0.883534 6:-0.998916 7:-0.337104 8:-1 9:-0.590952 10:-1 11:-0.494152 12:-0.955624 13:-0.962838 14:-0.930484 15:-0.71057 16:-0.99388 17:-0.496776 18:-0.958684 19:-0.967646 20:-0.865122 21:-0.664226 22:-0.999426 23:-0.6802 24:-0.928338 25:-0.990506 26:-0.777242 27:-0.83742 28:-0.99935 29:-0.609264 30:-0.925046 31:-0.984228 32:-0.400172 33:-0.86881 34:-0.223766 35:0.223766 36:-0.791158 37:0.791158 38:-0.984118 39:-0.998696 40:-0.995804 41:-0.988502 42:-0.990554 43:-0.999152 44:-0.997406 45:-0.994192 46:-0.1866 47:-0.95586 48:-0.209462 49:-0.699656 
1.708494542170218 1:-0.9996 2:-0.59597 3:-0.29411 4:-0.978076 5:-0.945326 6:-0.96868 7:-0.887722 8:-0.95302 9:-0.377098 10:-1 11:-0.34479 12:-0.914634 13:-0.986696 14:-0.960088 15:-0.904656 16:-1 17:-0.32705 18:-0.945676 19:-0.978936 20:-0.842572 21:-0.7949 22:-1 23:-0.56974 24:-0.97636 25:-0.943262 26:-0.918046 27:-0.37431 28:-0.998424 29:-0.610718 30:-0.979512 31:-0.970056 32:-0.82033 33:-0.839244 34:0.410814 35:-0.410814 36:-0.229766 37:0.229766 38:-0.67931 39:-0.979802 40:-0.836454 41:-0.736454 42:-0.555666 43:-0.948276 44:-0.93399 45:-0.837438 46:-0.799508 47:-0.979802 48:-0.925616 49:-0.787684 
8 1:-0.997664 2:-0.94005 3:0.018332 4:-0.991436 5:-0.927472 6:-0.97859 7:-0.890806 8:-1 9:-0.289978 10:-1 11:-0.484304 12:-0.952522 13:-0.953146 14:-0.916914 15:-0.642042 16:-0.999376 17:-0.498984 18:-0.96283 19:-0.97876 20:-0.876308 21:-0.734812 22:-0.99036 23:-0.465084 24:-0.961674 25:-0.971314 26:-0.93581 27:-0.706796 28:-0.987538 29:-0.507406 30:-0.96473 31:-0.949212 32:-0.910182 33:-0.649894 34:0.18048 35:-0.18048 36:-0.272178 37:0.272178 38:-0.786694 39:-0.977994 40:-0.917322 41:-0.790632 42:-0.651828 43:-0.969312 44:-0.936302 45:-0.791944 46:-0.608622 47:-0.96376 48:-0.923884 49:-0.681708 
8 1:-0.99829 2:-0.965236 3:0.02901 4:-0.993048 5:-0.929938 6:-0.972188 7:-0.89329 8:-1 9:-0.27531 10:-1 11:-0.567894 12:-0.964468 13:-0.938452 14:-0.923858 15:-0.601522 16:-0.985406 17:-0.565356 18:-0.962564 19:-0.972082 20:-0.829314 21:-0.689086 22:-0.9928 23:-0.465672 24:-0.959116 25:-0.96503 26:-0.927744 27:-0.662382 28:-0.990228 29:-0.521214 30:-0.969916 31:-0.946258 32:-0.923374 33:-0.676266 34:-0.233904 35:0.233904 36:0.322002 37:-0.322002 38:-0.435368 39:-0.941764 40:-0.906184 41:-0.713086 42:-0.735474 43:-0.97468 44:-0.91418 45:-0.811434 46:-0.888726 47:-0.990272 48:-0.949228 49:-0.739606 
0.4254708045232921 1:-0.99937 2:-0.552824 3:-0.28295 4:-0.979674 5:-0.948878 6:-0.993224 7:-0.918834 8:-0.96443 9:-0.359186 10:-1 11:-0.356028 12:-0.942646 13:-0.990608 14:-0.97015 15:-0.914472 16:-0.99631 17:-0.421432 18:-0.956734 19:-0.954386 20:-0.900722 21:-0.596512 22:-0.996114 23:-0.823834 24:-0.990932 25:-0.889896 26:-0.777202 27:0.183938 28:-0.998704 29:-0.848446 30:-0.987046 31:-0.98316 32:-0.985752 33:-0.90285 34:-0.316404 35:0.316404 36:0.546458 37:-0.546458 38:-0.294566 39:-0.931746 40:-0.899866 41:-0.584418 42:-0.845084 43:-0.972834 44:-0.950606 45:-0.816344 46:-0.906376 47:-0.992366 48:-0.963628 49:-0.842164 
0.8344671676048967 1:-0.998524 2:-0.977346 3:0.072656 4:-1 5:-0.900644 6:-0.994336 7:-0.85579 8:-1 9:-0.344542 10:-1 11:-0.403234 12:-0.962542 13:-0.95774 14:-0.910036 15:-0.677286 16:-0.99968 17:-0.474628 18:-0.968624 19:-0.970866 20:-0.867776 21:-0.807588 22:-0.99857 23:-0.59299 24:-0.861946 25:-0.965666 26:-0.904148 27:-0.69671 28:-0.995708 29:-0.60515 30:-0.909156 31:-0.956366 32:-0.790414 33:-0.723176 34:0.315622 35:-0.315622 36:-0.663244 37:0.663244 38:-0.923764 39:-0.996356 40:-0.957444 41:-0.926644 42:-0.83489 43:-0.988832 44:-0.967142 45:-0.903662 46:-0.503204 47:-0.956622 48:-0.22953 49:-0.811908 
8 1:-0.999412 2:-0.961804 3:0.054134 4:-1 5:-0.928512 6:-0.94748 7:-0.845324 8:-0.823344 9:-0.54767 10:-1 11:-0.648712 12:-0.978922 13:-0.896956 14:-0.824356 15:-0.428572 16:-0.997658 17:-0.641686 18:-0.98829 19:-0.97658 20:-0.87822 21:-0.740046 22:-0.998464 23:-0.400922 24:-0.969278 25:-1 26:-0.95238 27:-0.95238 28:-0.996928 29:-0.4255 30:-0.941628 31:-0.941628 32:-0.758832 33:-0.662058 34:0.371098 35:-0.371098 36:-0.47913 37:0.47913 38:-0.871382 39:-0.995406 40:-0.904916 41:-0.806614 42:-0.661002 43:-0.980248 44:-0.827744 45:-0.80983 46:-0.602204 47:-0.959118 48:-0.794212 49:-0.787322 
0.7155796995894717 1:-0.981681 2:-0.874706 3:-0.374118 4:-0.98155 5:-0.951096 6:-0.75957 7:-0.368492 8:-0.987142 9:-0.703324 10:-1 11:-0.684294 12:-0.95675 13:-0.994606 14:-0.793342 15:-0.900098 16:-0.998276 17:-0.57553 18:-0.952452 19:-0.987894 20:-0.340828 21:-0.81593 22:-0.999464 23:-0.59106 24:-0.97261 25:-0.995374 26:-0.717924 27:-0.870696 28:-0.99974 29:-0.68503 30:-0.970976 31:-0.977962 32:-0.665242 33:-0.55392 34:-0.794758 35:0.794758 36:0.18293 37:-0.18293 38:-0.518502 39:-0.963068 40:-0.448378 41:-0.809206 42:-0.98981 43:-0.99897 44:-0.991064 45:-0.992376 46:-0.714644 47:-0.964258 48:-0.777946 49:-0.831776 
1.460675797292727 1:-0.99982 2:-0.761634 3:-0.569188 4:-0.985458 5:-0.903498 6:-0.400766 7:-0.559276 8:-0.961906 9:-0.858276 10:-1 11:-0.547912 12:-0.983792 13:-0.999482 14:-0.679296 15:-0.96655 16:-0.998276 17:-0.44058 18:-0.971206 19:-0.990086 20:-0.53567 21:-0.88715 22:-0.999564 23:-0.66692 24:-0.688704 25:-0.994554 26:-0.82246 27:-0.504412 28:-1 29:-0.64579 30:-0.709836 31:-0.99891 32:-0.980612 33:-0.988236 34:-0.125892 35:0.125892 36:0.049042 37:-0.049042 38:-0.254692 39:-0.830276 40:-0.466846 41:-0.863404 42:-0.980318 43:-0.99887 44:-0.922614 45:-0.961118 46:-0.932402 47:-0.990804 48:-0.899812 49:-0.898844 
8 1:-0.985283 2:-0.873306 3:-0.359466 4:-0.979828 5:-0.951132 6:-0.737338 7:-0.340082 8:-0.986452 9:-0.772396 10:-1 11:-0.683774 12:-0.95729 13:-0.99499 14:-0.792596 15:-0.901776 16:-0.99827 17:-0.573558 18:-0.952638 19:-0.98809 20:-0.33951 21:-0.81751 22:-0.999428 23:-0.687274 24:-0.985356 25:-0.991578 26:-0.59748 27:-0.880384 28:-0.999776 29:-0.635974 30:-0.973842 31:-0.996908 32:-0.3997 33:-0.8523 34:-0.761448 35:0.761448 36:0.059944 37:-0.059944 38:-0.541892 39:-0.96524 40:-0.45215 41:-0.8305 42:-0.990058 43:-0.999 44:-0.9907 45:-0.99239 46:-0.69785 47:-0.96476 48:-0.73594 49:-0.839522 
8 1:-0.996424 2:-0.910378 3:-0.268696 4:-0.98568 5:-0.9546 6:-0.79259 7:-0.35809 8:-0.989252 9:-0.740714 10:-1 11:-0.677702 12:-0.957896 13:-0.995126 14:-0.790136 15:-0.900576 16:-0.998176 17:-0.568758 18:-0.953578 19:-0.987526 20:-0.349126 21:-0.821398 22:-0.999608 23:-0.543236 24:-0.982702 25:-0.994848 26:-0.739696 27:-0.841378 28:-0.999848 29:-0.561842 30:-0.974216 31:-0.996084 32:-0.519844 33:-0.8467 34:-0.551232 35:0.551232 36:0.143954 37:-0.143954 38:-0.372138 39:-0.966078 40:-0.534684 41:-0.821838 42:-0.979228 43:-0.998538 44:-0.970996 45:-0.992688 46:-0.782828 47:-0.989702 48:-0.682342 49:-0.908942 
4.467754589918524 1:-0.975133 2:-0.891354 3:-0.30516 4:-0.984326 5:-0.933632 6:-0.787532 7:-0.382204 8:-0.98888 9:-0.72691 10:-1 11:-0.64851 12:-0.95937 13:-0.994544 14:-0.791328 15:-0.889636 16:-0.997412 17:-0.564962 18:-0.953716 19:-0.985208 20:-0.401664 21:-0.81365 22:-0.999702 23:-0.613934 24:-0.938664 25:-0.995778 26:-0.743344 27:-0.723918 28:-0.999924 29:-0.519828 30:-0.926054 31:-0.997406 32:-0.66276 33:-0.878688 34:-0.788048 35:0.788048 36:0.53493 37:-0.53493 38:-0.348878 39:-0.955564 40:-0.335986 41:-0.764078 42:-0.982624 43:-0.998586 44:-0.984162 45:-0.990892 46:-0.888648 47:-0.972838 48:-0.90349 49:-0.874252 
8 1:-0.988881 2:-0.882322 3:-0.350028 4:-0.981456 5:-0.950594 6:-0.73859 7:-0.342022 8:-0.98608 9:-0.76891 10:-1 11:-0.648562 12:-0.9594 13:-0.994548 14:-0.791394 15:-0.889666 16:-0.997398 17:-0.564626 18:-0.953748 19:-0.985218 20:-0.401676 21:-0.813766 22:-0.999748 23:-0.72767 24:-0.990312 25:-0.9949 26:-0.481182 27:-0.910318 28:-0.999974 29:-0.746028 30:-0.98509 31:-0.996918 32:-0.262324 33:-0.905538 34:-0.678284 35:0.678284 36:0.018546 37:-0.018546 38:-0.47172 39:-0.958836 40:-0.4206 41:-0.803956 42:-0.980078 43:-0.998428 44:-0.98207 45:-0.990412 46:-0.79586 47:-0.986624 48:-0.725374 49:-0.88604 
8 1:-0.997456 2:-0.916876 3:-0.21121 4:-0.987726 5:-0.9513 6:-0.85355 7:-0.360112 8:-0.992846 9:-0.72638 10:-1 11:-0.68074 12:-0.95266 13:-0.994776 14:-0.802026 15:-0.893828 16:-0.998468 17:-0.572548 18:-0.949084 19:-0.987834 20:-0.3609 21:-0.807134 22:-0.999592 23:-0.50769 24:-0.981648 25:-0.995426 26:-0.739432 27:-0.890452 28:-0.999836 29:-0.524554 30:-0.972222 31:-0.99592 32:-0.550694 33:-0.842536 34:-0.35371 35:0.35371 36:0.00688 37:-0.00688 38:-0.838094 39:-0.990202 40:-0.641818 41:-0.874044 42:-0.973304 43:-0.99405 44:-0.965218 45:-0.989482 46:-0.348704 47:-0.970166 48:-0.585736 49:-0.829182 
4.395754957453833 1:-0.571505 2:-0.776526 3:-0.572618 4:-0.930328 5:-0.961188 6:-0.329138 7:-0.657434 8:-0.962754 9:-0.810014 10:-1 11:-0.683316 12:-0.963402 13:-0.994834 14:-0.798736 15:-0.886684 16:-0.997626 17:-0.606372 18:-0.958296 19:-0.98459 20:-0.434644 21:-0.691498 22:-0.999714 23:-0.670668 24:-0.986866 25:-0.979258 26:-0.515748 27:-0.745182 28:-0.999974 29:-0.71531 30:-0.980016 31:-0.995902 32:-0.499524 33:-0.911838 34:-0.135408 35:0.135408 36:0.652226 37:-0.652226 38:-0.374932 39:-0.945626 40:-0.34963 41:-0.70493 42:-0.977832 43:-0.997174 44:-0.985904 45:-0.986116 46:-0.865614 47:-0.992182 48:-0.862296 49:-0.957762 
8 1:-0.981633 2:-0.866774 3:-0.366408 4:-0.98078 5:-0.950558 6:-0.752206 7:-0.385646 8:-0.986084 9:-0.711542 10:-1 11:-0.692136 12:-0.964402 13:-0.99496 14:-0.802156 15:-0.889182 16:-0.997706 17:-0.617324 18:-0.959464 19:-0.984794 20:-0.445144 21:-0.652734 22:-0.999514 23:-0.47272 24:-0.970662 25:-0.994024 26:-0.735908 27:-0.866358 28:-0.999796 29:-0.642046 30:-0.968196 31:-0.980946 32:-0.732596 33:-0.637232 34:-0.742316 35:0.742316 36:0.207442 37:-0.207442 38:-0.523086 39:-0.964646 40:-0.441056 41:-0.805248 42:-0.982368 43:-0.997272 44:-0.985594 45:-0.990464 46:-0.71749 47:-0.96437 48:-0.790742 49:-0.837666 
3.435224479013492 1:-0.99914 2:-0.725296 3:-0.501144 4:-0.922236 5:-0.954242 6:-0.53887 7:-0.591346 8:-0.96313 9:-0.803736 10:-1 11:-0.655358 12:-0.833682 13:-0.985572 14:-0.675074 15:-0.563608 16:-0.998678 17:-0.730588 18:-0.845248 19:-0.989536 20:-0.879172 21:-0.843484 22:-0.999882 23:-0.64923 24:-0.987594 25:-0.997724 26:-0.817214 27:-0.978996 28:-0.999646 29:-0.498714 30:-0.979428 31:-0.99521 32:-0.292532 33:-0.803828 34:0.271024 35:-0.271024 36:-0.421504 37:0.421504 38:-0.913718 39:-0.996416 40:-0.896674 41:-0.903396 42:-0.765166 43:-0.948576 44:-0.803918 45:-0.92574 46:-0.602538 47:-0.977936 48:-0.539186 49:-0.726738 
8 1:-0.996424 2:-0.908396 3:-0.307478 4:-0.985668 5:-0.95707 6:-0.724286 7:-0.385932 8:-0.985878 9:-0.745292 10:-1 11:-0.76605 12:-0.972234 13:-0.996206 14:-0.836616 15:-0.911486 16:-0.998248 17:-0.703038 18:-0.951732 19:-0.986654 20:-0.416772 21:-0.460968 22:-0.999628 23:-0.52262 24:-0.982186 25:-0.994742 26:-0.728184 27:-0.836522 28:-0.99985 29:-0.542544 30:-0.976448 31:-0.997224 32:-0.514748 33:-0.905304 34:-0.529884 35:0.529884 36:0.162 37:-0.162 38:-0.362342 39:-0.969254 40:-0.477398 41:-0.79558 42:-0.977778 43:-0.995224 44:-0.969826 45:-0.990034 46:-0.813012 47:-0.990898 48:-0.734824 49:-0.923826 
8 1:-0.975165 2:-0.819286 3:-0.520644 4:-0.984662 5:-0.954178 6:-0.359856 7:-0.57992 8:-0.969974 9:-0.81148 10:-1 11:-0.471146 12:-0.975844 13:-0.998958 14:-0.92575 15:-0.97549 16:-0.998582 17:-0.480622 18:-0.965934 19:-0.991214 20:-0.42911 21:-0.78735 22:-0.999706 23:-0.611852 24:-0.938304 25:-0.995364 26:-0.742038 27:-0.722676 28:-0.999926 29:-0.517058 30:-0.925628 31:-0.9977 32:-0.667164 33:-0.882582 34:-0.776346 35:0.776346 36:0.622874 37:-0.622874 38:-0.33277 39:-0.955988 40:-0.29446 41:-0.728526 42:-0.98161 43:-0.997198 44:-0.982832 45:-0.98834 46:-0.905886 47:-0.973828 48:-0.946554 49:-0.912004 
8 1:-0.981011 2:-0.801276 3:-0.577202 4:-0.98199 5:-0.9673 6:-0.290832 7:-0.602108 8:-0.967508 9:-0.811784 10:-1 11:-0.457674 12:-0.975576 13:-0.99899 14:-0.92769 15:-0.9762 16:-0.998544 17:-0.468682 18:-0.965392 19:-0.991464 20:-0.44612 21:-0.793668 22:-0.999608 23:-0.60394 24:-0.984776 25:-0.991518 26:-0.581412 27:-0.832904 28:-0.999878 29:-0.642476 30:-0.975402 31:-0.975794 32:-0.668308 33:-0.743986 34:-0.744006 35:0.744006 36:0.299628 37:-0.299628 38:-0.490294 39:-0.962884 40:-0.424564 41:-0.787332 42:-0.98218 43:-0.997234 44:-0.984688 45:-0.988928 46:-0.750318 47:-0.966172 48:-0.808244 49:-0.857158 
2.491626455078156 1:-0.999806 2:-0.65718 3:-0.576376 4:-0.986562 5:-0.980828 6:-0.475372 7:-0.59395 8:-0.951062 9:-0.778672 10:-1 11:-0.64763 12:-0.988172 13:-0.999414 14:-0.787694 15:-0.98423 16:-0.998296 17:-0.538092 18:-0.982206 19:-0.99089 20:-0.19121 21:-0.892168 22:-1 23:-0.640046 24:-0.984158 25:-0.987274 26:-0.683678 27:-0.873522 28:-1 29:-0.552526 30:-0.975328 31:-0.996104 32:-0.490976 33:-0.816388 34:-0.038886 35:0.038886 36:0.151102 37:-0.151102 38:-0.529862 39:-0.980788 40:-0.36518 41:-0.928962 42:-0.862806 43:-0.995956 44:-0.86807 45:-0.947902 46:-0.77014 47:-0.980382 48:-0.88172 49:-0.888232 
1.227358771676423 1:-0.999956 2:-0.60708 3:-0.566962 4:-0.984192 5:-0.978346 6:-0.40201 7:-0.626224 8:-0.945098 9:-0.890088 10:-1 11:-0.61495 12:-0.98662 13:-0.999386 14:-0.797594 15:-0.983 16:-0.99822 17:-0.509574 18:-0.979134 19:-0.99288 20:-0.218486 21:-0.920154 22:-1 23:-0.552888 24:-0.97735 25:-0.98505 26:-0.756738 27:-0.914836 28:-1 29:-0.450056 30:-0.973726 31:-0.997734 32:-0.529332 33:-0.862288 34:0.33075 35:-0.33075 36:0.384304 37:-0.384304 38:-0.259842 39:-0.97067 40:-0.051512 41:-0.91175 42:-0.979 43:-0.998378 44:-0.913546 45:-0.971284 46:-0.994958 47:-0.999518 48:-0.96769 49:-0.98185 
6.923319526227607 1:-0.999012 2:-0.945794 3:-0.212058 4:-0.997448 5:-0.95134 6:-0.911798 7:-0.310286 8:-0.978166 9:-0.69311 10:-1 11:-0.616658 12:-0.98345 13:-0.996752 14:-0.80316 15:-0.929126 16:-0.996752 17:-0.523252 18:-0.975474 19:-0.982538 20:-0.412982 21:-0.779858 22:-0.99956 23:-0.439736 24:-0.979072 25:-0.9983 26:-0.891914 27:-0.979412 28:-0.999816 29:-0.472992 30:-0.96742 31:-0.995546 32:-0.472936 33:-0.8033 34:-0.239144 35:0.239144 36:-0.093418 37:0.093418 38:-0.923024 39:-0.992582 40:-0.607896 41:-0.867348 42:-0.988318 43:-0.999512 44:-0.985114 45:-0.98833 46:-0.154576 47:-0.962428 48:-0.65126 49:-0.879616 
8 1:-0.986247 2:-0.717168 3:-0.61116 4:-0.97933 5:-0.968928 6:-0.315478 7:-0.603236 8:-0.967872 9:-0.83683 10:-0.999998 11:-0.519118 12:-0.97889 13:-0.997284 14:-0.741414 15:-0.89193 16:-0.99876 17:-0.547966 18:-0.971288 19:-0.99227 20:-0.537606 21:-0.823474 22:-0.999576 23:-0.756718 24:-0.969806 25:-0.993404 26:-0.677108 27:-0.849838 28:-0.999824 29:-0.723354 30:-0.965524 31:-0.995304 32:-0.455634 33:-0.61391 34:-0.603086 35:0.603086 36:0.063496 37:-0.063496 38:-0.552616 39:-0.966934 40:-0.455248 41:-0.833774 42:-0.976166 43:-0.99696 44:-0.977614 45:-0.986686 46:-0.701234 47:-0.965118 48:-0.745502 49:-0.842152 
8 1:-0.979507 2:-0.721684 3:-0.608284 4:-0.978708 5:-0.969698 6:-0.307106 7:-0.625036 8:-0.968268 9:-0.821218 10:-0.999994 11:-0.494998 12:-0.977998 13:-0.997414 14:-0.756318 15:-0.898552 16:-0.998656 17:-0.514622 18:-0.970216 19:-0.992738 20:-0.563548 21:-0.834946 22:-0.99957 23:-0.800008 24:-0.987232 25:-0.99121 26:-0.51807 27:-0.814014 28:-0.999926 29:-0.6578 30:-0.977854 31:-0.993408 32:-0.426846 33:-0.834062 34:-0.690848 35:0.690848 36:0.413488 37:-0.413488 38:-0.47493 39:-0.961916 40:-0.396996 41:-0.779472 42:-0.975722 43:-0.99703 44:-0.976726 45:-0.986528 46:-0.771856 47:-0.967358 48:-0.844024 49:-0.867442 
0.8702157568385646 1:-0.999912 2:-0.642782 3:-0.519622 4:-0.985662 5:-0.96386 6:-0.404388 7:-0.707034 8:-0.939902 9:-0.836752 10:-1 11:-0.638994 12:-0.984384 13:-0.998372 14:-0.731066 15:-0.951712 16:-0.996646 17:-0.519808 18:-0.97576 19:-0.988982 20:-0.309126 21:-0.90515 22:-0.997172 23:-0.451438 24:-0.970618 25:-0.994098 26:-0.823088 27:-0.8119 28:-0.999262 29:-0.514138 30:-0.946766 31:-0.980084 32:-0.762232 33:-0.7492 34:-0.07926 35:0.07926 36:-0.240644 37:0.240644 38:-0.705028 39:-0.978066 40:-0.845438 41:-0.889208 42:-0.588866 43:-0.985238 44:-0.385744 45:-0.956166 46:-0.906672 47:-0.992604 48:-0.89802 49:-0.868948 
2.104362545664748 1:-0.997354 2:-0.79949 3:-0.429152 4:-0.984098 5:-0.965482 6:-0.531182 7:-0.523668 8:-0.976518 9:-0.79041 10:-0.999998 11:-0.44783 12:-0.978712 13:-0.99927 14:-0.902526 15:-0.976512 16:-0.9985 17:-0.469348 18:-0.968608 19:-0.991956 20:-0.467464 21:-0.799274 22:-0.999794 23:-0.726596 24:-0.989508 25:-0.98927 26:-0.474122 27:-0.627118 28:-0.999926 29:-0.7207 30:-0.98692 31:-0.997462 32:-0.573448 33:-0.915138 34:-0.235244 35:0.235244 36:0.287876 37:-0.287876 38:-0.35844 39:-0.968766 40:-0.42538 41:-0.772972 42:-0.953702 43:-0.994544 44:-0.934824 45:-0.9815 46:-0.81796 47:-0.991106 48:-0.831332 49:-0.96947 
