svm_type c_svc
kernel_type rbf
gamma 0.5
nr_class 2
total_sv 6151
rho 1.07082
label 1 0
nr_sv 1993 4158
SV
6 1:-0.999199 2:-0.835944 3:0.069298 4:-1 5:-0.646514 6:-1 7:-0.873666 8:-0.71876 9:-0.929302 10:-1 11:-0.57377 12:-0.567213 13:-0.918032 14:-0.933915 15:-0.810306 16:-0.918032 17:-0.393442 18:-0.90164 19:-0.967214 20:-0.942622 21:-0.95082 22:-0.848484 23:-0.242424 24:-0.90909 25:-0.939394 26:-0.969696 27:-0.984848 28:-1 29:-0.39394 30:-0.878788 31:-0.969696 32:-0.919192 33:-0.924242 34:0.305974 35:-0.305974 36:-0.055304 37:0.055304 38:-0.585253 39:-0.80624 40:-0.995767 41:-0.832089 42:-0.397355 43:-0.580135 44:-0.843461 45:-0.914286 46:-0.577586 47:-0.814284 48:-0.955882 49:-0.949806 
2.618858704547071 1:-0.998988 2:-0.24658 3:-0.40381 4:-1 5:-0.674806 6:-1 7:-1 8:-1 9:-0.674806 10:-1 11:-0.407408 12:-0.288889 13:-1 14:-1 15:-0.904762 16:-0.851852 17:-0.481482 18:-0.925926 19:-1 20:-1 21:-1 22:-1 23:-0.652174 24:-1 25:-0.73913 26:-1 27:-1 28:-1 29:-0.391304 30:-0.73913 31:-1 32:-1 33:-0.47826 34:0.793354 35:-0.793354 36:-0.80318 37:0.80318 38:-0.980331 39:-1 40:-1 41:-0.956316 42:-0.290732 43:-0.420731 44:-1 45:-0.960976 46:-0.254275 47:-0.512196 48:-1 49:-0.771478 
5.418713351790282 1:-0.999457 2:-0.65956 3:0.165572 4:-1 5:-0.870492 6:-1 7:-1 8:-0.781146 9:-0.805738 10:-1 11:-0.210526 12:-0.68421 13:-0.894736 14:-0.878762 15:-1 16:-1 17:-0.421052 18:-0.947368 19:-0.947368 20:-1 21:-0.947368 22:-1 23:-0.285714 24:-1 25:-1 26:-1 27:-1 28:-1 29:-0.142858 30:-0.857142 31:-0.857142 32:-1 33:-0.857142 34:0.704114 35:-0.704114 36:-0.543764 37:0.543764 38:-0.804497 39:-0.902576 40:-0.95212 41:-0.837178 42:-0.095599 43:-0.820076 44:-1 45:-1 46:-0.29293 47:-0.757576 48:-1 49:-1 
6 1:-0.993887 2:-1 3:0.432836 4:-1 5:-0.502488 6:-1 7:-1 8:-1 9:-0.930348 10:-1 11:-0.265958 12:-0.693616 13:-1 14:-1 15:-0.958968 16:-0.87234 17:-0.30851 18:-0.882978 19:-0.978724 20:-1 21:-0.978724 22:-0.925926 23:-0.142858 24:-0.915344 25:-0.989418 26:-1 27:-1 28:-1 29:-0.31217 30:-0.746032 31:-0.968254 32:-1 33:-1 34:0.33543 35:-0.33543 36:-0.214186 37:0.214186 38:-0.589167 39:-0.870015 40:-1 41:-0.971033 42:-0.195546 43:-0.678321 44:-1 45:-0.987064 46:-0.365648 47:-0.795148 48:-1 49:-0.97159 
6 1:-0.995645 2:-0.812632 3:-0.13309 4:-1 5:-0.802974 6:-1 7:-0.376318 8:-1 9:-0.862082 10:-1 11:-0.519608 12:-0.917646 13:-1 14:-0.60479 15:-0.861343 16:-0.990196 17:-0.578432 18:-0.931372 19:-0.95098 20:-0.578432 21:-0.970588 22:-0.916168 23:-0.473054 24:-0.928144 25:-0.964072 26:-0.784432 27:-0.976048 28:-1 29:-0.449102 30:-0.856288 31:-1 32:-0.648701 33:-0.916168 34:0.182164 35:-0.182164 36:-0.195866 37:0.195866 38:-0.837507 39:-0.973009 40:-0.681632 41:-0.939853 42:-0.370371 43:-0.867073 44:-0.867606 45:-0.901494 46:-0.392047 47:-0.753732 48:-0.795873 49:-0.895118 
2.302362745514713 1:-0.997444 2:-0.478494 3:-0.111722 4:-0.778455 5:-0.639138 6:-1 7:-0.943309 8:-1 9:-1 10:-1 11:-0.272728 12:-0.745453 13:-1 14:-0.965097 15:-0.883116 16:-0.727272 17:-0.424242 18:-0.90909 19:-1 20:-1 21:-1 22:-0.956522 23:-0.173914 24:-0.956522 25:-0.956522 26:-1 27:-1 28:-1 29:-0.217392 30:-0.826086 31:-1 32:-0.884059 33:-1 34:0.75035 35:-0.75035 36:-0.74202 37:0.74202 38:-0.989052 39:-0.967267 40:-0.967826 41:-0.975687 42:-0.231273 43:-0.500285 44:-0.943333 45:-0.93484 46:-0.19176 47:-0.583712 48:-1 49:-0.936405 
1.862418910976813 1:-0.999761 2:-0.091892 3:-0.344864 4:-1 5:-0.781622 6:-1 7:-1 8:-1 9:-0.781622 10:-1 11:-0.2 12:-1 13:-0.6 14:-1 15:-1 16:-1 17:-0.2 18:-1 19:-1 20:-1 21:-1 22:-1 23:-0.818182 24:-1 25:-1 26:-1 27:-1 28:-0.818182 29:-0.454546 30:-0.636364 31:-1 32:-1 33:-0.272728 34:0.13142 35:-0.13142 36:-0.263764 37:0.263764 38:-1 39:-0.807101 40:-1 41:-0.570149 42:-0.265347 43:-0.8575 44:-1 45:-1 46:-0.420689 47:-0.68 48:-0.858824 49:-0.85946 
1.113787528275486 1:-0.999849 2:-0.491924 3:-0.118288 4:-0.784162 5:-0.735486 6:-1 7:-1 8:-1 9:-0.823658 10:-1 11:-0.6 12:-0.359999 13:-0.866666 14:-1 15:-1 16:-0.733334 17:-0.333334 18:-1 19:-1 20:-1 21:-1 22:-1 23:-0.333334 24:-0.866666 25:-0.6 26:-1 27:-1 28:-1 29:-0.6 30:-0.866666 31:-0.733334 32:-1 33:-1 34:0.433242 35:-0.433242 36:-0.47574 37:0.47574 38:-0.774944 39:-0.719624 40:-1 41:-0.687608 42:-0.145753 43:-0.668606 44:-1 45:-1 46:-0.607056 47:-0.906976 48:-1 49:-0.91829 
2.296517196436118 1:-0.999816 2:-0.432624 3:0.002836 4:-1 5:-1 6:-1 7:-1 8:-1 9:-0.570212 10:-1 11:-0.125 12:-1 13:-0.875 14:-1 15:-1 16:-1 17:-0.125 18:-1 19:-0.875 20:-1 21:-1 22:-1 23:-0.6 24:-1 25:-0.4 26:-1 27:-1 28:-0.8 29:-0.6 30:-1 31:-0.8 32:-1 33:-0.8 34:0.782092 35:-0.782092 36:-0.654076 37:0.654076 38:-0.936332 39:-1 40:-1 41:-0.505104 42:0.208311 43:-1 44:-1 45:-1 46:-0.618874 47:-0.894736 48:-0.81424 49:-0.907538 
0.8564845438096046 1:-0.999734 2:-0.476248 3:-0.384896 4:-1 5:-0.87698 6:-1 7:-1 8:-1 9:-0.261876 10:-1 11:-0.666666 12:-1 13:-1 14:-1 15:-1 16:-1 17:0.666666 18:-1 19:-1 20:-1 21:-1 22:-1 23:-0.846154 24:-1 25:-0.538462 26:-1 27:-1 28:-1 29:-0.692308 30:-0.846154 31:-0.076924 32:-1 33:-1 34:0.057128 35:-0.057128 36:-0.456978 37:0.456978 38:-0.861751 39:-1 40:-1 41:-0.309168 42:-0.67203 43:-0.898216 44:-1 45:-1 46:-0.0344823 47:-0.542856 48:-1 49:-1 
6 1:-0.999174 2:-1 3:-0.081818 4:-0.693939 5:-0.617424 6:-1 7:-0.687474 8:-1 9:-0.84697 10:-1 11:-0.416666 12:-0.4 13:-0.916666 14:-0.90402 15:-1 16:-0.916666 17:-0.5 18:-0.916666 19:-1 20:-1 21:-0.916666 22:-0.904762 23:-0.428572 24:-0.904762 25:-1 26:-1 27:-1 28:-1 29:-0.52381 30:-0.714286 31:-1 32:-0.492064 33:-0.904762 34:0.495458 35:-0.495458 36:-0.47261 37:0.47261 38:-0.808999 39:-0.968273 40:-0.844075 41:-0.89395 42:-0.305221 43:-0.53125 44:-1 45:-1 46:-0.460073 47:-0.526316 48:-0.95356 49:-0.953769 
0.82176196779707 1:-0.999251 2:-1 4:-0.150369 5:-0.888888 6:-1 7:-1 8:-1 9:-0.777778 10:-1 11:-0.809524 12:-0.0857148 13:-0.904762 14:-1 15:-1 16:-1 17:-0.428572 18:-0.714286 19:-1 20:-1 21:-0.904762 22:-1 23:0.166666 24:-1 25:-1 26:-1 27:-1 28:-1 29:-0.5 30:-1 31:-0.666666 32:-1 33:-1 34:0.69259 35:-0.69259 36:-0.52143 37:0.52143 38:-0.910394 39:-1 40:-1 41:-0.800995 42:-0.277251 43:-0.0104167 44:-1 45:-1 46:-0.374202 47:-0.851852 48:-1 49:-1 
1.693031935946784 1:-0.9998 2:-0.16461 3:-0.418106 4:-1 5:-0.833744 6:-1 7:-1 8:-0.785185 9:-0.750618 10:-1 11:-0.666666 12:-0.866666 13:-0.888888 14:-1 15:-1 16:-1 17:-0.333334 18:-0.777778 19:-0.666666 20:-1 21:-0.777778 22:-0.666666 23:-0.5 24:-1 25:-0.5 26:-1 27:-1 28:-1 29:-0.666666 30:-0.833334 31:-0.833334 32:-1 33:-1 34:0.413906 35:-0.413906 36:-0.508714 37:0.508714 38:-0.737026 39:-0.947582 40:-1 41:-0.415964 42:-0.451008 43:-0.767665 44:-1 45:-1 46:-0.475263 47:-0.565216 48:-1 49:-0.92362 
3.84242662676707 1:-0.999281 2:-0.711094 3:-0.166302 4:-1 5:-0.754794 6:-1 7:-0.949922 8:-0.62855 9:-0.705754 10:-1 11:-0.615384 12:-0.815385 13:-0.538462 14:-1 15:-0.901098 16:-1 17:-0.307692 18:-1 19:-0.846154 20:-0.923076 21:-1 22:-1 23:-0.4 24:-1 25:-1 26:-1 27:-1 28:-0.933334 29:-0.4 30:-0.666666 31:-0.666666 32:-1 33:-0.933334 34:0.729162 35:-0.729162 36:-0.814194 37:0.814194 38:-1 39:-1 40:-0.944234 41:-0.525899 42:-0.405795 43:-0.874265 44:-1 45:-1 46:-0.0912764 47:-0.482352 48:-1 49:-1 
1.80189222446445 1:-0.999556 2:-0.859174 3:0.034424 4:-0.461577 5:-0.71266 6:-1 7:-1 8:-1 9:-0.885064 10:-1 11:-0.166666 12:-0.866666 13:-0.888888 14:-1 15:-1 16:-0.888888 17:-0.5 18:-0.722222 19:-0.944444 20:-1 21:-1 22:-1 23:0.09091 24:-0.818182 25:-1 26:-1 27:-1 28:-1 29:-0.454546 30:-0.90909 31:-0.90909 32:-1 33:-1 34:0.326044 35:-0.326044 36:-0.165516 37:0.165516 38:-0.371597 39:-0.843426 40:-1 41:-0.860438 42:-0.344061 43:-0.583605 44:-1 45:-1 46:-0.561129 47:-0.844156 48:-1 49:-1 
6 1:-0.999281 2:-0.407666 3:-0.245894 4:-1 5:-0.798904 6:-1 7:-0.691985 8:-1 9:-0.849178 10:-1 11:-0.032258 12:-0.845162 13:-0.935484 14:-1 15:-0.917051 16:-0.935484 17:-0.48387 18:-0.870968 19:-1 20:-0.935484 21:-1 22:-1 23:-0.76 24:-0.92 25:-0.92 26:-0.84 27:-1 28:-0.92 29:-0.28 30:-1 31:-0.84 32:-0.466667 33:-0.92 34:0.59205 35:-0.59205 36:-0.596608 37:0.596608 38:-0.786528 39:-0.905441 40:-0.976764 41:-0.868304 42:-0.279753 43:-0.72059 44:-1 45:-1 46:-0.361054 47:-0.882352 48:-0.619378 49:-0.931107 
0.9727852692030667 1:-0.999238 2:-0.329676 3:-0.157872 4:-1 5:-0.911354 6:-1 7:-0.818964 8:-1 9:-0.778388 10:-1 11:-0.461538 12:-0.630769 13:-1 14:-1 15:-0.901098 16:-0.923076 17:-0.384616 18:-1 19:-1 20:-0.692308 21:-0.923076 22:-0.95122 23:-0.317074 24:-1 25:-0.95122 26:-0.95122 27:-0.95122 28:-1 29:-0.317074 30:-0.90244 31:-0.804878 32:-0.804877 33:-1 34:0.454586 35:-0.454586 36:-0.567444 37:0.567444 38:-0.930877 39:-0.931108 40:-0.819424 41:-0.79531 42:-0.409654 43:-0.660715 44:-1 45:-1 46:-0.0574712 47:-0.84762 48:-1 49:-0.966537 
3.636192132861875 1:-0.996882 2:-0.84724 3:0.07056 4:-1 5:-0.790086 6:-1 7:-0.592738 8:-1 9:-0.83207 10:-1 11:-0.257732 12:-0.851546 13:-0.979382 14:-0.833768 15:-0.94698 16:-1 17:-0.381444 18:-0.938144 19:-0.958762 20:-0.793814 21:-1 22:-0.908046 23:-0.310344 24:-0.885058 25:-1 26:-0.862068 27:-1 28:-1 29:-0.54023 30:-0.83908 31:-0.931034 32:-0.724139 33:-0.931034 34:0.387224 35:-0.387224 36:-0.222472 37:0.222472 38:-0.783986 39:-0.964118 40:-0.774278 41:-0.936033 42:-0.132247 43:-0.72433 44:-1 45:-0.957141 46:-0.461207 47:-0.714284 48:-0.989496 49:-0.947715 
6 1:-0.997781 2:-0.65373 3:0.347484 4:-1 5:-0.77542 6:-1 7:-0.958305 8:-1 9:-0.959168 10:-1 11:-0.431818 12:-0.836363 13:-0.977272 14:-0.921471 15:-0.941559 16:-0.90909 17:-0.136364 18:-0.90909 19:-0.954546 20:-0.954546 21:-0.977272 22:-0.92 23:-0.12 24:-0.893334 25:-1 26:-1 27:-1 28:-1 29:-0.173334 30:-0.92 31:-1 32:-1 33:-0.973334 34:0.009408 35:-0.009408 36:-0.18933 37:0.18933 38:-0.437164 39:-0.907905 40:-0.958853 41:-0.9347 42:-0.505767 43:-0.802082 44:-0.956516 45:-0.949998 46:-0.371407 47:-0.819444 48:-0.742646 49:-0.939002 
6 1:-0.997466 2:-0.89383 3:-0.061616 4:-1 5:-0.539338 6:-1 7:-0.686404 8:-1 9:-0.812324 10:-1 11:-0.387096 12:-0.709677 13:-0.967742 14:-0.851387 15:-0.979261 16:-0.935484 17:-0.467742 18:-0.854838 19:-0.951612 20:-0.854838 21:-0.967742 22:-0.961166 23:-0.708738 24:-0.864078 25:-0.902912 26:-0.708738 27:-0.902912 28:-0.980582 29:-0.592234 30:-0.708738 31:-0.92233 32:-0.766989 33:-0.92233 34:0.31277 35:-0.31277 36:-0.257378 37:0.257378 38:-0.870393 39:-0.94464 40:-0.752109 41:-0.862931 42:-0.308921 43:-0.700095 44:-1 45:-0.97551 46:-0.396551 47:-0.581632 48:-1 49:-0.919333 
2.090163736886041 1:-0.999183 2:-0.674364 3:0.094568 4:-0.792497 5:-0.583022 6:-1 7:-1 8:-1 9:-1 10:-1 11:-0.380952 12:-0.942856 13:-0.809524 14:-0.835463 15:-1 16:-0.95238 17:-0.380952 18:-0.714286 19:-1 20:-0.95238 21:-1 22:-1 23:-0.68 24:-0.84 25:-1 26:-1 27:-1 28:-1 29:-0.12 30:-0.84 31:-1 32:-0.68 33:-0.76 34:0.447754 35:-0.447754 36:-0.378104 37:0.378104 38:-0.706745 39:-0.951288 40:-0.832419 41:-0.782904 42:-0.513015 43:-0.712122 44:-1 45:-1 46:-0.195403 47:-0.676768 48:-1 49:-1 
6 1:-0.987257 2:-0.867356 3:0.366882 4:-1 5:-0.526434 6:-1 7:-1 8:-1 9:-0.973092 10:-1 11:-0.265018 12:-0.686219 13:-0.978798 14:-1 15:-0.990913 16:-0.90106 17:-0.28622 18:-0.85159 19:-0.985866 20:-1 21:-1 22:-0.89091 23:-0.236364 24:-0.881818 25:-1 26:-1 27:-1 28:-1 29:-0.218182 30:-0.781818 31:-0.99091 32:-1 33:-1 34:0.259904 35:-0.259904 36:-0.152656 37:0.152656 38:-0.572965 39:-0.836188 40:-1 41:-0.984649 42:-0.294499 43:-0.656191 44:-1 45:-0.960381 46:-0.388506 47:-0.740952 48:-0.988794 49:-0.941999 
6 1:-0.999279 2:-0.840086 3:-0.295412 4:-0.796198 5:-0.674806 6:-1 7:-0.889312 8:-1 9:-0.45801 10:-1 11:-0.513514 12:-0.675676 13:-1 14:-0.750973 15:-0.791506 16:-0.837838 17:-0.621622 18:-0.837838 19:-0.891892 20:-0.945946 21:-1 22:-0.875 23:-0.5625 24:-0.8125 25:-1 26:-1 27:-1 28:-1 29:-0.4375 30:-0.9375 31:-0.75 32:-0.833333 33:-0.75 34:0.39053 35:-0.39053 36:-0.389142 37:0.389142 38:-0.892948 39:-0.87197 40:-0.853181 41:-0.66715 42:-0.451449 43:-0.495575 44:-1 45:-1 46:-0.423253 47:-0.61062 48:-1 49:-1 
4.552785404861127 1:-0.998821 2:-0.624354 3:0.359154 4:-1 5:-0.9337 6:-1 7:-0.864599 8:-1 9:-0.9337 10:-1 11:-0.2 12:-0.920001 13:-0.933334 14:-0.961608 15:-0.828571 16:-1 17:-0.2 18:-0.966666 19:-1 20:-0.966666 21:-0.966666 22:-0.954546 23:-0.09091 24:-0.90909 25:-1 26:-1 27:-1 28:-1 29:-0.363636 30:-0.90909 31:-0.954546 32:-0.818181 33:-0.954546 34:0.478226 35:-0.478226 36:-0.193038 37:0.193038 38:-0.591095 39:-0.932078 40:-0.916547 41:-0.829725 42:0.0508885 43:-0.899648 44:-1 45:-1 46:-0.541039 47:-0.887324 48:-1 49:-1 
6 1:-0.999229 2:-0.566996 3:0.234602 4:-1 5:-0.952516 6:-1 7:-0.806049 8:-1 9:-0.90503 10:-1 11:-0.282052 12:-0.876923 13:-0.897436 14:-0.940936 15:-0.736264 16:-1 17:-0.333334 18:-0.948718 19:-1 20:-0.948718 21:-0.948718 22:-0.933334 23:-0.333334 24:-0.933334 25:-1 26:-1 27:-1 28:-1 29:-0.2 30:-0.933334 31:-0.933334 32:-0.733333 33:-0.933334 34:0.67407 35:-0.67407 36:-0.59005 37:0.59005 38:-0.886946 39:-0.954929 40:-0.889249 41:-0.774027 42:0.051343 43:-0.93341 44:-1 45:-1 46:-0.300676 47:-0.850468 48:-1 49:-1 
3.840117553167989 1:-0.999194 2:-0.467402 3:-0.142068 4:-0.660617 5:-0.828414 6:-1 7:-0.912393 8:-1 9:-0.914206 10:-1 11:-0.5 12:-0.899999 13:-0.833334 14:-0.90402 15:-0.785715 16:-0.916666 17:-0.333334 18:-0.916666 19:-0.916666 20:-0.916666 21:-1 22:-1 23:-0.25 24:-1 25:-0.75 26:-1 27:-1 28:-1 29:-0.5 30:-0.75 31:-1 32:-1 33:-0.75 34:0.736714 35:-0.736714 36:-0.421504 37:0.421504 38:-0.876983 39:-0.959132 40:-0.919659 41:-0.681255 42:0.0895266 43:-0.577331 44:-1 45:-1 46:-0.631795 47:-0.864408 48:-1 49:-1 
2.25446630237317 1:-0.99975 2:-0.584314 3:0.122222 4:-1 5:-0.867974 6:-1 7:-1 8:-1 9:-0.669934 10:-1 11:-0.333334 12:-0.800001 13:-0.833334 14:-1 15:-1 16:-0.833334 17:-0.166666 18:-1 19:-1 20:-1 21:-1 22:-1 23:-0.818182 24:-0.90909 25:-1 26:-1 27:-1 28:-1 29:0.181818 30:-0.90909 31:-0.636364 32:-1 33:-0.90909 34:0.266116 35:-0.266116 36:-0.67389 37:0.67389 38:-0.605004 39:-0.852374 40:-1 41:-0.671032 42:-0.765735 43:-0.927297 44:-1 45:-1 46:-0.0147785 47:-0.510204 48:-1 49:-1 
1.015211922145981 1:-0.99924 2:-0.55893 3:-0.221018 4:-1 5:-0.902628 6:-1 7:-1 8:-0.810969 9:-0.46445 10:-1 11:-0.6 12:-0.904 13:-0.6 14:-0.90786 15:-1 16:-1 17:-0.36 18:-0.92 19:-0.84 20:-1 21:-0.84 22:-1 23:-0.371428 24:-1 25:-0.942858 26:-0.885714 27:-1 28:-1 29:-0.371428 30:-0.942858 31:-0.542858 32:-1 33:-0.942858 34:0.477988 35:-0.477988 36:-0.662492 37:0.662492 38:-0.947972 39:-1 40:-0.923546 41:-0.48002 42:-0.530968 43:-0.885081 44:-1 45:-1 46:0.0381923 47:-0.698924 48:-1 49:-0.962219 
4.961610192136073 1:-0.999942 2:-0.787642 3:-0.394122 4:-0.729361 5:-1 6:-1 7:-1 8:-1 9:-0.030594 10:-1 11:-0.5 12:-1 13:-0.75 14:-1 15:-1 16:-1 17:-0.5 18:-1 19:-0.25 20:-1 21:-1 22:-1 23:-0.636364 24:-0.454546 25:-1 26:-1 27:-1 28:-1 29:-0.818182 30:-1 31:-0.09091 32:-1 33:-1 34:0.643072 35:-0.643072 36:-0.749632 37:0.749632 38:-1 39:-0.910695 40:-1 41:-0.104478 42:-0.489825 43:-1 44:-1 45:-1 46:-0.284802 47:-0.555556 48:-1 49:-1 
1.861046663981485 1:-0.999838 2:-1 3:0.6 4:-1 5:-1 6:-1 7:-1 8:-1 9:-0.6 10:-1 11:-1 12:0.37143 13:-0.714286 14:-1 15:-1 16:-1 17:-0.714286 18:-1 19:-0.714286 20:-1 21:-1 22:-1 23:-0.6 24:-1 25:-1 26:-1 27:-1 28:-0.6 29:0.2 30:-1 31:-1 32:-1 33:-1 34:0.462822 35:-0.462822 36:-0.451162 37:0.451162 38:-0.884793 39:-0.885179 40:-1 41:-0.744137 42:-0.781354 43:0.187498 44:-1 45:-1 46:-0.0804602 47:-1 48:-1 49:-1 
2.766799734472838 1:-0.999339 2:-0.51356 3:-0.572034 4:-0.690029 5:-0.657628 6:-1 7:-0.912598 8:-0.687289 9:-0.828814 10:-1 11:-0.4375 12:-0.625 13:-1 14:-0.856031 15:-0.919643 16:-0.75 17:-0.5625 18:-0.9375 19:-0.9375 20:-0.9375 21:-0.9375 22:-0.76923 23:-0.538462 24:-0.615384 25:-1 26:-1 27:-1 28:-1 29:-0.615384 30:-0.76923 31:-0.76923 32:-0.897435 33:-1 34:0.602026 35:-0.602026 36:-0.615272 37:0.615272 38:-0.921107 39:-0.868954 40:-0.896954 41:-0.82479 42:-0.376144 43:-0.457881 44:-1 45:-0.947824 46:-0.58021 47:-0.217392 48:-1 49:-1 
2.698327226048733 1:-0.999767 2:-0.594568 3:-0.804074 4:-0.483298 5:-1 6:-1 7:-1 8:-0.47873 9:-0.412222 10:-1 11:-0.636364 12:-0.563637 13:-0.636364 14:-1 15:-0.766234 16:-0.818182 17:-0.818182 18:-1 19:-0.636364 20:-1 21:-1 22:-1 23:-0.333334 24:-1 25:-0.666666 26:-1 27:-1 28:-1 29:-0.666666 30:-1 31:-0.333334 32:-1 33:-1 34:0.146496 35:-0.146496 36:0.03475 37:-0.03475 38:-1 39:-1 40:-1 41:-0.20398 42:-0.489825 43:-0.472223 44:-1 45:-1 46:-0.195403 47:-1 48:-1 49:-1 
2.757537376212413 1:-0.999216 2:-0.391048 3:-0.205116 4:-1 5:-0.536318 6:-1 7:-1 8:-1 9:-0.86752 10:-1 11:-0.185186 12:-0.911111 13:-0.851852 14:-0.914685 15:-0.904762 16:-0.851852 17:-0.555556 18:-0.925926 19:-1 20:-0.925926 21:-0.925926 22:-0.904762 23:-0.428572 24:-1 25:-1 26:-1 27:-1 28:-1 29:-0.142858 30:-0.714286 31:-1 32:-1 33:-0.809524 34:0.666586 35:-0.666586 36:-0.661706 37:0.661706 38:-0.887471 39:-0.943924 40:-0.944881 41:-0.812566 42:-0.199144 43:-0.834301 44:-1 45:-1 46:-0.129912 47:-0.720932 48:-1 49:-0.959145 
5.197870511606062 1:-0.999811 2:-0.613462 3:-0.482052 4:0.149454 5:-1 6:-1 7:-1 8:-0.834341 9:-0.935256 10:-1 11:-0.52381 12:-0.657143 13:-0.904762 14:-1 15:-1 16:-0.428572 17:-0.52381 18:-1 19:-0.904762 20:-1 21:-1 22:-0.636364 23:-0.09091 24:-0.818182 25:-1 26:-1 27:-1 28:-1 29:-0.454546 30:-1 31:-1 32:-1 33:-1 34:0.642062 35:-0.642062 36:-0.471642 37:0.471642 38:-0.67742 39:-0.732085 40:-1 41:-0.880598 42:-0.489825 43:-0.525002 44:-1 45:-1 46:-0.356321 47:-0.644444 48:-1 49:-1 
6 1:-0.999986 2:-0.814184 3:-0.1116 4:-0.881594 5:-0.7779 6:-1 7:-1 8:-1 9:-0.389224 10:-1 11:-0.636364 12:-0.927273 13:-0.939394 14:-1 15:-0.844156 16:-0.939394 17:-0.333334 18:-0.939394 19:-0.69697 20:-1 21:-0.69697 22:-1 23:-0.333334 24:-1 25:-0.666666 26:-1 27:-1 28:-1 29:-0.333334 30:-0.666666 31:-1 32:-1 33:-1 34:0.264872 35:-0.264872 36:-0.272164 37:0.272164 38:-0.348635 39:-0.860891 40:-1 41:-0.328358 42:-0.779251 43:-0.862979 44:-1 45:-1 46:-0.628647 47:-0.53846 48:-1 49:-0.932432 
5.5185997294901 1:-0.99994 2:-1 3:0.368422 4:-1 5:-0.68421 6:-1 7:-1 8:-1 9:-0.68421 10:-1 11:-0.17647 12:-0.858822 13:-1 14:-1 15:-1 16:-0.882352 17:-0.411764 18:-0.882352 19:-0.764706 20:-1 21:-1 22:-0.8 23:-0.6 24:-1 25:-0.8 26:-1 27:-1 28:-1 29:-0.2 30:-0.8 31:-0.8 32:-1 33:-1 34:0.191264 35:-0.191264 36:-0.128388 37:0.128388 38:-0.0845697 39:-0.869663 40:-1 41:-0.70956 42:-0.813855 43:-0.807433 44:-1 45:-1 46:-0.412861 47:-0.675676 48:-1 49:-1 
6 1:-0.998922 2:-0.647488 3:-0.0437 4:-0.775371 5:-0.632192 6:-1 7:-0.924884 8:-1 9:-0.926438 10:-1 11:-0.621622 12:-0.578377 13:-0.972972 14:-0.937743 15:-0.791506 16:-0.837838 17:-0.351352 18:-0.918918 19:-0.972972 20:-0.945946 21:-0.945946 22:-0.833334 23:-0.541666 24:-0.958334 25:-1 26:-0.958334 27:-1 28:-1 29:-0.125 30:-0.75 31:-1 32:-0.888888 33:-0.916666 34:0.363268 35:-0.363268 36:-0.364218 37:0.364218 38:-0.72564 39:-0.86328 40:-0.902265 41:-0.861518 42:-0.52664 43:-0.485825 44:-1 45:-0.975256 46:-0.315677 47:-0.649484 48:-1 49:-0.963779 
4.638930473184743 1:-0.999232 2:-0.60974 3:-0.099794 4:-0.751317 5:-0.646348 6:-1 7:-0.901512 8:-1 9:-0.9357 10:-1 11:-0.659574 12:-0.642553 13:-0.957446 14:-0.901979 15:-0.671732 16:-0.957446 17:-0.361702 18:-0.914894 19:-1 20:-0.87234 21:-0.914894 22:-0.789474 23:-0.526316 24:-0.947368 25:-1 26:-0.947368 27:-1 28:-1 29:-0.210526 30:-0.68421 31:-1 32:-0.929824 33:-0.947368 34:0.523646 35:-0.523646 36:-0.48792 37:0.48792 38:-0.897049 39:-0.897395 40:-0.865527 41:-0.809463 42:-0.39756 43:-0.519946 44:-1 45:-1 46:-0.280998 47:-0.659576 48:-1 49:-0.975082 
6 1:-0.994877 2:-0.834714 3:0.213554 4:-0.894675 5:-0.529748 6:-1 7:-1 8:-1 9:-0.931738 10:-1 11:-0.246862 12:-0.769038 13:-1 14:-1 15:-0.946203 16:-0.866108 17:-0.246862 18:-0.891214 19:-0.991632 20:-1 21:-0.991632 22:-0.81166 23:-0.399104 24:-0.856502 25:-0.955156 26:-0.982062 27:-1 28:-1 29:-0.35426 30:-0.704036 31:-0.982062 32:-1 33:-0.955156 34:0.138736 35:-0.138736 36:-0.163676 37:0.163676 38:-0.513482 39:-0.838372 40:-1 41:-0.966923 42:-0.378158 43:-0.746582 44:-1 45:-0.980301 46:-0.432049 47:-0.540356 48:-0.990344 49:-0.927903 
2.804081487997683 1:-0.999986 2:-0.686456 3:-0.437848 4:-1 5:-0.812616 6:-1 7:-1 8:-1 9:-0.06308 10:-1 11:-0.272728 12:-1 13:-0.818182 14:-1 15:-1 16:-0.818182 17:-0.454546 18:-1 19:-0.636364 20:-1 21:-1 22:-0.714286 23:-0.142858 24:-1 25:-1 26:-1 27:-1 28:-1 29:-1 30:-1 31:-0.428572 32:-1 33:-0.714286 34:0.489124 35:-0.489124 36:-0.232302 37:0.232302 38:-0.423964 39:-0.770358 40:-1 41:-0.23241 42:-0.67203 43:-1 44:-1 45:-1 46:-0.425288 47:-1 48:-1 49:-1 
0.7873696817200565 1:-0.999347 2:-0.698322 3:-0.199578 4:-1 5:-0.786554 6:-1 7:-0.618578 8:-0.806065 9:-0.839916 10:-1 11:-0.263158 12:-0.873683 13:-0.894736 14:-0.757526 15:-1 16:-1 17:-0.473684 18:-1 19:-0.947368 20:-0.789474 21:-0.947368 22:-1 23:-0.384616 24:-0.76923 25:-1 26:-0.923076 27:-0.923076 28:-1 29:-0.615384 30:-0.76923 31:-0.846154 32:-0.692307 33:-1 34:0.420882 35:-0.420882 36:-0.143406 37:0.143406 38:-0.882555 39:-0.953181 40:-0.723874 41:-0.817418 42:0.00301437 43:-0.757889 44:-1 45:-1 46:-0.578173 47:-0.728156 48:-1 49:-1 
6 1:-0.99839 2:-1 3:-0.076888 4:-0.598141 5:-0.446132 6:-1 7:-1 8:-1 9:-0.7923 10:-1 11:-0.333334 12:-0.733333 13:-1 14:-0.936013 15:-0.964285 16:-0.583334 17:-0.694444 18:-0.916666 19:-0.805556 20:-1 21:-0.972222 22:-0.861112 23:-0.277778 24:-0.888888 25:-1 26:-1 27:-1 28:-1 29:-0.222222 30:-0.777778 31:-1 32:-1 33:-0.972222 34:0.238186 35:-0.238186 36:-0.300534 37:0.300534 38:-0.65868 39:-0.839918 40:-0.980331 41:-0.921966 42:-0.466539 43:-0.630448 44:-1 45:-0.94025 46:-0.358993 47:-0.46888 48:-1 49:-0.970841 
1.063626781609997 1:-0.998716 2:-0.759044 3:-0.210048 4:-0.539371 5:-0.817704 6:-1 7:-0.751803 8:-1 9:-0.817704 10:-1 11:-0.30303 12:-0.927273 13:-0.939394 14:-0.965097 15:-1 16:-0.939394 17:-0.424242 18:-0.878788 19:-0.969696 20:-0.757576 21:-0.878788 22:-0.963636 23:-0.781818 24:-0.854546 25:-0.854546 26:-0.818182 27:-0.963636 28:-0.963636 29:-0.745454 30:-0.745454 31:-0.818182 32:-1 33:-0.49091 34:0.261584 35:-0.261584 36:0.074262 37:-0.074262 38:-0.845902 39:-0.877135 40:-0.788655 41:-0.469532 42:-0.137251 43:-0.841163 44:-1 45:-1 46:-0.707885 47:-0.7707 48:-1 49:-1 
1.20265087467464 1:-0.999915 2:-0.846024 3:-0.316412 4:-1 5:-0.743654 6:-1 7:-1 8:-0.604062 9:-0.401862 10:-1 11:-0.555556 12:-0.466667 13:-0.777778 14:-1 15:-1 16:-0.888888 17:-0.555556 18:-1 19:-0.666666 20:-1 21:-1 22:-1 23:-0.6 24:-1 25:-1 26:-1 27:-1 28:-1 29:-0.333334 30:-0.866666 31:-0.466666 32:-1 33:-0.733334 34:0.347538 35:-0.347538 36:-0.451852 37:0.451852 38:-0.516129 39:-0.758876 40:-1 41:-0.261194 42:-0.655632 43:-0.910938 44:-1 45:-1 46:-0.456896 47:-0.9 48:-1 49:-1 
0.8868077944792737 1:-0.999959 2:-0.592028 3:-0.17116 4:-0.740031 5:-0.881594 6:-1 7:-1 8:-0.737732 9:-0.763188 10:-1 11:-0.375 12:-0.7 13:-0.875 14:-1 15:-0.839286 16:-0.875 17:-0.5 18:-1 19:-0.75 20:-1 21:-1 22:-1 23:-1 24:-1 25:-0.5 26:-1 27:-1 28:-1 30:-1 31:-0.5 32:-1 33:-1 34:0.049002 35:-0.049002 36:0.043824 37:-0.043824 38:-0.129033 39:-0.807101 40:-1 41:-0.355223 42:-0.724505 43:-0.8575 44:-1 45:-1 46:-0.613793 47:-1 48:-1 49:-1 
6 1:-0.999997 2:-0.857872 3:-0.65617 4:-0.637731 5:-0.484256 6:-1 7:-1 8:-0.634528 9:-0.570212 10:-1 11:-0.625 12:-0.85 13:-0.875 14:-1 15:-0.839286 16:-1 17:-1 18:-0.5 19:-0.375 20:-1 21:-0.875 22:-0.777778 23:-0.777778 24:-0.777778 25:-1 26:-1 27:-1 28:-1 29:-0.555556 30:-0.333334 31:-0.777778 32:-1 33:-1 34:0.085028 35:-0.085028 36:0.07259 37:-0.07259 38:-0.838709 39:-0.517752 40:-1 41:-0.373135 42:-0.693895 43:-0.881251 44:-1 45:-0.679999 46:-0.5977 47:-0.6 48:-1 49:-1 
6 1:-0.983626 2:-0.693994 3:-0.64695 4:-0.870004 5:-0.859434 6:-1 7:-0.225573 8:-1 9:-0.660026 10:-1 11:-0.45946 12:-0.816215 13:-0.99099 14:-0.875486 15:-0.791506 16:-0.891892 17:-0.432432 18:-0.90991 19:-0.918918 20:-0.891892 21:-0.927928 22:-0.924528 23:-0.613208 24:-0.90566 25:-0.915094 26:-0.556604 27:-0.933962 28:-1 29:-0.660378 30:-0.849056 31:-1 32:-0.597485 33:-0.943396 34:-0.03529 35:0.03529 36:0.035096 37:-0.035096 38:-0.943605 39:-0.9674 40:-0.454164 41:-0.763281 42:-0.413476 43:-0.794056 44:-0.998055 45:-0.964197 46:-0.379954 47:-0.746388 48:-1 49:-0.988535 
4.988582022894478 1:-0.999542 2:-0.707944 3:-0.410046 4:-0.813895 5:-0.469042 6:-1 7:-0.939758 8:-0.81225 9:-0.764018 10:-1 11:-0.375 12:-0.625 13:-1 14:-0.928016 15:-0.678572 16:-1 17:-0.5625 18:-0.8125 19:-0.9375 20:-0.9375 21:-1 22:-1 23:-0.238096 24:-0.809524 25:-1 26:-1 27:-1 28:-1 29:-0.714286 30:-0.619048 31:-0.809524 32:-1 33:-0.809524 34:0.606854 35:-0.606854 36:-0.543992 37:0.543992 38:-0.829223 39:-0.971632 40:-0.944234 41:-0.652326 42:-0.378787 43:-0.53897 44:-1 45:-1 46:-0.432049 47:-0.482352 48:-1 49:-1 
1.620757997756785 1:-0.999254 2:-0.647488 3:0.059286 4:-0.775371 5:-0.882302 6:-1 7:-0.939907 8:-1 9:-0.764604 10:-1 11:0.2 12:-0.76 13:-1 14:-1 15:-1 16:-0.9 17:-0.7 18:-1 19:-1 20:-0.8 21:-1 22:-0.878788 23:-0.575758 24:-0.939394 25:-0.939394 26:-1 27:-1 28:-1 29:-0.030304 30:-0.878788 31:-0.757576 32:-1 33:-1 34:0.735564 35:-0.735564 36:-0.804186 37:0.804186 38:-1 39:-0.953181 40:-0.95398 41:-0.869583 42:-0.264457 43:-0.792477 44:-1 45:-1 46:-0.0860385 47:-0.417476 48:-1 49:-0.965887 
6 1:-0.998453 2:-0.575886 3:0.1461 4:-1 5:-0.665722 6:-1 7:-1 8:-1 9:-0.904492 10:-1 11:-0.252748 12:-0.762638 13:-1 14:-1 15:-0.88697 16:-0.846154 17:-0.318682 18:-0.89011 19:-0.978022 20:-1 21:-1 22:-0.88 23:-0.28 24:-0.96 25:-1 26:-1 27:-1 28:-1 29:-0.08 30:-0.88 31:-1 32:-1 33:-0.92 34:0.259232 35:-0.259232 36:-0.145928 37:0.145928 38:-0.549645 39:-0.843426 40:-1 41:-0.941849 42:-0.324184 43:-0.706981 44:-1 45:-0.958442 46:-0.414838 47:-0.619048 48:-1 49:-0.98479 
5.037447257451522 1:-0.999986 2:-0.854748 3:-0.479158 4:-0.444655 5:-0.652772 6:-1 7:-1 8:-0.626498 9:-0.739578 10:-1 11:-0.411764 12:-0.576469 13:-1 14:-0.864499 15:-0.848738 16:-0.882352 17:-0.529412 18:-0.882352 19:-0.882352 20:-1 21:-1 22:-0.833334 23:-0.666666 24:-0.666666 25:-0.666666 26:-1 27:-1 28:-1 29:-0.5 30:-0.666666 31:-1 32:-1 33:-1 34:0.418804 35:-0.418804 36:-0.23077 37:0.23077 38:-0.37788 39:-0.586644 40:-0.932284 41:-0.692963 42:-0.737623 43:-0.898216 44:-1 45:-1 46:-0.655173 47:-0.428572 48:-1 49:-1 
1.894773284339556 1:-0.999419 2:-0.819058 3:-0.43969 4:-0.711748 5:-0.319624 6:-1 7:-0.934611 8:-1 9:-0.71184 10:-1 11:-0.736586 12:-0.543414 13:-0.912196 14:-1 15:-0.648782 16:-0.64878 17:-0.658536 18:-0.863414 19:-0.863414 20:-0.980488 21:-0.990244 22:-0.714286 23:-0.471428 24:-0.957142 25:-0.771428 26:-0.928572 27:-0.985714 28:-1 29:-0.657142 30:-0.8 31:-0.9 32:-0.904763 33:-0.885714 34:0.358012 35:-0.358012 36:-0.205302 37:0.205302 38:-0.809227 39:-0.727764 40:-0.961773 41:-0.841116 42:-0.73257 43:-0.253026 44:-0.955113 45:-0.415053 46:-0.666913 47:-0.741936 48:-0.936749 49:-0.811103 
2.454572643942901 1:-0.998889 2:-0.782104 3:-0.826844 4:0.388482 5:-0.763878 6:-1 7:-0.983925 8:-1 9:-0.732394 10:-1 11:-0.960784 12:-0.105882 13:-0.960784 14:-1 15:-1 16:-0.215686 17:-0.843138 18:-0.803922 19:-1 20:-1 21:-0.960784 22:-0.755102 23:-0.836734 24:-0.959184 25:-0.877552 26:-1 27:-1 28:-0.918368 29:-0.67347 30:-0.795918 31:-0.918368 32:-0.945579 33:-0.306122 34:0.55618 35:-0.55618 36:-0.594904 37:0.594904 38:-0.987267 39:-0.949236 40:-1 41:-0.901021 42:-0.855003 43:0.293749 44:-1 45:-0.949475 46:-0.682395 47:-0.115788 48:-0.981425 49:-0.500712 
6 1:-0.995442 2:-1 3:-0.521984 4:-0.637086 5:-0.015848 6:-1 7:-0.99043 8:-1 9:-0.756306 10:-1 11:-0.815534 12:-0.487379 13:-0.990292 14:-1 15:-0.67545 16:-0.53398 17:-0.737864 18:-0.84466 19:-0.815534 20:-1 21:-0.941748 22:-0.581396 23:-0.686046 24:-0.965116 25:-0.872094 26:-0.988372 27:-1 28:-0.895348 29:-0.686046 30:-0.465116 31:-1 32:-0.984496 33:-0.872094 34:0.122932 35:-0.122932 36:-0.330726 37:0.330726 38:-0.857004 39:-0.730373 40:-0.996215 41:-0.828334 42:-0.801961 43:-0.311401 44:-1 45:-0.823643 46:-0.598987 47:-0.022364 48:-0.988724 49:-0.882136 
6 1:-0.994959 2:-0.775042 3:-0.61472 4:-1 5:-0.68352 6:-1 7:-0.690884 8:-1 9:-0.22944 10:-1 11:-0.746376 12:-0.869565 13:-1 14:-0.791349 15:-0.47826 16:-0.884058 17:-0.775362 18:-0.971014 19:-0.536232 20:-0.84058 21:-0.942028 22:-0.908396 23:-0.656488 24:-0.961832 25:-0.740458 26:-0.847328 27:-0.984732 28:-0.992366 29:-0.763358 30:-0.80916 31:-0.984732 32:-0.694656 33:-0.580152 34:0.130168 35:-0.130168 36:-0.17731 37:0.17731 38:-0.850801 39:-0.9067 40:-0.859573 41:-0.720624 42:-0.766812 43:-0.77169 44:-0.858669 45:-0.274485 46:-0.725638 47:-0.487304 48:-0.854899 49:-0.638878 
2.778219491426448 1:-0.999103 2:-0.525688 3:-0.55588 4:-0.0932717 5:-0.66691 6:-1 7:-0.962208 8:-1 9:-1 10:-1 11:-0.5 12:-0.88 13:-1 14:-1 15:-0.871429 16:-0.7 17:-0.4 18:-0.7 19:-1 20:-1 21:-0.9 22:-1 23:-0.615384 24:-0.923076 25:-0.846154 26:-1 27:-1 28:-1 29:-0.23077 30:-0.692308 31:-0.846154 32:-0.897435 33:-0.923076 34:0.420096 35:-0.420096 36:-0.472738 37:0.472738 38:-0.862537 39:-0.9452 40:-0.973066 41:-0.786297 42:-0.504318 43:-0.392755 44:-1 45:-0.945453 46:-0.314263 47:-0.454544 48:-0.959892 49:-1 
2.576113891280482 1:-0.998971 2:-0.491796 3:-0.909298 4:0.424896 5:-0.909298 6:-1 7:-0.984565 8:-0.86932 9:-0.924416 10:-1 11:-0.6 12:-0.46 13:-0.95 14:-1 15:-0.935714 16:-0.75 17:-0.65 18:-0.75 19:-0.9 20:-1 21:-0.9 22:-0.357142 23:-0.428572 24:-1 25:-1 26:-1 27:-1 28:-1 29:-0.785714 30:-0.928572 31:-0.785714 32:-0.904763 33:-0.785714 34:0.747902 35:-0.747902 36:-0.698392 37:0.698392 38:-1 39:-0.967195 40:-0.983876 41:-0.798964 42:-0.656412 43:0.187498 44:-1 45:-0.771429 46:-0.523809 47:-0.319728 48:-1 49:-0.976098 
2.814707497590007 1:-0.99983 2:-1 3:-0.388888 4:-1 5:0.222222 6:-1 7:-1 8:-1 9:-0.833334 10:-1 11:-0.5 12:0.2 13:-1 14:-1 15:-1 16:-0.75 17:-1 18:-1 19:-0.75 20:-1 21:-1 22:-0.619048 23:-0.809524 24:-1 25:-0.904762 26:-1 27:-1 28:-1 29:-0.428572 30:-0.333334 31:-1 32:-1 33:-0.904762 34:0.307728 35:-0.307728 36:-0.634286 37:0.634286 38:-0.945015 39:-0.671194 40:-1 41:-0.816824 42:-0.739116 43:-0.595172 44:-1 45:-1 46:-0.341693 48:-1 49:-0.920148 
1.404834127776591 1:-0.999739 2:-0.096224 3:-0.753146 4:-0.232123 5:-0.938286 6:-1 7:-1 8:-1 9:-0.81486 10:-1 11:-1 12:-0.52 13:-1 14:-1 15:-1 16:-1 17:-0.2 18:-1 19:-0.2 20:-1 21:-1 22:-0.5 23:-0.5 24:-1 25:-0.5 26:-1 27:-1 28:-1 29:-0.5 30:-1 31:-1 32:-1 33:-1 34:0.142858 35:-0.142858 36:-0.236074 37:0.236074 38:-1 39:-0.890397 40:-1 41:-0.633649 42:-0.478229 43:-0.838067 44:-1 45:-0.781816 46:-0.341693 47:-0.090908 48:-1 49:-1 
6 1:-0.991396 2:-0.803734 3:-0.416598 4:-0.499739 5:-0.424482 6:-1 7:-0.959747 8:-1 9:-0.787136 10:-0.734501 11:-0.486726 12:-0.638939 13:-1 14:-0.979614 15:-0.954488 16:-0.61062 17:-0.39823 18:-0.893806 19:-1 20:-1 21:-0.9823 22:-0.708108 23:-0.708108 24:-0.913514 25:-0.913514 26:-0.978378 27:-0.956756 28:-0.978378 29:-0.632432 30:-0.578378 31:-0.967568 32:-0.913515 33:-0.72973 34:0.171572 35:-0.171572 36:-0.3937 37:0.3937 38:-0.741623 39:-0.751269 40:-1 41:-0.977178 42:-0.685165 43:-0.459573 44:-0.994932 45:-0.959224 46:-0.686559 47:-0.364076 48:-0.785835 49:-0.530964 
6 1:-0.999863 2:-1 3:-0.307692 4:-1 5:-0.153846 6:-1 7:-1 8:-1 9:-0.538462 10:-1 11:-0.857142 12:-0.657143 13:-1 14:-1 15:-0.632654 16:-0.428572 17:-0.571428 18:-1 19:-0.714286 20:-1 21:-1 22:-0.538462 23:-0.692308 24:-1 25:-0.846154 26:-1 27:-1 28:-0.846154 29:-0.846154 30:-0.692308 31:-0.846154 32:-1 33:-0.692308 34:0.071638 35:-0.071638 36:-0.260938 37:0.260938 38:-0.827188 39:-0.655538 40:-1 41:-0.552238 42:-0.617368 43:-0.830357 44:-1 45:-1 46:-0.827585 47:0.142856 48:-1 49:-0.83269 
5.595261139729752 1:-0.999224 2:-0.52454 3:-0.47546 4:-0.545537 5:-0.572598 6:-1 7:-1 8:-0.847172 9:-0.902862 10:-1 11:-0.35849 12:-0.773584 13:-0.962264 14:-1 15:-1 16:-0.660378 17:-0.433962 18:-0.81132 19:-0.962264 20:-1 21:-1 22:-0.466666 23:-0.733334 24:-0.866666 25:-0.955556 26:-1 27:-1 28:-0.955556 29:-0.688888 30:-0.511112 31:-0.911112 32:-1 33:-0.911112 34:0.22027 35:-0.22027 36:-0.100896 37:0.100896 38:-0.689408 39:-0.641572 40:-1 41:-0.891084 42:-0.457078 43:-0.590794 44:-1 45:-0.935133 46:-0.673812 47:-0.297296 48:-1 49:-0.976259 
5.764005349612757 1:-0.999597 2:-0.903582 3:-0.796964 4:0.59743 5:-0.760048 6:-1 7:-1 8:-0.876034 9:-0.889254 10:-1 11:-0.953488 12:-0.441861 13:-0.906976 14:-0.94643 15:-0.461795 16:-0.674418 17:-0.860466 18:-0.953488 19:-0.767442 20:-1 21:-0.813954 22:-0.466666 23:-0.733334 24:-0.933334 25:-0.933334 26:-1 27:-1 28:-0.8 29:-0.866666 30:-0.666666 31:-0.866666 32:-1 33:-0.733334 34:0.185132 35:-0.185132 36:-0.114162 37:0.114162 38:-0.947972 39:-0.740727 40:-0.974515 41:-0.248916 42:-0.901256 43:-0.0806442 44:-1 45:-0.948386 46:-0.792361 47:-0.35484 48:-1 49:-0.924442 
0.5593787976497723 1:-0.999251 2:-0.19674 3:-0.601862 4:-0.658762 5:-0.601862 6:-1 7:-0.954827 8:-1 9:-0.911526 10:-1 11:-0.388888 12:1.2e-06 13:-1 14:-1 15:-1 16:-0.888888 17:-0.722222 18:-1 19:-0.888888 20:-1 21:-0.944444 22:-0.875 23:-0.75 24:-1 25:-1 26:-0.875 27:-1 28:-1 29:-0.875 30:-0.625 31:-0.375 32:-0.833333 33:-0.75 34:0.618502 35:-0.618502 36:-0.252642 37:0.252642 38:-0.971536 39:-0.971632 40:-0.944234 41:-0.683933 42:-0.378787 43:0.215438 44:-1 45:-0.943528 46:-0.716024 47:-0.623528 48:-1 49:-1 
6 1:-0.997617 2:-0.872046 3:-0.576638 4:-0.510788 5:-0.0763 6:-1 7:-0.986899 8:-1 9:-0.871708 10:-1 11:-0.708738 12:-0.254368 13:-1 14:-0.977635 15:-0.900139 16:-0.436894 17:-0.708738 18:-0.92233 19:-0.941748 20:-1 21:-1 22:-0.674796 23:-0.577236 24:-1 25:-0.93496 26:-0.93496 27:-1 28:-0.9187 29:-0.707318 30:-0.382114 31:-0.98374 32:-0.95664 33:-0.9187 34:0.167116 35:-0.167116 36:-0.207344 37:0.207344 38:-0.831698 39:-0.601622 40:-0.951911 41:-0.906553 42:-0.727166 43:-0.390763 44:-0.939501 45:-0.805216 46:-0.573212 47:-0.257972 48:-1 49:-0.989814 
4.812833317658502 1:-0.999196 2:-0.802852 3:-0.840604 4:-0.246238 5:-0.426174 6:-1 7:-0.902341 8:-1 9:-0.61745 10:-1 11:-0.813954 12:-0.832559 13:-0.860466 14:-1 15:-0.521594 16:-0.581396 17:-0.72093 18:-0.906976 19:-0.767442 20:-0.906976 21:-0.953488 22:-0.67742 23:-0.806452 24:-0.935484 25:-0.806452 26:-0.935484 27:-1 28:-1 29:-0.935484 30:-0.612904 31:-0.67742 32:-0.913979 33:-0.67742 34:-0.012888 35:0.012888 36:-0.032478 37:0.032478 38:-0.91436 39:-0.807954 40:-0.916104 41:-0.310527 42:-0.756199 43:-0.400995 44:-1 45:-0.915045 46:-0.765029 47:-0.22124 48:-1 49:-0.968905 
2.377010232584101 1:-0.999281 2:-0.308658 3:-0.653188 4:-0.412615 5:-0.537584 6:-1 7:-1 8:-1 9:-0.961466 10:-1 11:-0.7 12:-0.16 13:-1 14:-1 15:-0.871429 16:-0.8 17:-0.7 18:-0.9 19:-1 20:-0.8 21:-0.9 22:-1 23:-1 24:-1 25:-1 26:-1 27:-1 28:-1 29:-0.111112 31:-1 32:-1 33:-0.888888 34:0.538236 35:-0.538236 36:-0.553042 37:0.553042 38:-0.969376 39:-0.908433 40:-0.939999 41:-0.829964 42:-0.651272 43:-0.00791231 44:-1 45:-1 46:-0.511129 47:-0.088608 48:-1 49:-1 
1.418635516610102 1:-0.999213 2:-0.288002 3:-0.791432 4:-0.274075 5:-0.606038 6:-1 7:-1 8:-1 9:-0.884128 10:-1 11:-0.588236 12:-0.22353 13:-0.882352 14:-1 15:-1 16:-0.82353 17:-0.529412 18:-1 19:-0.882352 20:-0.941176 21:-1 22:-0.625 23:-0.8125 24:-0.875 25:-1 26:-1 27:-1 28:-0.875 29:-0.625 30:-0.5 31:-0.8125 32:-0.916667 33:-0.9375 34:0.660566 35:-0.660566 36:-0.674748 37:0.674748 38:-0.961598 39:-0.885179 40:-0.96238 41:-0.808101 42:-0.635589 43:-0.151787 44:-1 45:-0.92381 46:-0.712643 47:0.26984 48:-1 49:-1 
3.229916585157016 1:-0.999295 2:-0.600848 3:-0.785234 4:0.322616 5:-0.81208 6:-1 7:-1 8:-0.897361 9:-0.919464 10:-1 11:-0.882352 12:-0.788236 13:-0.941176 14:-1 15:-0.0924377 16:-0.705882 17:-0.82353 18:-0.882352 19:-0.705882 20:-1 21:-0.941176 22:-0.567568 23:-0.72973 24:-0.945946 25:-1 26:-1 27:-1 28:-0.945946 29:-0.405406 30:-0.783784 31:-0.945946 32:-1 33:-0.675676 34:0.558802 35:-0.558802 36:-0.611316 37:0.611316 38:-0.96001 39:-0.880434 40:-1 41:-0.71136 42:-0.734373 43:-0.293389 44:-1 45:-0.523965 46:-0.561129 47:-0.10744 48:-1 49:-0.970964 
1.074459860496763 1:-0.998884 2:-0.585638 3:-0.760974 4:-0.119862 5:-0.820732 6:-1 7:-0.837283 8:-0.822417 9:-0.820732 10:-1 11:-0.621622 12:-0.545946 13:-1 14:-0.875486 15:-0.722008 16:-0.621622 17:-0.621622 18:-0.945946 19:-0.891892 20:-1 21:-1 22:-1 23:-0.888888 24:-0.944444 25:-0.888888 26:-0.888888 27:-1 28:-0.888888 29:-0.666666 30:-0.833334 31:-0.833334 32:-0.555555 33:-0.5 34:0.116088 35:-0.116088 36:-0.165108 37:0.165108 38:-0.796978 39:-0.898829 40:-0.91713 41:-0.830915 42:-0.759183 43:-0.576487 44:-0.824852 45:-0.530071 46:-0.611768 47:-0.468532 48:-0.876594 49:-0.70516 
2.787865799339709 1:-0.999281 2:-0.54478 3:-0.771638 4:-0.0330745 5:-0.797012 6:-1 7:-0.896362 8:-0.804906 9:-0.898506 10:-1 11:-0.52381 12:-0.542857 13:-1 14:-0.780619 15:-0.632654 16:-0.904762 17:-0.52381 18:-1 19:-0.904762 20:-1 21:-1 22:-1 23:-1 24:-1 25:-0.894736 26:-0.894736 27:-1 28:-0.894736 29:-0.578948 30:-0.789474 31:-0.789474 32:-0.438597 33:-0.578948 34:0.725386 35:-0.725386 36:-0.735994 37:0.735994 38:-0.968981 39:-0.969086 40:-1 41:-0.896669 42:-0.587936 43:-0.314903 44:-0.892965 45:-0.753847 46:-0.690539 47:-0.641024 48:-0.63801 49:-0.414413 
6 1:-0.998823 2:-0.494124 3:-0.80348 4:0.128248 5:-0.821344 6:-0.781449 7:-1 8:-1 9:-0.892806 10:-1 11:-0.777778 12:-0.786666 13:-0.955556 14:-0.846432 15:-0.542857 16:-0.555556 17:-0.644444 18:-0.955556 19:-0.866666 20:-0.911112 21:-1 22:-0.866666 23:-0.266666 24:-0.933334 25:-1 26:-1 27:-1 28:-0.866666 29:-0.666666 30:-0.866666 31:-0.866666 32:-0.911112 33:-0.733334 34:0.377124 35:-0.377124 36:-0.301218 37:0.301218 38:-0.832506 39:-0.888712 40:-0.908842 41:-0.772676 42:-0.629143 43:-0.314903 44:-0.967891 45:-0.667691 46:-0.535808 47:-0.692308 48:-0.9457 49:-0.837837 
2.315302962452503 1:-0.999216 2:-0.446126 3:-0.887206 4:0.235294 5:-0.887206 6:-0.760715 7:-1 8:-1 9:-0.887206 10:-1 11:-0.92 12:-0.808 13:-0.92 14:-0.72358 15:-0.691429 16:-0.52 17:-0.6 18:-1 19:-0.84 20:-0.92 21:-0.92 22:-1 23:-0.3 24:-0.9 25:-1 26:-1 27:-1 28:-0.8 29:-0.7 30:-0.9 31:-0.9 32:-0.866667 33:-0.6 34:0.413944 35:-0.413944 36:-0.45861 37:0.45861 38:-1 39:-0.945815 40:-0.893479 41:-0.75851 42:-0.690456 43:-0.479637 44:-0.906194 45:-0.460672 46:-0.294846 47:-0.505616 48:-1 49:-0.960522 
6 1:-0.996605 2:-0.874484 3:-0.585032 4:-0.52011 5:-0.443334 6:-1 7:-0.803635 8:-1 9:-0.666 10:-1 11:-0.689656 12:-0.565518 13:-0.982758 14:-0.900712 15:-0.866995 16:-0.62069 17:-0.724138 18:-0.948276 19:-0.75862 20:-0.862068 21:-0.965518 22:-0.61081 23:-0.762162 24:-0.967568 25:-0.848648 26:-0.848648 27:-0.935136 28:-0.978378 29:-0.686486 30:-0.697298 31:-0.98919 32:-0.812613 33:-0.816216 34:0.021602 35:-0.021602 36:-0.181488 37:0.181488 38:-0.90754 39:-0.902731 40:-0.798719 41:-0.691985 42:-0.717292 43:-0.425159 44:-0.991138 45:-0.938853 46:-0.605388 47:-0.074308 48:-1 49:-0.903024 
2.066175450720342 1:-0.999205 2:-0.67501 3:-0.859414 4:-0.309696 5:-0.613388 6:-1 7:-0.982055 8:-0.582156 9:-0.7364 10:-1 11:-0.846154 12:-0.815385 13:-1 14:-0.940936 15:-0.802198 16:-1 17:-0.846154 18:-0.948718 19:-0.23077 20:-0.897436 21:-0.589744 22:-0.527272 23:-0.854546 24:-1 25:-1 26:-1 27:-1 28:-0.927272 29:-0.781818 30:-0.272728 31:-1 32:-0.951515 33:-0.672728 34:0.2818 35:-0.2818 36:-0.49456 37:0.49456 38:-0.985336 39:-0.985385 40:-0.942545 41:-0.544097 42:-0.791292 43:-0.525002 44:-1 45:-0.59273 46:-0.765934 47:0.454544 48:-1 49:-0.914825 
2.298370158694969 1:-0.99997 2:-1 3:-0.916666 4:-1 5:0.583334 6:-1 7:-1 8:-1 9:-0.666666 10:-1 11:-0.818182 12:-0.127273 13:-0.818182 14:-1 15:-1 16:-0.636364 17:-1 18:-0.818182 19:-0.636364 20:-1 21:-1 22:-0.714286 23:-0.428572 24:-1 25:-1 26:-1 27:-1 28:-1 29:-0.428572 30:-0.428572 31:-1 32:-1 33:-1 34:0.543726 35:-0.543726 36:-0.498956 37:0.498956 38:-1 39:-0.741653 40:-1 41:-0.712153 42:-0.918008 43:0.14509 44:-1 45:-0.828573 46:-0.482758 47:-0.285716 48:-1 49:-1 
5.724875900032265 1:-0.998659 2:-0.592832 3:-0.673118 4:-0.740543 5:-0.427956 6:-1 7:-0.972184 8:-1 9:-0.536918 10:-1 11:-0.735294 12:-0.541177 13:-0.970588 14:-1 15:-0.886554 16:-0.588236 17:-0.705882 18:-0.970588 19:-0.558824 20:-0.970588 21:-0.970588 22:-0.304348 23:-0.826086 24:-1 25:-0.652174 26:-0.956522 27:-1 28:-0.913044 29:-0.956522 30:-0.695652 31:-0.913044 32:-0.942029 33:-0.826086 34:0.075376 35:-0.075376 36:0.143382 37:-0.143382 38:-0.927995 39:-0.655538 40:-0.957678 41:-0.440299 42:-0.603703 43:-0.342634 44:-0.975154 45:-1 46:-0.798851 47:-0.45238 48:-0.978993 49:-0.958172 
1.499053460971395 1:-0.999205 2:-0.563526 3:-0.787586 4:-0.72187 5:-0.468964 6:-1 7:-1 8:-1 9:-0.39816 10:-1 11:-0.92 12:-0.616 13:-0.96 14:-0.95393 15:-0.742857 16:-0.68 17:-0.76 18:-1 19:-0.36 20:-0.92 21:-0.96 22:-0.235294 23:-0.882352 24:-1 25:-0.647058 26:-1 27:-1 28:-0.882352 29:-1 30:-0.647058 31:-0.882352 32:-1 33:-0.82353 34:0.005658 35:-0.005658 36:0.230426 37:-0.230426 38:-0.954777 39:-0.752115 40:-0.93355 41:-0.146324 42:-0.656704 43:-0.467289 44:-1 45:-1 46:-0.909765 47:-0.252336 48:-1 49:-0.967163 
3.443438545084567 1:-0.99794 2:-0.761086 3:-0.753226 4:-0.543276 5:-0.662308 6:-1 7:-0.721488 8:-1 9:-0.454498 10:-1 11:-0.844828 12:-0.793103 13:-1 14:-0.761707 15:-0.600986 16:-0.793104 17:-0.74138 18:-0.931034 19:-0.62069 20:-0.810344 21:-0.948276 22:-0.791304 23:-0.843478 24:-1 25:-0.756522 26:-0.826086 27:-0.982608 28:-0.965218 29:-0.86087 30:-0.669566 31:-0.930434 32:-0.768115 33:-0.547826 34:0.375816 35:-0.375816 36:-0.374606 37:0.374606 38:-0.927683 39:-0.842746 40:-0.916275 41:-0.766384 42:-0.812843 43:-0.680537 44:-0.659698 45:-0.413042 46:-0.796664 47:-0.619564 48:-0.702686 49:-0.493977 
1.073275757735209 1:-0.999937 2:-1 3:-0.291558 4:-0.557805 5:-0.134128 6:-1 7:-1 8:-1 9:-0.921284 10:-1 11:-0.428572 12:0.37143 13:-0.857142 14:-1 15:-1 16:-0.857142 17:-1 18:-1 19:-1 20:-1 21:-1 22:-1 23:-0.333334 24:-1 25:-0.555556 26:-1 27:-1 28:-1 29:-0.333334 30:-0.777778 31:-1 32:-1 33:-1 34:0.137254 35:-0.137254 36:-0.43534 37:0.43534 38:-0.585253 39:-0.586644 40:-1 41:-0.769723 42:-0.803219 43:-0.592856 44:-1 45:-1 46:-0.655173 47:-0.085716 48:-1 49:-1 
1.336591713427207 1:-0.985093 2:-0.120794 3:-0.753904 4:-0.327699 5:-0.679196 6:-1 7:-1 8:-1 9:-0.973632 10:-1 11:-0.566038 12:-0.479245 13:-0.981132 14:-0.978269 15:-0.951482 16:-0.509434 17:-0.528302 18:-0.943396 19:-0.981132 20:-1 21:-0.981132 22:-0.546012 23:-0.730062 24:-0.93865 25:-0.96319 26:-1 27:-1 28:-0.97546 29:-0.582822 30:-0.337424 31:-0.96319 32:-1 33:-0.96319 34:0.716876 35:-0.716876 36:-0.743098 37:0.743098 38:-1 39:-0.998363 40:-1 41:-0.978113 42:-0.569831 43:-0.054353 44:-0.997166 45:-0.866397 46:-0.473979 47:0.088936 48:-0.997604 49:-0.933212 
0.2782043065114282 1:-0.99975 2:-0.39837 3:-0.62826 4:-0.744417 5:-0.297826 6:-1 7:-1 8:-1 9:-0.876086 10:-1 11:-0.666666 12:-0.466667 13:-0.888888 14:-1 15:-1 16:-0.333334 17:-0.777778 18:-0.777778 19:-1 20:-1 21:-1 22:-0.90909 23:-0.90909 24:-1 25:-0.90909 26:-1 27:-1 28:-0.90909 29:-0.454546 30:-0.181818 31:-0.818182 32:-1 33:-0.90909 34:0.40378 35:-0.40378 36:-0.570222 37:0.570222 38:-0.76203 39:-0.802358 40:-1 41:-0.823831 42:-0.811821 43:-0.00717131 44:-1 45:-1 46:-0.683436 47:-0.081968 48:-1 49:-0.884802 
0.5234777408902744 1:-0.999929 2:-1 4:-1 5:-0.1 6:-1 7:-1 8:-1 9:-0.9 10:-1 11:-0.5 12:-0.4 13:-1 14:-1 15:-1 16:-1 17:-0.5 18:-0.5 19:-1 20:-1 21:-1 22:-0.75 23:-0.75 24:-0.75 25:-0.5 26:-1 27:-1 28:-1 29:-0.75 30:-0.75 31:-0.75 32:-1 33:-1 34:0.637352 35:-0.637352 36:-0.7282 37:0.7282 38:-0.916573 39:-0.750562 40:-1 41:-0.814718 42:-0.366679 43:-0.631467 44:-1 45:-1 46:-0.667063 47:-0.034484 48:-1 49:-0.878844 
1.60926475282388 1:-0.99924 2:-1 3:-0.410852 4:0.141074 5:-0.77907 6:-1 7:-1 8:-1 9:-0.705426 10:-1 11:-0.692308 12:-0.815385 13:-1 14:-1 15:-1 16:-0.538462 17:-0.384616 18:-1 19:-0.846154 20:-0.846154 21:-0.846154 22:-0.75 23:-0.625 24:-1 25:-1 26:-1 27:-1 28:-1 29:-0.625 30:-0.625 31:-0.375 32:-1 33:-1 34:0.219928 35:-0.219928 36:-0.574632 37:0.574632 38:-0.949598 39:-0.899531 40:-0.950624 41:-0.552238 42:-0.617368 43:-0.703126 44:-1 45:-1 46:-0.396551 47:-0.083332 48:-1 49:-0.926803 
5.083993040802923 1:-0.998143 2:-1 3:-0.758396 4:0.0495021 5:-0.18065 6:-1 7:-0.989274 8:-1 9:-0.894956 10:-1 11:-0.92 12:-0.16 13:-0.98 14:-1 15:-0.922857 16:-0.18 17:-0.86 18:-0.88 19:-0.94 20:-1 21:-1 22:-0.333334 23:-0.8 24:-0.95 25:-0.983334 26:-1 27:-0.983334 28:-0.883334 29:-0.75 30:-0.416666 31:-0.983334 32:-1 33:-0.916666 34:0.146714 35:-0.146714 36:-0.300956 37:0.300956 38:-0.915359 39:-0.49385 40:-1 41:-0.913842 42:-0.892908 43:-0.137936 44:-0.987832 45:-0.902042 46:-0.809993 47:0.224488 48:-1 49:-0.907809 
3.061818326406474 1:-0.999981 2:-1 3:-0.842106 4:-1 5:0.368422 6:-1 7:-1 8:-1 9:-0.526316 10:-1 11:-0.875 12:0.350001 13:-0.875 14:-1 15:-0.839286 16:-0.875 17:-1 18:-1 19:-0.625 20:-1 21:-1 23:-1 24:-1 25:-0.888888 26:-1 27:-1 28:-0.888888 29:-0.888888 30:-0.555556 31:-0.777778 32:-1 33:-1 34:0.073286 35:-0.073286 36:-0.20728 37:0.20728 38:-0.948523 39:-0.076546 40:-1 41:-0.542711 42:-1 43:-0.469416 44:-1 45:-1 46:-0.897286 47:-0.063828 48:-1 49:-1 
6 1:-0.999838 2:-1 3:-0.103448 4:-1 5:0.034482 6:-1 7:-1 8:-1 9:-0.931034 10:-1 11:-0.785714 12:-0.485713 13:-1 14:-1 15:-0.173469 16:-0.785714 17:-0.714286 18:-0.928572 19:-0.857142 20:-1 21:-1 22:-0.454546 23:-0.454546 24:-1 25:-1 26:-1 27:-1 28:-1 29:-1 30:-0.454546 31:-0.818182 32:-1 33:-0.818182 34:0.012166 35:-0.012166 36:0.285828 37:-0.285828 38:-0.753127 39:-0.655538 40:-1 41:-0.342065 42:-0.718883 43:-0.272959 44:-1 45:-0.902042 46:-0.901479 47:-0.510204 48:-1 49:-1 
1.519439146466305 1:-0.999712 2:-0.270376 3:-0.655886 4:-0.225111 5:-0.877102 6:-1 7:-1 8:-0.843652 9:-0.926262 10:-1 11:-0.642858 12:-0.485713 13:-1 14:-1 15:-0.72449 16:-0.785714 17:-0.5 18:-0.928572 19:-0.785714 20:-1 21:-1 22:-0.833334 23:-0.5 24:-1 25:-0.833334 26:-1 27:-1 28:-1 29:-0.666666 30:-0.666666 31:-0.833334 32:-1 33:-0.666666 34:0.31041 35:-0.31041 36:-0.209504 37:0.209504 38:-0.627792 39:-0.851617 40:-1 41:-0.793341 42:-0.611481 43:-0.451924 44:-1 45:-0.704618 46:-0.740054 47:-0.26154 48:-1 49:-0.891893 
6 1:-0.995288 2:-0.666426 3:-0.522982 4:-0.256034 5:-0.453304 6:-1 7:-1 8:-1 9:-0.941042 10:-1 11:-0.755656 12:-0.467874 13:-0.9819 14:-1 15:-0.953457 16:-0.402714 17:-0.58371 18:-0.809954 19:-0.97285 20:-1 21:-0.97285 22:-0.51282 23:-0.538462 24:-0.905982 25:-0.974358 26:-1 27:-0.991452 28:-0.957264 29:-0.564102 30:-0.606838 31:-0.991452 32:-1 33:-0.957264 34:0.030964 35:-0.030964 36:0.11904 37:-0.11904 38:-0.630485 39:-0.52318 40:-1 41:-0.952488 42:-0.686267 43:-0.238246 44:-0.993288 45:-0.915112 46:-0.767158 47:-0.363344 48:-1 49:-0.977405 
6 1:-0.996437 2:-0.67364 3:-0.528406 4:-0.272125 5:-0.432812 6:-1 7:-1 8:-1 9:-0.936272 10:-1 11:-0.74468 12:-0.46383 13:-0.978724 14:-1 15:-0.958968 16:-0.414894 17:-0.606382 18:-0.776596 19:-0.989362 20:-1 21:-0.968086 22:-0.574468 23:-0.56383 24:-0.925532 25:-0.968086 26:-1 27:-1 28:-0.946808 29:-0.521276 30:-0.56383 31:-0.989362 32:-1 33:-0.946808 34:0.005998 35:-0.005998 36:0.036958 37:-0.036958 38:-0.625576 39:-0.569423 40:-1 41:-0.968016 42:-0.735803 43:-0.279018 44:-0.991718 45:-0.89524 46:-0.698276 47:-0.285716 48:-1 49:-0.965142 
6 1:-0.999106 2:-0.78944 3:-0.40792 4:-0.731652 5:-0.177668 6:-1 7:-1 8:-1 9:-0.835534 10:-1 11:-0.672728 12:-0.0836364 13:-0.963636 14:-1 15:-0.953246 16:-0.636364 17:-0.527272 18:-1 19:-1 20:-1 21:-1 22:-0.612904 23:-0.354838 24:-1 25:-0.935484 26:-1 27:-1 28:-0.935484 29:-0.612904 30:-0.741936 31:-0.935484 32:-1 33:-0.870968 34:0.258318 35:-0.258318 36:-0.054902 37:0.054902 38:-0.645161 39:-0.678502 40:-1 41:-0.928357 42:-0.709199 43:-0.0499996 44:-1 45:-0.871999 46:-0.790804 47:-0.28 48:-1 49:-0.976575 
6 1:-0.999986 2:-1 3:-0.48387 4:-1 5:0.290322 6:-1 7:-1 8:-1 9:-0.806452 10:-1 11:-0.789474 12:-0.747369 13:-0.894736 14:-1 15:-1 16:0.263158 17:-1 18:-0.894736 19:-0.894736 20:-1 21:-1 23:-1 24:-1 25:-1 26:-1 27:-1 28:-1 29:-0.75 30:-0.5 31:-1 32:-1 33:-0.75 34:0.333334 35:-0.333334 36:-0.07362 37:0.07362 38:-0.853373 39:0.022949 40:-1 41:-0.755767 42:-0.721723 43:-0.568183 44:-1 45:-1 46:-0.85371 47:-0.515152 48:-1 49:-1 
2.607484184936197 1:-0.999048 2:-0.8129 3:-0.80926 4:0.192245 5:-0.389634 6:-1 7:-1 8:-1 9:-0.923704 10:-1 11:-0.83871 12:-0.516129 13:-0.98387 14:-0.981422 15:-0.834102 16:-0.403226 17:-0.758064 18:-0.693548 19:-0.870968 20:-1 21:-1 22:-0.348838 23:-0.813954 24:-0.744186 25:-1 26:-1 27:-1 28:-0.953488 29:-0.83721 30:-0.325582 31:-1 32:-1 33:-0.976744 34:0.114566 35:-0.114566 36:0.023438 37:-0.023438 38:-0.866519 39:-0.451236 40:-0.991828 41:-0.86104 42:-0.778337 43:-0.06638 44:-1 45:-0.917243 46:-0.83353 47:-0.2 48:-1 49:-0.939424 
5.453794339261973 1:-0.998201 2:-0.874666 3:-0.751448 4:0.0382513 5:-0.276278 6:-1 7:-1 8:-1 9:-0.912276 10:-1 11:-0.869566 12:-0.439129 13:-0.98913 14:-0.98748 15:-0.860248 16:-0.336956 17:-0.73913 18:-0.75 19:-0.902174 20:-1 21:-1 22:-0.445256 23:-0.722628 24:-0.810218 25:-0.970802 26:-1 27:-0.970802 28:-0.883212 29:-0.79562 30:-0.430656 31:-0.985402 32:-1 33:-0.985402 34:0.070818 35:-0.070818 36:-0.00176 37:0.00176 38:-0.855869 39:-0.440797 40:-0.994956 41:-0.885678 42:-0.789961 43:-0.166223 44:-1 45:-0.877446 46:-0.82025 47:-0.080852 48:-1 49:-0.970096 
6 1:-0.99924 2:-1 3:-0.611312 4:0.0628073 5:-0.611312 6:-1 7:-0.976653 8:-1 9:-0.634176 10:-1 11:-0.73585 12:-0.275471 13:-0.962264 14:-1 15:-0.757411 16:-0.773584 17:-0.886792 18:-0.886792 19:-0.698114 20:-0.962264 21:-0.886792 22:-0.47826 23:-0.695652 24:-0.956522 25:-0.913044 26:-0.956522 27:-1 28:-1 29:-0.652174 30:-0.73913 31:-1 32:-0.942029 33:-0.652174 34:0.336378 35:-0.336378 36:-0.177074 37:0.177074 38:-0.833669 39:-0.849298 40:-0.955561 41:-0.580224 42:-0.713026 43:0.0464835 44:-0.97391 45:-0.94 46:-0.758621 47:-0.4 48:-1 49:-0.978041 
1.167516020693618 1:-0.999619 2:-0.481016 3:-0.849456 4:-0.00787608 5:-0.548366 6:-1 7:-0.948758 8:-1 9:-0.949818 10:-1 11:-0.8 12:-0.28 13:-0.8 14:-1 15:-1 16:-0.8 17:-0.6 18:-0.8 19:-1 20:-0.8 21:-1 22:-0.333334 23:-0.733334 24:-1 25:-1 26:-1 27:-1 28:-1 29:-0.866666 30:-0.066666 31:-1 32:-1 33:-1 34:0.184182 35:-0.184182 36:-0.153602 37:0.153602 38:-0.948523 39:-0.589576 40:-1 41:-0.942838 42:-0.70692 43:-0.242022 44:-0.911182 45:-0.795746 46:-0.691855 47:0.021276 48:-1 49:-1 
2.458435497454457 1:-0.999775 2:-1 3:-0.76345 4:-0.173791 5:-0.020008 6:-1 7:-1 8:-1 9:-0.864828 10:-1 11:-0.67742 12:-0.225805 13:-1 14:-1 15:-1 16:-0.354838 17:-0.806452 18:-0.870968 19:-0.935484 20:-1 21:-1 22:-0.25 23:-1 24:-0.75 25:-1 26:-1 27:-1 28:-1 29:-1 31:-1 32:-1 33:-1 34:0.468996 35:-0.468996 36:-0.38044 37:0.38044 38:-0.869224 39:-0.478651 40:-1 41:-0.963694 42:-0.813855 43:-0.085304 44:-1 45:-0.935133 46:-0.771667 47:0.08108 48:-1 49:-1 
6 1:-0.999676 2:-1 3:-0.688142 4:-0.199874 5:-0.064424 6:-1 7:-1 8:-1 9:-0.875256 10:-1 11:-0.69697 12:-0.272728 13:-1 14:-1 15:-1 16:-0.272728 17:-0.818182 18:-0.878788 19:-0.939394 20:-1 21:-1 22:-0.285714 23:-0.714286 24:-0.857142 25:-1 26:-1 27:-1 28:-0.857142 29:-0.785714 30:-0.5 31:-1 32:-1 33:-1 34:0.39223 35:-0.39223 36:-0.39103 37:0.39103 38:-0.891265 39:-0.295593 40:-1 41:-0.969814 42:-0.845227 43:-0.159411 44:-1 45:-0.946067 46:-0.701665 47:-0.146068 48:-1 49:-1 
5.240830082382718 1:-0.999317 2:-0.785544 3:-0.727142 4:0.0932538 5:-0.508856 6:-1 7:-0.944275 8:-1 9:-0.890856 10:-1 11:-0.793104 12:-0.462069 13:-0.965518 14:-1 15:-0.512316 16:-0.724138 17:-0.793104 18:-0.793104 19:-0.931034 20:-0.965518 21:-0.862068 22:-0.69697 23:-0.818182 24:-0.878788 25:-0.757576 26:-1 27:-1 28:-1 29:-0.69697 30:-0.515152 31:-1 32:-0.838384 33:-0.757576 34:0.437946 35:-0.437946 36:-0.326824 37:0.326824 38:-0.984973 39:-0.77535 40:-0.955836 41:-0.599519 42:-0.68629 43:-0.0927817 44:-1 45:-0.940374 46:-0.625186 47:-0.329192 48:-1 49:-0.978178 
4.461335737649109 1:-0.992778 2:-0.24563 3:-0.799782 4:0.0488037 5:-0.812494 6:-1 7:-1 8:-1 9:-0.965042 10:-1 11:-0.739584 12:-0.4 13:-0.989584 14:-1 15:-0.866072 16:-0.53125 17:-0.552084 18:-0.90625 19:-0.96875 20:-1 21:-0.916666 22:-0.62963 23:-0.511112 24:-0.925926 25:-0.985186 26:-1 27:-1 28:-0.94074 29:-0.511112 30:-0.674074 31:-0.955556 32:-1 33:-0.866666 34:0.656348 35:-0.656348 36:-0.618134 37:0.618134 38:-0.990511 39:-0.965329 40:-0.996902 41:-0.90518 42:-0.657881 43:0.224754 44:-1 45:-0.868235 46:-0.529863 47:-0.184312 48:-0.990774 49:-0.917331 
0.1093953655940526 1:-0.999344 2:-0.728262 3:-0.743598 4:-0.134212 5:-0.580432 6:-1 7:-0.857189 8:-1 9:-0.766906 10:-1 11:-0.7 12:-0.76 13:-1 14:-1 15:-0.807143 16:-0.6 17:-0.8 18:-0.95 19:-0.65 20:-0.75 21:-0.9 22:-0.636364 23:-0.636364 24:-0.954546 25:-0.818182 26:-0.863636 27:-1 28:-1 29:-0.681818 30:-0.636364 31:-0.863636 32:-0.878787 33:-1 34:0.18027 35:-0.18027 36:-0.284032 37:0.284032 38:-0.981245 39:-0.925232 40:-0.816274 41:-0.604303 42:-0.590672 43:-0.392441 44:-1 45:-0.96279 46:-0.588344 47:-0.162792 48:-1 49:-1 
5.282904519030557 1:-0.999117 2:-0.751522 3:-0.74665 4:-0.208321 5:-0.239952 6:-1 7:-1 8:-1 9:-0.88307 10:-1 11:-0.8 12:-0.52 13:-1 14:-1 15:-0.828571 16:-0.166666 17:-0.833334 18:-0.8 19:-0.966666 20:-1 21:-0.966666 22:-0.381818 23:-0.672728 24:-0.963636 25:-1 26:-1 27:-1 28:-1 29:-0.672728 30:-0.454546 31:-0.927272 32:-1 33:-0.927272 34:0.04314 35:-0.04314 36:-0.063668 37:0.063668 38:-0.770229 39:-0.56894 40:-1 41:-0.909946 42:-0.794791 43:-0.164106 44:-1 45:-0.919552 46:-0.811212 47:-0.01676 48:-1 49:-0.901857 
2.468977710529344 1:-0.998165 2:-0.747796 3:-0.73783 4:-1 5:-0.7087 6:-1 7:-0.791782 8:-1 9:-0.009582 10:-1 11:-0.873684 12:-0.671579 13:-1 14:-0.781773 15:-0.269172 16:-0.852632 17:-0.852632 18:-0.978948 19:-0.810526 20:-0.810526 21:-0.852632 22:-0.939394 23:-1 24:-1 25:-0.878788 26:-0.69697 27:-1 28:-0.878788 29:-0.454546 30:-0.939394 31:-0.878788 32:-0.757576 33:-0.515152 34:0.803982 35:-0.803982 36:-0.664934 37:0.664934 38:-1 39:-0.901031 40:-0.991157 41:-0.919803 42:-0.794407 43:-0.4417 44:-0.704054 45:0.61194 46:-0.846886 47:-0.910448 48:-0.604918 49:-0.737797 
0.2786187751909671 1:-0.999265 2:-0.612534 3:-0.914178 4:0.316812 5:-0.721082 6:-1 7:-1 8:-1 9:-0.785448 10:-1 11:-0.804878 12:-0.356097 13:-0.853658 14:-1 15:-0.811846 16:-0.609756 17:-0.90244 18:-0.804878 19:-0.90244 20:-1 21:-0.804878 22:-0.733334 23:-0.866666 24:-1 25:-1 26:-1 27:-1 28:-1 29:-0.8 30:-0.533334 31:-0.733334 32:-1 33:-0.333334 34:0.53219 35:-0.53219 36:-0.457254 37:0.457254 38:-0.9811 39:-0.868134 40:-1 41:-0.706157 42:-0.838578 43:0.224608 44:-1 45:-0.85 46:-0.811422 47:-0.25 48:-1 49:-0.588259 
6 1:-0.999227 2:-1 3:-0.64135 4:-0.650801 5:-0.39478 6:-1 7:-0.862665 8:-1 9:-0.372364 10:-1 11:-0.821428 12:-0.657143 13:-1 14:-0.958866 15:-0.448979 16:-0.642858 17:-0.892858 18:-0.857142 19:-0.75 20:-0.928572 21:-0.857142 22:-0.887324 23:-0.915492 24:-1 25:-0.69014 26:-0.97183 27:-1 28:-0.943662 29:-0.746478 30:-0.71831 31:-0.887324 32:-0.849765 33:-0.352112 34:0.042084 35:-0.042084 36:-0.199366 37:0.199366 38:-0.941277 39:-0.871245 40:-0.919462 41:-0.360962 42:-0.788252 43:-0.429309 44:-1 45:-0.883494 46:-0.847673 47:-0.475728 48:-0.965733 49:-0.403044 
0.1017999906313321 1:-0.999273 2:-0.578948 3:-0.918128 4:0.609828 5:-0.847954 6:-1 7:-1 8:-1 9:-0.918128 10:-1 11:-0.756098 12:-0.531707 13:-0.90244 14:-1 15:-1 16:-0.414634 17:-0.609756 18:-0.90244 19:-0.804878 20:-1 21:-1 22:-0.375 23:-0.75 24:-0.875 25:-0.9375 26:-1 27:-1 28:-1 29:-0.9375 30:-0.5625 31:-0.8125 32:-1 33:-0.75 34:0.713572 35:-0.713572 36:-0.622144 37:0.622144 38:-0.894811 39:-0.947582 40:-1 41:-0.746917 42:-0.634005 43:0.0326075 44:-0.969753 45:-0.930434 46:-0.72014 47:-0.15942 48:-0.974426 49:-0.872698 
6 1:-0.983626 2:-0.579526 3:-0.876368 4:-0.464128 5:-0.772054 6:-1 7:-0.731732 8:-1 9:-0.455246 10:-1 11:-0.797752 12:-0.656181 13:-0.983146 14:-0.935295 15:-0.638846 16:-0.713484 17:-0.825842 18:-0.898876 19:-0.646068 20:-0.865168 21:-0.893258 22:-0.709876 23:-0.80247 24:-0.975308 25:-0.62963 26:-0.82716 27:-0.987654 28:-0.975308 29:-0.82716 30:-0.641976 31:-0.938272 32:-0.860083 33:-0.790124 34:-0.147124 35:0.147124 36:0.080752 37:-0.080752 38:-0.964448 39:-0.955245 40:-0.713135 41:-0.372512 42:-0.768291 43:-0.446203 44:-0.995158 45:-0.862643 46:-0.657439 47:-0.33488 48:-0.995906 49:-0.941577 
3.580172972436965 1:-0.998744 2:-0.822276 3:-0.82887 4:-0.547 5:-0.168798 6:-1 7:-0.975035 8:-1 9:-0.559952 10:-1 11:-0.818182 12:-0.781818 13:-1 14:-1 15:-0.64935 16:-0.636364 17:-0.863636 18:-0.863636 19:-0.40909 20:-0.90909 21:-0.954546 22:-0.388888 23:-0.888888 24:-1 25:-0.944444 26:-1 27:-0.972222 28:-0.944444 29:-0.833334 30:-0.305556 31:-0.916666 32:-1 33:-0.805556 34:-0.090006 35:0.090006 36:-0.275534 37:0.275534 38:-0.933898 39:-0.710123 40:-0.974097 41:-0.530219 42:-0.76164 43:-0.610655 44:-1 45:-1 46:-0.828529 47:0.442624 48:-1 49:-0.923202 
0.4075934407312446 1:-0.999227 2:-0.79046 3:-0.897146 4:-0.465902 5:-0.38288 6:-1 7:-0.964992 8:-1 9:-0.38288 10:-1 11:-0.928572 12:-0.82857 13:-1 14:-1 15:-0.816325 16:-0.642858 17:-0.785714 18:-0.785714 19:-0.285714 20:-0.928572 21:-0.928572 22:-0.574468 23:-0.829788 24:-1 25:-0.787234 26:-1 27:-1 28:-0.957446 29:-0.87234 30:-0.574468 31:-0.87234 32:-0.943261 33:-0.574468 34:-0.106386 35:0.106386 36:-0.243056 37:0.243056 38:-0.957555 39:-0.873092 40:-0.958419 41:-0.269441 42:-0.818754 43:-0.46875 44:-1 45:-1 46:-0.851783 47:0.298244 48:-1 49:-0.907538 
1.875717797992871 1:-0.999649 2:-0.741796 3:-0.97468 4:0.316269 5:-0.59487 6:-1 7:-0.948288 8:-1 9:-0.772114 10:-1 11:-0.76 12:-0.232 13:-1 14:-1 15:-0.794286 16:-0.76 17:-0.84 18:-0.92 19:-0.76 20:-1 21:-0.76 22:-0.931034 23:-0.724138 24:-1 25:-0.724138 26:-1 27:-1 28:-0.862068 29:-0.931034 30:-0.448276 31:-0.793104 32:-0.724139 33:-0.793104 34:0.20428 35:-0.20428 36:-0.277704 37:0.277704 38:-1 39:-0.67489 40:-0.920109 41:-0.577395 42:-0.819432 43:-0.119383 44:-1 45:-0.946067 46:-0.728786 47:-0.235956 48:-1 49:-0.881567 
6 1:-0.999534 2:-1 3:0.723404 4:-1 5:-0.957446 6:-1 7:-0.913096 8:-1 9:-0.851064 10:-1 11:-0.283018 12:-0.773584 13:-0.943396 14:-1 15:-0.830188 16:-0.962264 17:-0.132076 18:-1 19:-1 20:-1 21:-1 22:-0.977528 23:-0.213484 24:-1 25:-0.977528 26:-1 27:-0.977528 28:-1 29:-0.123596 30:-0.977528 31:-0.842696 32:-0.880149 33:-1 34:0.1759 35:-0.1759 36:-0.209812 37:0.209812 38:-0.308757 39:-0.983196 40:-1 41:-0.887669 42:-0.488046 43:-0.776567 44:-0.956365 45:-0.8662 46:-0.386039 47:-0.986064 48:-0.790942 49:-0.914305 
0.2285326999518355 1:-0.999265 2:-0.620508 3:-0.04616 4:-1 5:-1 6:-0.672102 7:-0.791288 8:-1 9:-0.727474 10:-1 11:-0.454546 12:-1 13:-0.818182 14:-1 15:-0.64935 16:-1 17:-0.363636 18:-1 19:-1 20:-0.727272 21:-0.90909 22:-1 23:-0.181818 24:-1 25:-0.90909 26:-1 27:-1 28:-1 29:-0.363636 30:-1 31:-0.636364 32:-0.878787 33:-1 34:0.48367 35:-0.48367 36:-0.597966 37:0.597966 38:-0.968166 39:-1 40:-0.875258 41:-0.575804 42:-0.305221 43:-1 44:-1 45:-1 46:0.143376 47:-1 48:-1 49:-1 
6 1:-0.99554 2:-0.841178 3:0.111342 4:-1 5:-0.966826 6:-1 7:-0.356369 8:-1 9:-0.933652 10:-1 11:-0.435898 12:-0.984616 13:-1 14:-0.571786 15:-0.967032 16:-1 17:-0.5 18:-0.98718 19:-0.974358 20:-0.525642 21:-0.98718 22:-1 23:-0.388236 24:-1 25:-0.97647 26:-0.811764 27:-0.97647 28:-1 29:-0.247058 30:-0.97647 31:-1 32:-0.529411 33:-0.97647 34:0.363872 35:-0.363872 36:-0.232502 37:0.232502 38:-0.982123 39:-1 40:-0.73147 41:-0.973532 42:-0.0217457 43:-0.982451 44:-0.773804 45:-0.976355 46:-0.31629 47:-0.901476 48:-0.808752 49:-0.939424 
2.499317692862136 1:-0.999756 2:-0.699044 3:-0.522292 4:-1 5:-1 6:-1 7:-1 8:0.160827 9:-0.681528 10:-1 11:-1 12:-0.76 13:-1 14:-1 15:-0.485714 16:-1 17:-0.6 18:-1 19:-0.4 20:-0.8 21:-0.8 22:-1 23:0.111112 24:-1 25:-1 26:-1 27:-0.777778 28:-1 29:-0.555556 30:-1 31:-0.777778 32:-1 33:-1 34:0.584878 35:-0.584878 36:-0.65904 37:0.65904 38:-0.827188 39:-1 40:-0.915355 41:-0.520257 42:-0.918008 43:-0.872769 44:-1 45:-0.314287 46:0.206897 47:-1 48:-1 49:-1 
6 1:-0.997315 2:-1 3:0.441372 4:-0.685237 5:-0.727308 6:-1 7:-1 8:-1 9:-0.961044 10:-1 11:-0.28395 12:-0.822222 13:-0.975308 14:-1 15:-0.904762 16:-0.82716 17:-0.25926 18:-0.925926 19:-0.950618 20:-1 21:-1 22:-0.938776 23:-0.163266 24:-0.979592 25:-1 26:-1 27:-1 28:-1 29:-0.081632 30:-0.836734 31:-1 32:-1 33:-1 34:0.31226 35:-0.31226 36:-0.360004 37:0.360004 38:-0.560118 39:-0.913885 40:-1 41:-0.956386 42:-0.306791 43:-0.872769 44:-0.972892 45:-0.922077 46:-0.224136 47:-0.766232 48:-1 49:-0.90874 
1.527571829098091 1:-0.999761 2:-0.609958 3:-0.377594 4:-1 5:-1 6:-1 7:-1 8:0.00296228 9:-0.792532 10:-1 11:-0.5 12:-0.800001 13:-1 14:-1 15:-0.571428 16:-1 17:-0.833334 18:-0.666666 19:-0.666666 20:-1 21:-0.833334 22:-1 23:-0.826086 24:-1 25:-0.826086 26:-1 27:-1 28:-1 29:-0.826086 30:-0.47826 31:-0.826086 32:-1 33:-0.217392 34:-0.066112 35:0.066112 36:0.23123 37:-0.23123 38:-1 39:-0.574486 40:-1 41:-0.157156 42:-0.549846 43:-0.79044 44:-1 45:-1 46:-0.668695 47:-1 48:-0.792386 49:-0.793321 
2.012251096663022 1:-0.999597 2:-0.39654 3:-0.238754 4:-1 5:-0.930796 6:-1 7:-1 8:-0.806029 9:-0.584776 10:-1 11:-0.7 12:-0.88 13:-0.7 14:-1 15:-0.742857 16:-1 17:-0.2 18:-1 19:-1 20:-0.9 21:-0.8 22:-1 23:-0.166666 24:-1 25:-0.916666 26:-1 27:-1 28:-1 29:-0.5 30:-0.916666 31:-0.5 32:-1 33:-1 34:0.533272 35:-0.533272 36:-0.673084 37:0.673084 38:-0.920677 39:-1 40:-0.961147 41:-0.383411 42:-0.510733 43:-0.9416 44:-1 45:-1 46:0.147542 47:-0.934428 48:-1 49:-1 
6 1:-0.999268 2:-0.400862 3:-0.030172 4:-1 5:-1 6:-1 7:-0.669894 8:-1 9:-0.892242 10:-1 11:-0.454546 12:-0.927273 13:-0.818182 14:-0.930197 15:-0.922078 16:-1 17:-0.272728 18:-1 19:-1 20:-0.636364 21:-1 22:-1 23:-0.36 24:-1 25:-1 26:-0.68 27:-0.92 28:-1 29:-0.2 30:-1 31:-0.84 32:-1 33:-1 34:0.477752 35:-0.477752 36:-0.451226 37:0.451226 38:-0.976738 39:-0.976816 40:-0.749319 41:-0.819172 42:-0.139079 43:-0.965747 44:-1 45:-1 46:-0.00198776 47:-0.96154 48:-1 49:-1 
6 1:-0.999213 2:-0.326054 3:0.170046 4:-1 5:-0.921996 6:-1 7:-1 8:-1 9:-0.921996 10:-1 12:-1 13:-1 14:-1 15:-1 16:-1 17:-0.1 18:-1 19:-1 20:-0.9 21:-1 22:-1 23:-0.2 24:-1 25:-1 26:-1 27:-1 28:-1 29:0.066666 30:-1 31:-0.866666 32:-1 33:-1 34:0.71013 35:-0.71013 36:-0.647266 37:0.647266 38:-0.753964 39:-1 40:-0.95983 41:-0.954465 42:-0.0272074 43:-0.939619 44:-1 45:-1 46:0.0227947 47:-1 48:-1 49:-1 
2.698687814654702 1:-0.999213 2:-0.611336 3:0.079622 4:-0.752334 5:-1 6:-1 7:-0.862197 8:-1 9:-0.79757 10:-1 11:-0.36 12:-1 13:-0.68 14:-1 15:-0.897143 16:-1 17:-0.44 18:-0.92 19:-1 20:-0.76 21:-0.92 22:-1 23:-0.368422 24:-1 25:-0.894736 26:-0.789474 27:-1 28:-1 29:-0.157894 30:-1 31:-0.789474 32:-1 33:-1 34:0.623674 35:-0.623674 36:-0.56538 37:0.56538 38:-0.948523 39:-0.974349 40:-0.873933 41:-0.714195 42:0.00135452 43:-1 44:-1 45:-1 46:-0.126926 47:-1 48:-1 49:-0.962623 
2.974879873896211 1:-0.999295 2:-0.553556 3:-0.018806 4:-1 5:-0.836468 6:-1 7:-1 8:-1 9:-0.59117 10:-1 11:-0.833334 12:-0.2 13:-0.833334 14:-1 15:-0.785715 16:-0.833334 17:-0.5 18:-1 19:-0.833334 20:-1 21:-1 22:-1 23:-0.363636 24:-1 25:-1 26:-1 27:-1 28:-1 29:-0.09091 30:-1 31:-0.90909 32:-1 33:-0.636364 34:0.42196 35:-0.42196 36:-0.638446 37:0.638446 38:-0.833147 39:-0.916853 40:-1 41:-0.675758 42:-0.525008 43:-0.692888 44:-1 45:-0.917243 46:0.0820461 47:-1 48:-1 49:-0.939424 
3.599589354178888 1:-0.994057 2:-0.478556 3:0.167728 4:-1 5:-0.85138 6:-0.774726 7:-0.98916 8:-1 9:-0.978768 10:-1 11:-0.154472 12:-0.941464 13:-0.98374 14:-0.981273 15:-0.979094 16:-0.98374 17:-0.05691 18:-0.96748 19:-0.98374 20:-0.95122 21:-1 22:-0.956834 23:-0.223022 24:-0.942446 25:-1 26:-0.985612 27:-0.942446 28:-1 29:-0.122302 30:-0.841726 31:-1 32:-1 33:-0.985612 34:0.61946 35:-0.61946 36:-0.70977 37:0.70977 38:-0.982501 39:-0.99564 40:-1 41:-1 42:-0.136485 43:-0.94202 44:-0.932062 45:-0.965282 46:0.226538 47:-0.8264 48:-0.961706 49:-0.955526 
1.307664276117269 1:-0.999281 2:-0.599418 3:-0.272992 4:-1 5:-1 6:-1 7:-0.406106 8:-1 9:-0.709196 10:-1 12:-1 13:-0.833334 14:-1 15:-0.785715 16:-1 17:-0.333334 18:-1 19:-1 20:-1 21:-1 22:-1 23:-0.111112 24:-1 25:-1 26:-1 27:-1 28:-1 29:-0.666666 30:-1 31:-1 32:-0.259259 33:-0.777778 34:0.668628 35:-0.668628 36:-0.717296 37:0.717296 38:-0.953473 39:-1 40:-1 41:-0.793341 42:-0.0287043 43:-1 44:-1 45:-1 46:-0.164455 47:-1 48:-0.524889 49:-1 
3.128841550577198 1:-0.940335 2:0.498666 3:-0.762042 4:-0.681671 5:-0.993202 6:-1 7:-1 8:-1 9:-0.993202 10:-1 11:-0.104478 12:-0.982089 13:-0.97015 14:-0.982809 15:-0.961621 16:-1 17:-0.02985 18:-0.955224 19:-1 20:-1 21:-1 22:-1 23:0.019608 24:-1 25:-1 26:-1 27:-0.980392 28:-1 29:-0.117648 30:-0.980392 31:-1 32:-1 33:-0.941176 34:0.537274 35:-0.537274 36:-0.560726 37:0.560726 38:-0.993652 39:-0.998946 40:-1 41:-0.997649 42:-0.0885096 43:-0.92523 44:-0.776404 45:-0.954875 46:0.143043 47:-0.92654 48:-0.956016 49:-0.96236 
6 1:-0.999205 2:-0.441592 3:-0.083786 4:-0.822085 5:-0.951778 6:-1 7:-0.803037 8:-1 9:-0.855334 10:-1 11:-0.44186 12:-0.888371 13:-0.813954 14:-0.94643 15:-0.940199 16:-0.953488 17:-0.534884 18:-1 19:-0.906976 20:-0.767442 21:-0.767442 22:-1 23:-0.538462 24:-0.923076 25:-1 26:-0.76923 27:-0.923076 28:-1 29:-0.23077 30:-0.923076 31:-1 32:-0.692307 33:-0.923076 34:0.465248 35:-0.465248 36:-0.26186 37:0.26186 38:-0.958644 39:-0.979391 40:-0.736658 41:-0.678531 42:-0.0973828 43:-0.878205 44:-1 45:-0.958974 46:-0.339818 47:-0.863248 48:-1 49:-1 
6 1:-0.999882 2:-0.06391 3:-0.62406 4:-1 5:-0.81203 6:-0.730391 7:-0.808059 8:-0.799408 9:-1 10:-1 11:-0.285714 12:-0.82857 13:-1 14:-1 15:-1 16:-1 17:-0.285714 18:-1 19:-1 20:-0.714286 21:-0.857142 22:-1 23:-0.636364 24:-0.272728 25:-1 26:-1 27:-1 28:-1 29:-0.636364 30:-0.636364 31:-1 32:-0.757576 33:-1 34:0.337768 35:-0.337768 36:-0.436668 37:0.436668 38:-0.637097 39:-0.939719 40:-0.822244 41:-0.932836 42:-0.483447 43:-0.910938 44:-1 45:-1 46:-0.336207 47:-0.2 48:-1 49:-1 
2.291797758936803 1:-0.999172 2:-0.78038 3:-0.033816 4:-0.720106 5:-0.479748 6:-1 7:-1 8:-1 9:-0.925678 10:-1 11:-0.9 12:-0.52 13:-0.3 14:-1 15:-1 16:-1 17:-0.8 18:-0.5 19:-0.9 20:-1 21:-1 22:-0.928572 23:-0.357142 24:-0.928572 25:-1 26:-1 27:-1 28:-1 29:-0.285714 30:-0.785714 31:-0.785714 32:-0.904763 33:-1 34:0.587886 35:-0.587886 36:-0.73633 37:0.73633 38:-1 39:-0.968685 40:-0.96922 41:-0.720876 42:-0.642215 43:-0.583605 44:-1 45:-0.812987 46:0.222572 47:-0.792208 48:-1 49:-1 
0.4810862071913349 1:-0.994117 2:-0.501604 3:-0.099038 4:-1 5:-0.918094 6:-1 7:-0.609699 8:-1 9:-0.86349 10:-1 11:-0.344538 12:-1 13:-0.966386 14:-0.632214 15:-0.978392 16:-1 17:-0.478992 18:-1 19:-1 20:-0.579832 21:-0.966386 22:-0.961904 23:-0.238096 24:-0.84762 25:-1 26:-0.980952 27:-1 28:-1 29:-0.27619 30:-0.885714 31:-0.885714 32:-0.898413 33:-1 34:0.674134 35:-0.674134 36:-0.703096 37:0.703096 38:-0.97967 39:-1 40:-0.925312 41:-0.932272 42:-0.406761 43:-0.98503 44:-0.307198 45:-0.939496 46:0.0294133 47:-0.739496 48:-1 49:-0.992618 
2.436976515942757 1:-0.999997 2:-0.731482 3:-0.25926 4:-1 5:-1 6:-1 7:-1 8:0.0357146 9:-0.814814 10:-1 11:-0.8 12:-1 13:-0.6 14:-1 15:-0.485714 16:-1 17:-0.8 18:-1 19:-0.2 20:-1 21:-1 22:-1 23:-1 24:-1 26:-1 27:-1 28:-1 30:-1 31:-1 32:-1 33:-1 34:1 35:-1 36:-1 37:1 38:-1 39:-1 40:-1 41:0.221166 42:-0.582584 43:-1 44:-1 45:-1 46:-0.122257 47:-1 48:-1 49:-1 
0.2125788645433564 1:-0.999238 2:-0.803364 3:0.040402 4:-1 5:-0.86128 6:-1 7:-1 8:-1 9:-0.375758 10:-1 11:-0.357142 12:-1 13:-0.785714 14:-0.835463 15:-0.908164 16:-0.785714 17:-0.571428 18:-0.928572 19:-0.785714 20:-1 21:-1 22:-0.857142 23:-0.285714 24:-1 25:-0.928572 26:-1 27:-0.928572 28:-1 29:-0.5 30:-1 31:-0.857142 32:-1 33:-0.642858 34:0.47789 35:-0.47789 36:-0.309398 37:0.309398 38:-0.777814 39:-0.852374 40:-0.951631 41:-0.561377 42:-0.0160912 43:-1 44:-1 45:-1 46:-0.433497 47:-1 48:-1 49:-1 
1.614522457148069 1:-0.999196 2:-0.817612 3:0.50423 4:-1 5:-1 6:-1 7:-0.808 8:-1 9:-0.874648 10:-1 11:-0.533334 12:-0.839999 13:-0.933334 14:-1 15:-0.657144 16:-1 17:-0.266666 18:-1 19:-0.8 20:-0.866666 21:-1 22:-1 23:-0.2 24:-1 25:-0.933334 26:-1 27:-1 28:-1 29:-0.133334 30:-1 31:-0.933334 32:-0.822221 33:-0.933334 34:0.351508 35:-0.351508 36:-0.52414 37:0.52414 38:-0.823588 39:-0.949767 40:-0.876559 41:-0.692165 42:-0.378224 43:-1 44:-1 45:-0.949998 46:0.0308905 47:-0.958332 48:-1 49:-0.926803 
6 1:-0.999929 2:-1 3:-0.605912 4:-1 5:-1 6:-1 7:-1 8:-0.20197 9:-0.014778 10:-1 11:-0.692308 12:-0.815385 13:-0.692308 14:-1 15:-0.604396 16:-1 17:-0.846154 18:-1 19:-0.384616 20:-1 21:-0.846154 22:-1 23:-0.333334 24:-1 25:-0.666666 26:-1 27:-1 28:-1 29:-0.666666 30:-1 31:-0.333334 32:-1 33:-1 34:1 35:-1 36:-1 37:1 38:-1 39:-0.90355 40:-1 41:0.289553 42:-0.265347 43:-1 44:-1 45:-1 46:-0.613793 47:-1 48:-1 49:-1 
0.7691127553457963 1:-0.999838 2:-0.800916 3:-0.199084 4:-1 5:-0.885584 6:-1 7:-1 8:-0.744035 9:-0.313502 10:-1 11:-0.75 12:-0.7 13:-1 14:-1 15:-1 16:-0.75 17:-0.5 18:-1 19:-0.25 20:-1 21:-1 22:-1 23:-0.647058 24:-1 25:-0.529412 26:-1 27:-1 28:-1 29:-0.411764 30:-1 31:-0.411764 32:-1 33:-1 34:0.434944 35:-0.434944 36:-0.708566 37:0.708566 38:-0.706745 39:-1 40:-1 41:-0.104478 42:-0.860861 43:-0.568183 44:-1 45:-0.854546 46:-0.195403 47:-1 48:-1 49:-1 
6 1:-0.999712 2:-1 3:0.809524 4:-1 5:-1 6:-1 7:-1 8:-1 9:-0.809524 10:-1 11:-0.217392 12:-1 13:-0.913044 14:-1 15:-1 16:-1 17:0.130434 18:-1 19:-1 20:-1 21:-1 22:-1 23:0.125 24:-1 25:-1 26:-1 27:-1 28:-1 29:-0.375 30:-1 31:-0.875 32:-1 33:-0.875 34:-0.18618 35:0.18618 36:0.016782 37:-0.016782 38:0.209677 39:-1 40:-1 41:-0.82479 42:-0.550824 43:-1 44:-1 45:-1 46:-0.475263 47:-0.913044 48:-1 49:-1 
1.893008616660067 1:-0.999767 2:-0.226874 3:-0.586564 4:-1 5:-1 6:-1 7:-1 8:-0.751495 9:-0.379844 10:-1 11:-0.333334 12:-1 13:-0.5 14:-1 15:-1 16:-1 17:-0.333334 18:-1 19:-0.833334 20:-1 21:-1 22:-1 23:-0.571428 24:-1 25:-0.571428 26:-1 27:-1 28:-1 29:-0.714286 30:-1 31:-0.428572 32:-1 33:-0.714286 34:0.43095 35:-0.43095 36:-0.399426 37:0.399426 38:-1 39:-1 40:-1 41:-0.168442 42:-0.125414 43:-1 44:-1 45:-0.885712 46:-0.310345 47:-1 48:-1 49:-1 
6 1:-0.998859 2:-0.693812 3:-0.001086 4:-1 5:-0.782844 6:-1 7:-0.822606 8:-1 9:-0.695982 10:-1 11:-0.333334 12:-1 13:-0.955556 14:-0.744056 15:-0.942858 16:-1 17:-0.244444 18:-0.866666 19:-1 20:-0.911112 21:-0.955556 22:-0.944444 23:-0.277778 24:-1 25:-1 26:-0.888888 27:-1 28:-1 29:-0.555556 30:-0.944444 31:-0.888888 32:-0.629629 33:-0.777778 34:0.148164 35:-0.148164 36:-0.26256 37:0.26256 38:-0.747983 39:-0.916277 40:-0.769576 41:-0.832089 42:-0.36228 43:-0.851561 44:-1 45:-1 46:-0.111589 47:-0.944444 48:-1 49:-1 
1.35706775625453 1:-0.999238 2:-0.641932 3:-0.305336 4:-1 5:-0.747396 6:-1 7:-0.742059 8:-1 9:-0.557942 10:-1 11:-0.612904 12:-1 13:-0.935484 14:-0.628468 15:-0.917051 16:-1 17:-0.548388 18:-0.806452 19:-0.935484 20:-0.612904 21:-0.935484 22:-0.925926 23:-0.111112 24:-1 25:-1 26:-0.851852 27:-1 28:-1 29:-0.62963 30:-0.925926 31:-0.851852 32:-0.901235 33:-0.777778 34:0.123652 35:-0.123652 36:-0.152148 37:0.152148 38:-0.921107 39:-0.895164 40:-0.639336 41:-0.737184 42:-0.326236 43:-0.961276 44:-1 45:-1 46:-0.107946 47:-1 48:-1 49:-1 
6 1:-0.999989 2:-1 3:0.053094 4:-0.672301 5:-0.824484 6:-1 7:-1 8:-0.338809 9:-1 10:-1 11:-0.384616 12:-1 13:-1 14:-1 15:-0.802198 16:-1 17:-0.23077 18:-0.846154 19:-1 20:-1 21:-0.692308 22:-1 24:-1 25:-1 26:-1 27:-1 28:-1 30:-1 31:-1 32:-1 33:-1 34:0.266498 35:-0.266498 36:-0.165946 37:0.165946 38:-0.0783423 39:-0.885179 40:-1 41:-0.616205 42:-0.67203 43:-1 44:-1 45:-1 46:-0.310345 47:-1 48:-1 49:-1 
3.903556594318187 1:-0.999704 2:-0.734802 3:0.336006 4:-1 5:-1 6:-1 7:-1 8:-0.659031 9:-0.8664 10:-1 11:0.23077 12:-1 13:-1 14:-1 15:-1 16:-1 17:-0.384616 18:-1 19:-0.846154 20:-1 21:-1 22:-1 23:-0.384616 24:-1 25:-0.846154 26:-1 27:-1 28:-1 29:0.076924 30:-1 31:-0.846154 32:-1 33:-1 34:0.411188 35:-0.411188 36:-0.53989 37:0.53989 38:-0.527931 39:-1 40:-1 41:-0.803421 42:-0.160076 43:-1 44:-1 45:-1 46:-0.116904 47:-1 48:-1 49:-1 
0.6276995113234199 1:-0.99994 2:-0.762776 3:0.067888 4:-1 5:-1 6:-1 7:-1 8:-0.694998 9:-0.542334 10:-1 11:-0.636364 12:-1 13:-1 14:-1 15:-0.766234 16:-1 17:-0.09091 18:-1 19:-0.454546 20:-1 21:-1 22:-1 23:-0.25 24:-1 25:-0.75 26:-1 27:-1 28:-1 29:-0.25 30:-1 31:-1 32:-1 33:-0.75 34:0.349096 35:-0.349096 36:-0.453272 37:0.453272 38:-0.120236 39:-1 40:-1 41:-0.2673 42:-0.582584 43:-1 44:-1 45:-1 46:-0.561129 47:-1 48:-1 49:-1 
6 1:-0.99686 2:-0.460294 3:0.339856 4:-1 5:-0.909672 6:-1 7:-0.984628 8:-1 9:-0.984946 10:-1 11:-0.078124 12:-0.943749 13:-1 14:-1 15:-0.899555 16:-0.96875 17:-0.09375 18:-0.984376 19:-1 20:-1 21:-1 22:-0.947368 23:-0.052632 24:-1 25:-1 26:-1 27:-1 28:-1 29:-0.078948 30:-0.973684 31:-0.973684 32:-0.964912 33:-1 34:0.262144 35:-0.262144 36:-0.196926 37:0.196926 38:-0.411911 39:-0.992581 40:-0.992707 41:-0.9752 42:-0.208836 43:-0.890386 44:-1 45:-0.940922 46:-0.183022 47:-0.963076 48:-1 49:-0.978378 
6 1:-0.999279 2:-0.6957 3:0.102536 4:-0.806093 5:-1 6:-1 7:-1 8:-1 9:-0.558986 10:-1 11:-0.68 12:-1 13:-0.44 14:-1 15:-1 16:-1 17:-0.12 18:-0.92 19:-0.92 20:-1 21:-0.92 22:-1 23:-0.266666 24:-1 25:-0.933334 26:-1 27:-1 28:-1 29:-0.2 30:-1 31:-0.666666 32:-1 33:-0.933334 34:0.615478 35:-0.615478 36:-0.74155 37:0.74155 38:-0.971198 39:-0.971294 40:-0.971784 41:-0.520257 42:-0.453384 43:-0.957588 44:-1 45:-0.828573 46:0.206897 47:-1 48:-1 49:-1 
0.1050903334504355 1:-0.999827 2:-0.73494 3:-0.171686 4:-0.662195 5:-0.924698 6:-1 7:-1 8:-0.659209 9:-0.698796 10:-1 11:-0.777778 12:-0.866666 13:-0.888888 14:-1 15:-0.571428 16:-0.666666 17:-0.666666 18:-1 19:-0.444444 20:-1 21:-1 22:-0.764706 23:-0.529412 24:-1 25:-0.647058 26:-1 27:-1 28:-1 29:-0.17647 30:-1 31:-1 32:-1 33:-0.882352 34:0.543726 35:-0.543726 36:-0.699098 37:0.699098 38:-0.634815 39:-0.909009 40:-1 41:-0.34103 42:-0.566833 43:-0.865566 44:-1 45:-1 46:-0.271307 47:-0.849056 48:-1 49:-1 
1.503840996351055 1:-0.999273 2:-0.712506 3:0.089776 4:-1 5:-0.792424 6:-1 7:-0.735048 8:-1 9:-0.844318 10:-1 11:-0.515152 12:-1 13:-0.939394 14:-0.930197 15:-0.61039 16:-0.939394 17:-0.333334 18:-0.939394 19:-0.818182 20:-0.878788 21:-1 22:-0.885714 23:-0.371428 24:-1 25:-0.828572 26:-0.942858 27:-1 28:-1 29:-0.371428 30:-0.885714 31:-1 32:-0.619048 33:-1 34:0.269558 35:-0.269558 36:-0.297328 37:0.297328 38:-0.810248 39:-0.929081 40:-0.790876 41:-0.683933 42:-0.257246 43:-0.965073 44:-1 45:-1 46:-0.266395 47:-0.80392 48:-1 49:-1 
6 1:-0.983662 2:-0.679248 3:-0.450522 4:-1 5:-0.979458 6:-1 7:0.0592499 8:-1 9:-0.928106 10:-1 11:-0.425 12:-0.97 13:-0.9375 14:-0.740856 15:-0.839286 16:-1 17:-0.3875 18:-0.9875 19:-0.975 20:-0.7 21:-0.9625 22:-1 23:-0.377778 24:-0.988888 25:-0.977778 26:-0.7 27:-1 28:-1 29:-0.422222 30:-0.977778 31:-0.966666 32:-0.466667 33:-0.988888 34:0.137222 35:-0.137222 36:-0.160528 37:0.160528 38:-0.97879 39:-0.998592 40:-0.41683 41:-0.952894 42:-0.233842 43:-0.958358 44:-1 45:-0.96353 46:-0.138032 47:-0.960256 48:-1 49:-0.97536 
5.400698476619131 1:-0.99929 2:-0.437372 3:0.129364 4:-1 5:-0.948666 6:-1 7:-0.947581 8:-1 9:-0.794662 10:-1 11:-0.0625 12:-0.85 13:-0.9375 14:-1 15:-1 16:-1 17:-0.1875 18:-1 19:-1 20:-0.9375 21:-1 22:-1 23:-0.235294 24:-1 25:-0.941176 26:-1 27:-1 28:-1 29:-0.294118 30:-0.941176 31:-0.764706 32:-0.764707 33:-1 34:0.441014 35:-0.441014 36:-0.425964 37:0.425964 38:-0.654378 39:-0.973503 40:-0.895821 41:-0.822864 42:-0.293604 43:-0.843407 44:-1 45:-0.947253 46:-0.0981437 47:-1 48:-1 49:-1 
1.660311434583462 1:-0.999254 2:-1 3:0.363636 4:-1 5:-0.818182 6:-1 7:-0.72151 8:-1 9:-0.818182 10:-1 11:-0.3 12:-0.76 13:-0.9 14:-1 15:-1 16:-0.9 17:-0.5 18:-1 19:-1 20:-0.7 21:-0.9 22:-0.90909 23:-0.545454 24:-0.90909 25:-1 26:-0.90909 27:-1 28:-1 30:-0.90909 31:-0.90909 32:-1 33:-0.90909 34:0.433816 35:-0.433816 36:-0.471 37:0.471 38:-0.915603 39:-0.887848 40:-0.862204 41:-0.906282 42:-0.119057 43:-0.917151 44:-1 45:-1 46:-0.101844 47:-0.860464 48:-1 49:-0.959145 
5.680635670440887 1:-0.998889 2:-0.52854 3:-0.140196 4:-1 5:-0.522332 6:-1 7:-0.951225 8:-1 9:-0.8567 10:-1 11:-0.333334 12:-0.933333 13:-1 14:-1 15:-0.714286 16:-0.833334 17:-0.166666 18:-0.944444 19:-1 20:-1 21:-1 22:-0.866666 23:-0.466666 24:-0.8 25:-1 26:-1 27:-1 28:-1 29:-0.466666 30:-0.666666 31:-1 32:-0.911112 33:-0.8 34:0.712778 35:-0.712778 36:-0.698368 37:0.698368 38:-0.936886 39:-1 40:-1 41:-0.906553 42:-0.141574 43:-0.81413 44:-1 45:-0.916523 46:-0.16042 47:-0.547828 48:-0.93862 49:-0.938897 
0.409703082896534 1:-0.999457 2:-1 3:0.142858 4:-1 5:-0.928572 6:-1 7:-0.70825 8:-1 9:-0.5 10:-1 11:-0.209302 12:-1 13:-0.953488 14:-0.839292 15:-0.940199 16:-1 17:-0.395348 18:-0.953488 19:-1 20:-0.674418 21:-1 22:-0.9 23:-0.2 24:-1 25:-1 26:-1 27:-1 28:-1 29:-0.7 30:-1 31:-0.8 32:-1 33:-0.4 34:0.317254 35:-0.317254 36:0.000258 37:-0.000258 38:-0.739854 39:-0.974072 40:-0.719667 41:-0.711121 42:-0.0866224 43:-0.923389 44:-1 45:-1 46:-0.428995 47:-1 48:-1 49:-1 
3.676539757339731 1:-0.999756 2:-0.724638 3:0.127214 4:-0.649066 5:-1 6:-1 7:-1 8:-1 9:-0.677938 10:-1 11:-0.5 12:-1 13:-1 14:-1 15:0.285714 16:-1 17:-0.75 18:-0.75 19:-1 20:-1 21:-1 22:-1 23:-0.636364 24:-1 25:-1 26:-1 27:-1 28:-1 29:0.272728 30:-1 31:-0.818182 32:-1 33:-0.818182 34:0.627822 35:-0.627822 36:-0.715624 37:0.715624 38:-0.926686 39:-0.926932 40:-1 41:-0.837178 42:-0.652153 43:-1 44:-1 45:0.01818 46:0.243471 47:-1 48:-1 49:-1 
2.079168961946543 1:-0.999375 2:-1 3:0.04762 4:-1 5:-0.52381 6:-1 7:-0.70825 8:-1 9:-0.809524 10:-1 11:-0.5 12:-0.899999 13:-1 14:-0.712062 15:-0.785715 16:-0.75 17:-0.583334 18:-0.833334 19:-1 20:-0.833334 21:-1 22:-1 23:-0.391304 24:-0.913044 25:-0.826086 26:-1 27:-0.913044 28:-1 29:-0.304348 30:-1 31:-0.826086 32:-0.884059 33:-0.913044 34:0.375272 35:-0.375272 36:-0.303104 37:0.303104 38:-0.798388 39:-0.827768 40:-0.830708 41:-0.744137 42:-0.152743 43:-0.957588 44:-1 45:-1 46:-0.281609 47:-1 48:-1 49:-1 
0.9436905468119791 1:-0.999833 2:-0.397312 3:-0.808062 4:-0.615953 5:-1 6:-1 7:-1 8:0.162324 9:-1 10:-1 11:-0.692308 12:-0.815385 13:-0.846154 14:-1 15:-1 16:-0.538462 17:-0.846154 18:-0.846154 19:-0.538462 20:-0.846154 21:-1 22:-1 23:-0.333334 24:-0.777778 25:-0.777778 26:-1 27:-1 28:-1 29:-0.777778 30:-0.333334 31:-1 32:-1 33:-1 34:0.062776 35:-0.062776 36:-0.113712 37:0.113712 38:-0.84879 39:-0.472541 40:-0.925935 41:-0.496268 42:-0.641283 43:-0.888672 44:-1 45:-0.85 46:-0.698276 47:-0.875 48:-0.558824 49:-1 
4.283591650341113 1:-0.999276 2:-1 3:0.045454 4:-1 5:-0.727272 6:-1 7:-0.860755 8:-1 9:-0.454546 10:-1 11:-0.433962 12:-0.86415 13:-1 14:-0.782688 15:-0.805929 16:-0.924528 17:-0.433962 18:-0.924528 19:-0.73585 20:-1 21:-1 22:-0.939394 23:-0.333334 24:-1 25:-0.939394 26:-1 27:-1 28:-1 29:-0.515152 30:-0.878788 31:-0.818182 32:-0.757576 33:-0.757576 34:0.265396 35:-0.265396 36:-0.335284 37:0.335284 38:-0.765869 39:-0.863881 40:-0.885319 41:-0.610015 42:-0.426053 43:-0.913809 44:-1 45:-1 46:-0.201891 47:-0.903224 48:-0.943074 49:-0.971664 
2.535919872576989 1:-0.999896 2:-0.368306 3:0.013024 4:-1 5:-0.855282 6:-1 7:-1 8:-0.729275 9:-1 10:-1 11:-0.692308 12:0.107692 13:-0.846154 14:-1 15:-1 16:-1 17:-0.538462 18:-1 19:-1 20:-1 21:-0.846154 22:-1 24:-1 25:-0.333334 26:-1 27:-1 28:-1 29:-0.666666 30:-1 31:-1 32:-1 33:-1 34:0.469946 35:-0.469946 36:-0.231806 37:0.231806 38:-1 39:-0.533309 40:-1 41:-0.653347 42:0.0368084 43:-1 44:-1 45:-1 46:-0.454951 47:-1 48:-1 49:-1 
1.12534183400476 1:-0.999986 2:-0.607902 3:-0.088146 4:-1 5:-1 6:-1 7:-1 8:-0.495874 9:-0.696048 10:-1 11:-0.818182 12:-0.563637 13:-0.818182 14:-1 15:-0.766234 16:-1 17:-0.272728 18:-1 19:-0.636364 20:-1 21:-1 22:-1 23:1 24:-1 25:-1 26:-1 27:-1 28:-1 29:-1 30:-1 31:-1 32:-1 33:-1 34:0.195266 35:-0.195266 36:0.195604 37:-0.195604 38:-0.395162 39:-0.849298 40:-1 41:-0.328358 42:-0.426053 43:-0.777344 44:-1 45:-1 46:-0.698276 47:-1 48:-1 49:-1 
2.124122690451906 1:-0.999251 2:-1 3:0.473684 4:-1 5:-1 6:-1 7:-0.677538 8:-1 9:-0.789474 10:-1 11:-0.52 12:-0.904 13:-0.84 14:-1 15:-0.897143 16:-1 17:-0.36 18:-1 19:-1 20:-0.44 21:-1 22:-1 23:-0.294118 24:-1 25:-1 26:-0.764706 27:-1 28:-1 29:-0.17647 30:-1 31:-0.882352 32:-1 33:-0.882352 34:0.505548 35:-0.505548 36:-0.451288 37:0.451288 38:-0.965437 39:-0.965553 40:-0.729133 41:-0.808101 42:-0.0816842 43:-1 44:-0.940365 45:-1 46:-0.13793 47:-0.942856 48:-1 49:-1 
3.068582269335408 1:-0.9998 2:-0.85758 3:-0.126256 4:-1 5:-1 6:-1 7:-1 8:-0.633777 9:-0.301004 10:-1 11:-0.391304 12:-0.895653 13:-0.826086 14:-1 15:-0.776396 16:-1 17:-0.565218 18:-1 19:-0.652174 20:-1 21:-0.826086 22:-1 23:-0.411764 24:-0.882352 25:-1 26:-1 27:-1 28:-1 29:-0.17647 30:-1 31:-0.529412 32:-1 33:-1 34:0.212056 35:-0.212056 36:-0.438004 37:0.438004 38:-0.617996 39:-1 40:-1 41:-0.340141 42:-0.556954 43:-0.9375 44:-1 45:-1 46:-0.153055 47:-0.859648 48:-1 49:-1 
2.541350863856371 1:-0.999238 2:-1 3:-0.028912 4:-0.701287 5:-0.91172 6:-1 7:-0.909855 8:-1 9:-0.382034 10:-1 11:-0.294118 12:-0.858822 13:-0.882352 14:-1 15:-0.848738 16:-1 17:-0.764706 18:-0.529412 19:-1 20:-0.764706 21:-1 22:-1 23:-0.142858 24:-1 25:-1 26:-1 27:-1 28:-1 29:-0.357142 30:-1 31:-0.785714 32:-1 33:-0.714286 34:0.603982 35:-0.603982 36:-0.706794 37:0.706794 38:-0.940264 39:-0.940464 40:-0.94148 41:-0.734661 42:-0.54651 43:-0.516206 44:-1 45:-0.881483 46:-0.0762023 47:-0.65432 48:-1 49:-1 
6 1:-0.995288 2:-1 3:0.833334 4:-1 5:-0.84375 6:-1 7:-1 8:-1 9:-0.989584 10:-1 11:-0.052024 12:-0.902891 13:-0.98844 14:-1 15:-1 16:-0.953758 17:-0.109826 18:-0.976878 19:-1 20:-1 21:-1 22:-0.943662 23:-0.13615 24:-0.962442 25:-0.99061 26:-0.99061 27:-1 28:-1 29:-0.070422 30:-0.915492 31:-0.99061 32:-1 33:-1 34:0.2549 35:-0.2549 36:-0.260768 37:0.260768 38:-0.514525 39:-0.940018 40:-0.99607 41:-0.986634 42:-0.238544 43:-0.834579 44:-1 45:-0.960198 46:-0.155372 47:-0.880596 48:-1 49:-0.994175 
6 1:-0.998689 2:-1 3:0.607844 4:-1 5:-0.647058 6:-1 7:-1 8:-1 9:-0.960784 10:-1 11:-0.172414 12:-0.875862 13:-0.896552 14:-1 15:-1 16:-0.862068 17:-0.275862 18:-0.896552 19:-1 20:-1 21:-1 22:-0.95 23:-0.2 24:-1 25:-1 26:-1 27:-1 28:-1 30:-0.9 31:-0.95 32:-1 33:-1 34:0.272958 35:-0.272958 36:-0.220878 37:0.220878 38:-0.51896 39:-0.873092 40:-1 41:-0.937156 42:-0.248163 43:-0.9375 44:-1 45:-1 46:-0.26598 47:-0.695908 48:-1 49:-1 
6 1:-0.998788 2:-0.471148 3:0.36969 4:-1 5:-0.974636 6:-1 7:-1 8:-1 9:-0.923906 10:-1 11:-0.174604 12:-0.92381 13:-1 14:-1 15:-0.877551 16:-1 17:-0.015874 18:-0.968254 19:-1 20:-1 21:-1 22:-0.968254 23:-0.015874 24:-1 25:-1 26:-1 27:-1 28:-1 29:-0.111112 30:-1 31:-1 32:-1 33:-0.904762 34:0.293144 35:-0.293144 36:-0.253414 37:0.253414 38:-0.39843 39:-0.973932 40:-1 41:-0.92739 42:-0.156141 43:-0.961486 44:-1 45:-0.948107 46:-0.243242 47:-0.956756 48:-1 49:-1 
1.388206030167866 1:-0.999238 2:-1 3:-0.111112 4:-1 5:-1 6:-1 7:-0.470527 8:-1 9:-0.407408 10:-1 11:-0.351352 12:-0.805406 13:-0.891892 14:-0.81323 15:-1 16:-1 17:-0.567568 18:-1 19:-0.945946 20:-0.567568 21:-1 22:-1 23:-0.285714 24:-1 25:-1 26:-0.642858 27:-1 28:-1 29:-0.571428 30:-1 31:-0.571428 32:-1 33:-0.928572 34:0.377914 35:-0.377914 36:-0.320826 37:0.320826 38:-1 39:-0.977879 40:-0.630355 41:-0.753526 42:-0.115384 43:-0.901949 44:-1 45:-1 46:-0.313507 47:-0.889908 48:-1 49:-0.935531 
0.9607287506242813 1:-0.999205 2:-0.421956 3:-0.361278 4:-0.81583 5:-0.946774 6:-1 7:-0.891297 8:-1 9:-0.520958 10:-1 11:-0.411764 12:-1 13:-0.882352 14:-0.79675 15:-0.924369 16:-0.941176 17:-0.470588 18:-1 19:-0.82353 20:-0.82353 21:-0.882352 22:-1 23:-0.333334 24:-0.8 25:-1 26:-0.866666 27:-1 28:-1 29:-0.466666 30:-0.933334 31:-1 32:-1 33:-0.6 34:0.417134 35:-0.417134 36:-0.561554 37:0.561554 38:-0.939008 39:-0.939213 40:-0.840667 41:-0.683933 42:-0.305475 43:-1 44:-1 45:-1 46:0.0547678 47:-0.89916 48:-1 49:-1 
6 1:-0.997466 2:-1 3:0.18584 4:-1 5:-0.876106 6:-1 7:-0.40359 8:-1 9:-0.893806 10:-1 11:-0.305786 12:-0.940497 13:-0.950414 14:-0.790591 15:-0.97875 16:-1 17:-0.305786 18:-0.966942 19:-0.966942 20:-0.752066 21:-1 22:-0.929824 23:-0.54386 24:-0.964912 25:-0.929824 26:-0.596492 27:-0.982456 28:-1 29:-0.596492 30:-0.91228 31:-0.947368 32:-0.532163 33:-0.947368 34:0.092862 35:-0.092862 36:-0.029532 37:0.029532 38:-0.734865 39:-0.986789 40:-0.551958 41:-0.941116 42:-0.251511 43:-0.892637 44:-1 45:-0.986848 46:-0.378366 47:-0.857536 48:-1 49:-0.922991 
6 1:-0.990678 2:-1 3:0.799164 4:-1 5:-0.849372 6:-1 7:-1 8:-1 9:-0.94979 10:-1 11:-0.158416 12:-0.833663 13:-1 14:-0.988598 15:-0.961812 16:-0.950496 17:-0.138614 18:-0.940594 19:-0.9901 20:-1 21:-1 22:-1 23:-0.071824 24:-0.955802 25:-0.9779 26:-1 27:-1 28:-1 29:-0.116022 30:-0.933702 31:-0.955802 32:-1 33:-0.98895 34:0.181844 35:-0.181844 36:-0.257546 37:0.257546 38:-0.44853 39:-0.969606 40:-1 41:-0.980246 42:-0.283771 43:-0.87651 44:-0.995617 45:-0.984875 46:-0.0922926 47:-0.920168 48:-1 49:-0.981547 
1.584637528435653 1:-0.994117 2:-1 3:0.191256 4:-1 5:-0.89071 6:-1 7:-0.475486 8:-1 9:-0.814208 10:-1 11:-0.514124 12:-0.98644 13:-0.977402 14:-0.531491 15:-0.941888 16:-0.9887 17:-0.502824 18:-0.9887 19:-0.943502 20:-0.570622 21:-0.977402 22:-0.95699 23:-0.387096 24:-0.935484 25:-0.978494 26:-0.806452 27:-0.978494 28:-1 29:-0.27957 30:-0.913978 31:-1 32:-0.842293 33:-0.88172 34:0.332938 35:-0.332938 36:-0.392544 37:0.392544 38:-0.879434 39:-0.951934 40:-0.814961 41:-0.879507 42:-0.576691 43:-0.994083 44:-0.29965 45:-0.92824 46:-0.0216505 47:-0.873756 48:-1 49:-0.994164 
6 1:-0.999997 2:-0.759014 3:-0.240986 4:-1 5:-1 6:-1 7:-1 8:-0.690161 9:-0.240986 10:-1 11:-0.8 12:-1 13:-0.4 14:-1 15:-1 16:-1 17:-0.6 18:-1 19:-0.2 20:-1 21:-1 22:-1 23:-0.142858 24:-1 25:-0.714286 26:-1 27:-1 28:-1 29:-0.428572 30:-1 31:-0.714286 32:-1 33:-1 34:0.813084 35:-0.813084 36:-0.753694 37:0.753694 38:-0.769586 39:-1 40:-1 41:0.151385 42:-0.67203 43:-1 44:-1 45:-1 46:-0.310345 47:-0.809524 48:-1 49:-1 
6 1:-0.999229 2:-0.86539 3:-0.042098 4:-1 5:-0.848752 6:-1 7:-0.382226 8:-1 9:-0.848752 10:-1 11:-0.660378 12:-1 13:-0.924528 14:-0.695765 15:-0.708894 16:-0.924528 17:-0.509434 18:-0.962264 19:-1 20:-0.660378 21:-0.849056 22:-1 23:-0.103448 24:-1 25:-1 26:-0.793104 27:-0.931034 28:-1 29:-0.448276 30:-1 31:-0.931034 32:-0.724139 33:-1 34:-0.013282 35:0.013282 36:0.207784 37:-0.207784 38:-0.716653 39:-0.956554 40:-0.530255 41:-0.661154 42:-0.25542 43:-0.967905 44:-1 45:-1 46:-0.499845 47:-1 48:-1 49:-1 
2.957693588983616 1:-0.999707 2:-0.242106 3:-0.368422 4:-1 5:-1 6:-1 7:-1 8:-0.756391 9:-0.578948 10:-1 11:-0.571428 12:-1 13:-0.857142 14:-1 15:-0.816325 16:-1 17:-0.142858 18:-1 19:-0.857142 20:-0.714286 21:-1 22:-1 23:-0.058824 24:-1 25:-0.882352 26:-1 27:-1 28:-1 29:-0.529412 30:-1 31:-0.647058 32:-1 33:-0.882352 34:0.53636 35:-0.53636 36:-0.62408 37:0.62408 38:-0.731183 39:-1 40:-0.841994 41:-0.522387 42:-0.489825 43:-1 44:-1 45:-1 46:0.0191571 47:-1 48:-1 49:-1 
4.45017131004665 1:-0.999984 2:-1 3:0.818182 4:-1 5:-1 6:-1 7:-1 8:-1 9:-0.818182 10:-1 11:-0.23077 12:-1 13:-1 14:-1 15:-1 16:-1 17:0.23077 18:-1 19:-1 20:-1 21:-1 22:-1 23:-0.714286 24:-1 25:-0.428572 26:-1 27:-1 28:-1 29:-0.142858 30:-1 31:-1 32:-1 33:-0.714286 34:0.065964 35:-0.065964 36:-0.248408 37:0.248408 38:-0.19355 39:-1 40:-1 41:-0.701493 42:-0.319767 43:-1 44:-1 45:-1 46:-0.374202 47:-1 48:-1 49:-1 
1.318011339732174 1:-0.98836 2:-1 3:0.504588 4:-1 5:-0.761468 6:-1 7:-0.850111 8:-1 9:-0.889908 10:-1 11:-0.621622 12:-0.87027 13:-1 14:-0.470816 15:-0.895752 16:-0.972972 17:-0.54054 18:-0.891892 19:-0.918918 20:-0.756756 21:-0.945946 22:-1 23:-0.182482 24:-0.956204 25:-1 26:-0.985402 27:-1 28:-1 29:-0.021898 30:-0.883212 31:-0.985402 32:-1 33:-0.985402 34:0.838216 35:-0.838216 36:-0.844654 37:0.844654 38:-0.997663 39:-1 40:-1 41:-0.997405 42:-0.185938 43:-0.793478 44:-0.814475 45:-0.865509 46:0.0308181 47:-0.694684 48:-0.993181 49:-0.972844 
2.622531316937341 1:-0.999929 2:-0.763358 3:-0.491094 4:-1 5:-1 6:-1 7:-1 8:-0.695746 9:0.017812 10:-1 11:-0.333334 12:-0.733333 13:-0.555556 14:-1 15:-1 16:-1 17:-1 18:-1 19:-0.333334 20:-1 21:-1 22:-1 23:-0.454546 24:-1 25:-0.818182 26:-1 27:-1 28:-1 29:-0.454546 30:-1 31:-0.454546 32:-1 33:-0.818182 34:0.17379 35:-0.17379 36:-0.232804 37:0.232804 38:-0.903226 39:-0.90355 40:-1 41:0.0746275 42:-0.540842 43:-1 44:-1 45:-1 46:-0.227586 47:-1 48:-1 49:-1 
5.84648247654402 1:-0.999803 2:-1 3:-0.285714 4:-1 5:-0.428572 6:-1 7:-1 8:-1 9:-0.285714 10:-1 11:-0.157894 12:-0.747369 13:-0.894736 14:-1 15:-1 16:-0.578948 17:-0.789474 18:-1 19:-0.789474 20:-1 21:-1 22:-1 23:-0.125 24:-1 25:-0.75 26:-1 27:-1 28:-1 29:-0.625 30:-1 31:-1 32:-1 33:-0.5 34:0.289214 35:-0.289214 36:-0.229814 37:0.229814 38:-0.485244 39:-1 40:-1 41:-0.485552 42:-0.609227 43:-0.393617 44:-1 45:-1 46:-0.383712 47:-1 48:-1 49:-1 
6 1:-0.999704 2:-1 3:0.28123 4:-0.705269 5:-1 6:-1 7:-1 8:-0.702663 9:-0.743754 10:-1 11:0.111112 12:-1 13:-1 14:-1 15:-1 16:-1 17:-0.444444 18:-0.888888 19:-0.777778 20:-1 21:-1 22:-1 23:0.23077 24:-1 25:-1 26:-1 27:-1 28:-1 29:-0.384616 30:-1 31:-0.846154 32:-1 33:-1 34:0.348492 35:-0.348492 36:-0.248234 37:0.248234 38:-0.344759 39:-0.949767 40:-1 41:-0.832089 42:-0.0912507 43:-1 44:-1 45:-1 46:-0.446838 47:-0.916668 48:-1 49:-1 
6 1:-0.999342 2:-0.633866 3:-0.183068 4:-1 5:-0.925734 6:-1 7:-0.696658 8:-1 9:-0.5544 10:-1 11:-0.037038 12:-1 13:-1 14:-0.914685 15:-0.904762 16:-1 17:-0.25926 18:-1 19:-1 20:-0.925926 21:-0.925926 22:-0.862068 23:-0.37931 24:-0.862068 25:-1 26:-1 27:-1 28:-0.931034 29:-0.724138 30:-0.931034 31:-0.862068 32:-0.632184 33:-0.724138 34:0.369 35:-0.369 36:-0.376004 37:0.376004 38:-0.798388 39:-0.885179 40:-0.830708 41:-0.744137 42:-0.180075 43:-1 44:-1 45:-1 46:-0.252873 47:-0.857144 48:-1 49:-1 
2.272158711590541 1:-0.999888 2:-0.273356 3:-0.604548 4:-0.629572 5:-0.901136 6:-1 7:-1 8:-0.626297 9:-0.802274 10:-1 11:-0.466666 12:-0.680001 13:-1 14:-1 15:-1 16:-0.733334 17:-0.333334 18:-1 19:-0.733334 20:-1 21:-1 22:-0.75 23:-0.5 24:-1 25:-1 26:-1 27:-1 28:-1 29:-0.25 30:-1 31:-1 32:-1 33:-0.5 34:0.361798 35:-0.361798 36:-0.24535 37:0.24535 38:-0.644212 39:-0.716325 40:-1 41:-0.683933 42:-0.59486 43:-0.89522 44:-1 45:-1 46:-0.219068 47:-0.64706 48:-1 49:-1 
6 1:-0.999937 2:-0.100978 3:-0.56569 4:-0.618081 5:-1 6:-1 7:-1 8:-0.807351 9:-0.782844 10:-1 11:-0.4 12:-0.88 13:-0.9 14:-1 15:-0.871429 16:-0.8 17:-0.3 18:-1 19:-0.8 20:-1 21:-1 22:-1 24:-1 25:-0.75 26:-1 27:-1 28:-1 29:-0.5 30:-1 31:-1 32:-1 33:-0.75 34:0.42962 35:-0.42962 36:-0.15041 37:0.15041 38:-0.280733 39:-0.804494 40:-1 41:-0.564341 42:-0.503614 43:-1 44:-1 45:-1 46:-0.478099 47:-0.891892 48:-1 49:-1 
1.529518863827571 1:-0.999224 2:-0.845444 3:0.095732 4:-1 5:-0.88466 6:-1 7:-0.941112 8:-1 9:-0.423298 10:-1 11:-0.609756 12:-0.941464 13:-0.560976 14:-0.943818 15:-1 16:-0.95122 17:-0.268292 18:-1 19:-0.853658 20:-0.90244 21:-0.95122 22:-1 23:-0.125 24:-1 25:-0.875 26:-1 27:-1 28:-1 29:-0.5625 30:-0.9375 31:-0.625 32:-1 33:-0.875 34:0.544794 35:-0.544794 36:-0.578732 37:0.578732 38:-0.954352 39:-1 40:-0.932922 41:-0.391721 42:-0.306931 43:-0.899174 44:-1 45:-1 46:-0.0663637 47:-0.962264 48:-1 49:-1 
4.461532465082576 1:-0.999276 2:-1 3:0.23077 4:-1 5:-1 6:-1 7:-0.842904 8:-1 9:-0.384616 10:-1 11:-0.23077 12:-1 13:-0.692308 14:-1 15:-1 16:-1 17:-0.538462 18:-1 19:-0.846154 20:-0.846154 21:-0.846154 22:-1 23:-0.466666 24:-0.866666 25:-0.866666 26:-1 27:-0.866666 28:-1 29:-0.333334 30:-1 31:-0.6 32:-1 33:-1 34:0.548014 35:-0.548014 36:-0.597416 37:0.597416 38:-0.956798 39:-1 40:-0.957678 41:-0.568231 42:-0.180075 43:-1 44:-1 45:-0.914286 46:-0.00862087 47:-0.928572 48:-1 49:-1 
6 1:-0.999632 2:-1 3:0.535282 4:-1 5:-0.763802 6:-1 7:-1 8:-0.706189 9:-1 10:-1 11:-0.130434 12:-0.895653 13:-0.913044 14:-1 15:-1 16:-0.913044 17:-0.217392 18:-1 19:-0.913044 20:-1 21:-1 22:-1 23:-0.166666 24:-0.833334 25:-1 26:-1 27:-1 28:-1 29:-0.166666 30:-0.833334 31:-1 32:-1 33:-1 34:0.309166 35:-0.309166 36:-0.274716 37:0.274716 38:-0.433767 39:-0.897395 40:-1 41:-0.885678 42:-0.316149 43:-0.924201 44:-1 45:-1 46:-0.178282 47:-0.914892 48:-1 49:-1 
1.697694540010102 1:-0.999986 2:-0.680694 3:-0.257426 4:-1 5:-1 6:-1 7:-1 8:-0.589464 9:-0.381188 10:-1 11:-0.428572 12:-1 13:-1 14:-1 15:-1 16:-1 17:-0.428572 18:-1 19:-0.428572 20:-1 21:-0.714286 22:-1 23:-0.846154 24:-1 25:-0.692308 26:-1 27:-0.846154 28:-1 29:-0.23077 30:-1 31:-0.538462 32:-1 33:-0.846154 34:0.40139 35:-0.40139 36:-0.574254 37:0.574254 38:-0.813896 39:-1 40:-1 41:0.0332946 42:-0.381902 43:-1 44:-1 45:-1 46:-0.350132 47:-1 48:-1 49:-1 
6 1:-0.999962 2:-0.514766 3:-0.000454 4:-1 5:-0.909132 6:-1 7:-1 8:-0.688065 9:-0.818264 10:-1 11:-0.181818 12:-1 13:-1 14:-1 15:-1 16:-1 18:-1 19:-0.818182 20:-1 21:-1 22:-1 23:-0.166666 24:-0.833334 25:-1 26:-1 27:-1 28:-1 29:-0.5 30:-0.833334 31:-1 32:-1 33:-0.666666 34:0.098824 35:-0.098824 36:-0.075996 37:0.075996 38:-0.124915 39:-0.948696 40:-1 41:-0.771357 42:-0.462687 43:-1 44:-1 45:-1 46:-0.332354 47:-0.914892 48:-1 49:-1 
1.543241524338747 1:-0.999276 2:-0.511572 3:0.13368 4:-1 5:-1 6:-1 7:-1 8:-1 9:-0.622106 10:-1 11:-0.368422 12:-1 13:-0.631578 14:-1 15:-1 16:-1 17:-0.263158 18:-1 19:-0.947368 20:-0.789474 21:-1 22:-1 23:-0.083334 24:-1 25:-1 26:-1 27:-1 28:-1 29:-0.5 30:-1 31:-0.5 32:-0.888888 33:-1 34:0.68474 35:-0.68474 36:-0.632584 37:0.632584 38:-0.953916 39:-1 40:-0.887139 41:-0.641792 42:-0.037954 43:-0.966071 44:-1 45:-0.954285 46:-0.172414 47:-0.923808 48:-1 49:-1 
0.7339913469237545 1:-0.993862 2:-0.727626 3:0.323056 4:-1 5:-0.879722 6:-1 7:-0.843686 8:-1 9:-0.868788 10:-1 11:-0.33721 12:-0.874418 13:-1 14:-0.758936 15:-0.955149 16:-0.965116 17:-0.174418 18:-1 19:-0.965116 20:-0.94186 21:-0.965116 22:-0.917242 23:-0.37931 24:-0.889656 25:-0.95862 26:-0.889656 27:-1 28:-1 29:-0.282758 30:-0.875862 31:-0.986206 32:-0.852875 33:-0.931034 34:0.51436 35:-0.51436 36:-0.384326 37:0.384326 38:-0.823148 39:-0.947122 40:-0.920304 41:-0.948939 42:-0.0400638 43:-0.833332 44:-0.89625 45:-0.97193 46:-0.269509 47:-0.812864 48:-0.99484 49:-0.979453 
0.6973810991481335 1:-0.999279 2:-1 3:0.333334 4:-1 5:-0.851852 6:-1 7:-0.773083 8:-1 9:-0.703704 10:-1 11:-0.571428 12:-1 13:-0.785714 14:-0.917733 15:-0.816325 16:-0.928572 17:-0.357142 18:-0.928572 19:-0.785714 20:-0.857142 21:-1 22:-0.826086 23:-0.565218 24:-1 25:-0.73913 26:-1 27:-1 28:-1 29:-0.217392 30:-1 31:-0.913044 32:-0.768115 33:-0.913044 34:0.151228 35:-0.151228 36:-0.31008 37:0.31008 38:-0.879032 39:-0.879438 40:-0.85187 41:-0.563433 42:-0.397355 43:-1 44:-1 45:-1 46:-0.0344823 47:-0.95 48:-1 49:-1 
0.9334842581366938 1:-0.999827 2:-1 3:-0.126638 4:-0.296549 5:-0.737992 6:-1 7:-1 8:-0.822582 9:-0.825328 10:-1 11:-0.642858 12:-0.82857 13:-0.714286 14:-1 15:-0.816325 16:-0.571428 17:-0.642858 18:-0.857142 19:-0.857142 20:-1 21:-1 22:-0.866666 23:-0.2 24:-0.866666 25:-0.866666 26:-1 27:-1 28:-1 29:-0.333334 30:-1 31:-0.866666 32:-1 33:-1 34:0.257766 35:-0.257766 36:-0.260252 37:0.260252 38:-0.416019 39:-0.875281 40:-1 41:-0.536798 42:-0.683339 43:-0.4472 44:-1 45:-1 46:-0.458977 47:-0.931036 48:-1 49:-1 
2.113970697305065 1:-0.999915 2:-1 3:-0.040308 4:-1 5:-1 6:-1 7:-1 8:-0.649576 9:-0.232246 10:-1 11:-0.714286 12:-0.657143 13:-1 14:-1 15:-1 16:-1 17:-0.714286 18:-1 19:0.142858 20:-1 21:-1 22:-0.8 23:-0.2 24:-1 25:-1 26:-1 27:-1 28:-1 29:-0.2 30:-1 31:-0.8 32:-1 33:-1 34:0.239002 35:-0.239002 36:-0.363184 37:0.363184 38:-0.899193 39:-1 40:-1 41:-0.440299 42:-0.426053 43:-0.851561 44:-1 45:-1 46:0.00574845 47:-0.833332 48:-1 49:-1 
6 1:-0.983662 2:-1 3:-0.246512 4:-1 5:-0.96279 6:-1 7:0.182608 8:-1 9:-0.948838 10:-1 11:-0.363228 12:-0.946187 13:-0.982062 14:-0.814068 15:-0.850096 16:-0.982062 17:-0.318386 18:-0.982062 19:-0.964126 20:-0.757848 21:-0.973094 22:-0.992338 23:-0.43295 24:-0.984674 25:-0.969348 26:-0.662836 27:-1 28:-1 29:-0.409962 30:-0.969348 31:-0.984674 32:-0.489144 33:-0.977012 34:0.120402 35:-0.120402 36:-0.07037 37:0.07037 38:-0.950115 39:-0.996272 40:-0.394042 41:-0.950145 42:-0.210675 43:-0.939402 44:-1 45:-0.960414 46:-0.23978 47:-0.938144 48:-1 49:-0.98551 
6 1:-0.994243 2:-0.903718 3:0.490094 4:-0.754585 5:-0.78713 6:-1 7:-1 8:-1 9:-0.991812 10:-1 11:-0.15695 12:-0.86009 13:-0.991032 14:-1 15:-0.98847 16:-0.892376 17:-0.15695 18:-0.928252 19:-1 20:-1 21:-1 22:-0.956522 23:-0.130434 24:-0.923914 25:-1 26:-1 27:-0.98913 28:-1 29:-0.086956 30:-0.923914 31:-0.98913 32:-1 33:-1 34:0.212828 35:-0.212828 36:-0.241822 37:0.241822 38:-0.47202 39:-0.946714 40:-1 41:-0.99258 42:-0.299213 43:-0.817939 44:-1 45:-0.993371 46:-0.179843 47:-0.806628 48:-1 49:-0.961176 
0.9563544373603493 1:-0.999668 2:-0.131242 3:-0.651568 4:-0.723203 5:-1 6:-1 7:-1 8:-0.720756 9:-0.651568 10:-1 11:-0.666666 12:-0.599999 13:-0.833334 14:-1 15:-1 16:-0.833334 17:-0.166666 18:-1 19:-1 20:-1 21:-0.833334 22:-0.818182 23:-0.636364 24:-0.636364 25:-0.818182 26:-1 27:-1 28:-1 29:-0.636364 30:-1 31:-0.636364 32:-1 33:-0.818182 34:0.562598 35:-0.562598 36:-0.631704 37:0.631704 38:-0.939516 39:-0.879438 40:-1 41:-0.597015 42:-0.426053 43:-0.64375 44:-1 45:-1 46:-0.0948271 47:-0.8 48:-1 49:-1 
0.8934793567204847 1:-0.999808 2:-0.12049 3:-0.727706 4:-0.719777 5:-1 6:-1 7:-1 8:-0.7173 9:-0.591558 10:-1 11:-0.714286 12:-1 13:-0.714286 14:-1 15:-1 16:-0.714286 17:-0.142858 18:-1 19:-1 20:-1 21:-0.714286 22:-0.818182 23:-0.636364 24:-0.636364 25:-0.818182 26:-1 27:-1 28:-1 29:-0.636364 30:-1 31:-0.636364 32:-1 33:-0.818182 34:0.719354 35:-0.719354 36:-0.789194 37:0.789194 38:-1 39:-0.913885 40:-1 41:-0.520257 42:-0.590039 43:-0.618303 44:-1 45:-0.828573 46:-0.051724 47:-0.714284 48:-1 49:-1 
6 1:-0.999882 2:-1 3:0.372998 4:-0.78419 5:-0.771168 6:-1 7:-1 8:-1 9:-0.771168 10:-1 12:-1 13:-1 14:-1 15:-1 16:-0.888888 17:-0.222222 18:-0.888888 19:-1 20:-1 21:-1 22:-1 23:-0.23077 24:-0.846154 25:-1 26:-1 27:-1 28:-1 29:-0.384616 30:-0.846154 31:-0.692308 32:-1 33:-1 34:0.140208 35:-0.140208 36:-0.174004 37:0.174004 38:-0.153226 39:-0.819157 40:-1 41:-0.865672 42:-0.655632 43:-0.64375 44:-1 45:-1 46:-0.336207 47:-1 48:-1 49:-1 
3.915327630144427 1:-0.999534 2:-1 3:0.734694 4:-1 5:-1 6:-1 7:-0.979161 8:-1 9:-0.755102 10:-1 11:-0.439252 12:-0.75327 13:-0.925234 14:-1 15:-0.615487 16:-1 17:-0.140186 18:-1 19:-1 20:-1 21:-1 22:-1 23:-0.173076 24:-0.942308 25:-1 26:-0.98077 27:-1 28:-1 29:-0.192308 30:-1 31:-0.788462 32:-0.923077 33:-0.98077 34:0.293864 35:-0.293864 36:-0.263288 37:0.263288 38:-0.359583 39:-0.97636 40:-1 41:-0.798069 42:-0.50483 43:-0.778797 44:-0.863582 45:-0.858823 46:-0.408384 47:-0.960784 48:-0.884659 49:-0.919625 
4.188879468196046 1:-0.992021 2:-0.749746 3:0.304382 4:-0.840534 5:-0.937514 6:-1 7:-0.832511 8:-1 9:-0.906272 10:-1 11:-0.352272 12:-0.904545 13:-0.988636 14:-0.738239 15:-0.941559 16:-0.988636 17:-0.34091 18:-0.96591 19:-0.96591 20:-0.75 21:-1 22:-0.9779 23:-0.060774 24:-0.955802 25:-1 26:-1 27:-1 28:-1 29:-0.071824 30:-0.9779 31:-0.955802 32:-1 33:-1 34:0.305612 35:-0.305612 36:-0.33932 37:0.33932 38:-0.549023 39:-0.962985 40:-0.997402 41:-0.955814 42:-0.446191 43:-0.960937 44:-0.560594 45:-0.915789 46:-0.118646 47:-0.894736 48:-1 49:-0.949918 
6 1:-0.997356 2:-0.801552 3:0.245222 4:-0.873544 5:-0.763566 6:-1 7:-0.96781 8:-1 9:-0.810852 10:-1 11:-0.210526 12:-0.894736 13:-0.982456 14:-1 15:-0.842104 16:-0.947368 17:-0.245614 18:-0.91228 19:-0.929824 20:-0.982456 21:-1 22:-0.941748 23:-0.165048 24:-0.980582 25:-0.961166 26:-1 27:-1 28:-1 29:-0.262136 30:-0.883496 31:-0.980582 32:-0.948221 33:-0.864078 34:0.133192 35:-0.133192 36:-0.255692 37:0.255692 38:-0.485408 39:-0.915797 40:-0.984952 41:-0.906182 42:-0.489825 43:-0.796428 44:-0.986746 45:-0.847619 46:-0.16475 47:-0.873016 48:-1 49:-0.933075 
6 1:-0.997115 2:-0.620402 3:0.084966 4:-1 5:-0.830914 6:-1 7:-0.683461 8:-1 9:-0.943638 10:-1 11:-0.461538 12:-0.833846 13:-1 14:-0.645615 15:-0.960439 16:-0.938462 17:-0.476924 18:-0.923076 19:-0.984616 20:-0.723076 21:-0.96923 22:-0.945454 23:-0.145454 24:-1 25:-0.981818 26:-0.945454 27:-1 28:-1 29:-0.145454 30:-0.945454 31:-1 32:-0.903029 33:-0.963636 34:-0.021426 35:0.021426 36:-0.113702 37:0.113702 38:-0.581007 39:-0.946118 40:-0.708706 41:-0.98499 42:-0.448499 43:-0.830831 44:-0.988341 45:-0.932963 46:-0.217878 47:-0.86592 48:-1 49:-0.95093 
4.870958067925653 1:-0.999259 2:-0.690198 3:0.04181 4:-0.802588 5:-1 6:-1 7:-0.664057 8:-1 9:-0.835504 10:-1 11:-0.352942 12:-0.858822 13:-0.882352 14:-1 15:-1 16:-0.941176 17:-0.352942 18:-0.941176 19:-1 20:-0.82353 21:-0.82353 22:-0.941176 23:-0.17647 24:-0.941176 25:-0.882352 26:-1 27:-1 28:-1 29:-0.352942 30:-1 31:-0.941176 32:-0.686275 33:-1 34:0.388002 35:-0.388002 36:-0.309338 37:0.309338 38:-0.773186 39:-0.924649 40:-0.827181 41:-0.77612 42:-0.210822 43:-0.814454 44:-1 45:-0.949998 46:-0.245689 47:-1 48:-1 49:-1 
